{"learner":{"attributes":{"best_iteration":"17","best_score":"0.21815985710944047","scikit_learn":"{\"_estimator_type\": \"classifier\"}"},"feature_names":[],"feature_types":[],"gradient_booster":{"model":{"gbtree_model_param":{"num_parallel_tree":"1","num_trees":"68"},"iteration_indptr":[0,1,2,3,4,5,6,7,8,9,10,11,12,13,14,15,16,17,18,19,20,21,22,23,24,25,26,27,28,29,30,31,32,33,34,35,36,37,38,39,40,41,42,43,44,45,46,47,48,49,50,51,52,53,54,55,56,57,58,59,60,61,62,63,64,65,66,67,68],"tree_info":[0,0,0,0,0,0,0,0,0,0,0,0,0,0,0,0,0,0,0,0,0,0,0,0,0,0,0,0,0,0,0,0,0,0,0,0,0,0,0,0,0,0,0,0,0,0,0,0,0,0,0,0,0,0,0,0,0,0,0,0,0,0,0,0,0,0,0,0],"trees":[{"base_weights":[1.724716E-2,1.1146678E0,-1.7203174E0,-1.930338E-2,1.5525553E0,-0E0,-1.816557E0,1.7683689E-2,4.5819315E-3,-1.475771E-2,9.718938E-3,-0E0,-1.8693747E-2],"categories":[],"categories_nodes":[],"categories_segments":[],"categories_sizes":[],"default_left":[0,0,0,0,0,0,0,0,0,0,0,0,0],"id":0,"left_children":[1,3,5,-1,7,9,11,-1,-1,-1,-1,-1,-1],"loss_changes":[8.421612E3,3.6345442E3,2.7228174E2,0E0,5.354785E2,1.5841196E2,1.6677832E2,0E0,0E0,0E0,0E0,0E0,0E0],"parents":[2147483647,0,0,1,1,2,2,4,4,5,5,6,6],"right_children":[2,4,6,-1,8,10,12,-1,-1,-1,-1,-1,-1],"split_conditions":[2.1637842E1,1.6355822E1,2.1698784E-2,-1.930338E-2,3.203677E3,2.3970415E-1,2.750678E2,1.7683689E-2,4.5819315E-3,-1.475771E-2,9.718938E-3,-0E0,-1.8693747E-2],"split_indices":[1,1,5,0,6,4,6,0,0,0,0,0,0],"split_type":[0,0,0,0,0,0,0,0,0,0,0,0,0],"sum_hessian":[4.404547E3,2.7043506E3,1.7001963E3,3.3425E2,2.3701006E3,9.362851E1,1.6065677E3,1.9690187E3,4.010818E2,3.8E1,5.5628506E1,4.2189255E1,1.5643785E3],"tree_param":{"num_deleted":"0","num_feature":"7","num_nodes":"13","size_leaf_vector":"1"}},{"base_weights":[1.1706297E-2,1.0927908E0,-1.703668E0,-1.9126758E-2,1.5309069E0,-0E0,-1.7989779E0,1.7470784E-2,4.4022994E-3,-1.3781936E-2,7.301716E-3,-0E0,-1.8512826E-2],"categories":[],"categories_nodes":[],"categories_segments":[],"categories_sizes":[],"default_left":[0,0,0,0,0,0,0,0,0,0,0,0,0],"id":1,"left_children":[1,3,5,-1,7,9,11,-1,-1,-1,-1,-1,-1],"loss_changes":[8.211259E3,3.601173E3,2.7180762E2,0E0,5.3613965E2,1.0994479E2,1.6676807E2,0E0,0E0,0E0,0E0,0E0,0E0],"parents":[2147483647,0,0,1,1,2,2,4,4,5,5,6,6],"right_children":[2,4,6,-1,8,10,12,-1,-1,-1,-1,-1,-1],"split_conditions":[2.1637842E1,1.6355822E1,2.1698784E-2,-1.9126758E-2,3.203677E3,2.3133307E4,2.750678E2,1.7470784E-2,4.4022994E-3,-1.3781936E-2,7.301716E-3,-0E0,-1.8512826E-2],"split_indices":[1,1,5,0,6,6,6,0,0,0,0,0,0],"split_type":[0,0,0,0,0,0,0,0,0,0,0,0,0],"sum_hessian":[4.4159683E3,2.7136626E3,1.7023058E3,3.3946838E2,2.3741943E3,9.2375175E1,1.6099305E3,1.9708646E3,4.0332968E2,3.1248585E1,6.112659E1,4.1439255E1,1.5684913E3],"tree_param":{"num_deleted":"0","num_feature":"7","num_nodes":"13","size_leaf_vector":"1"}},{"base_weights":[3.9333154E-2,-1.1447997E0,1.4555551E0,-1.5562716E0,-3.5311738E-1,-1.6446805E-2,1.5674381E0,-1.9409854E-2,-8.536952E-3,-9.961145E-3,9.945203E-3,1.5945217E-2,-9.398583E-3],"categories":[],"categories_nodes":[],"categories_segments":[],"categories_sizes":[],"default_left":[0,0,0,0,0,0,0,0,0,0,0,0,0],"id":2,"left_children":[1,3,5,7,9,-1,11,-1,-1,-1,-1,-1,-1],"loss_changes":[7.478611E3,7.6855664E2,7.2368164E2,3.911902E2,7.4062915E2,0E0,1.5069922E2,0E0,0E0,0E0,0E0,0E0,0E0],"parents":[2147483647,0,0,1,1,2,2,3,3,4,4,6,6],"right_children":[2,4,6,8,10,-1,12,-1,-1,-1,-1,-1,-1],"split_conditions":[3.6250668E1,3.573669E1,-5.475278E2,-2.3694445E1,2.7196595E-1,-1.6446805E-2,7.291477E-1,-1.9409854E-2,-8.536952E-3,-9.961145E-3,9.945203E-3,1.5945217E-2,-9.398583E-3],"split_indices":[3,3,0,0,4,0,4,0,0,0,0,0,0],"split_type":[0,0,0,0,0,0,0,0,0,0,0,0,0],"sum_hessian":[4.44311E3,2.4171465E3,2.0259636E3,1.5783134E3,8.388331E2,6.4234375E1,1.9617292E3,1.0031556E3,5.751578E2,5.737086E2,2.6512448E2,1.9469816E3,1.4747682E1],"tree_param":{"num_deleted":"0","num_feature":"7","num_nodes":"13","size_leaf_vector":"1"}},{"base_weights":[-3.3051528E-2,-1.1662905E0,1.4002614E0,1.0638765E0,-1.4430399E0,1.6780536E0,-0E0,1.7995981E-2,-6.151317E-3,-1.7985612E-2,-8.2619665E-3,-2.1492313E-3,1.6919617E-2,-1.658215E-2,5.129665E-3],"categories":[],"categories_nodes":[],"categories_segments":[],"categories_sizes":[],"default_left":[0,0,0,0,0,0,0,0,0,0,0,0,0,0,0],"id":3,"left_children":[1,3,5,7,9,11,13,-1,-1,-1,-1,-1,-1,-1,-1],"loss_changes":[6.9989814E3,1.5025195E3,7.353816E2,3.4839285E2,4.3712207E2,5.7686035E1,2.787351E2,0E0,0E0,0E0,0E0,0E0,0E0,0E0,0E0],"parents":[2147483647,0,0,1,1,2,2,3,3,4,4,5,5,6,6],"right_children":[2,4,6,8,10,12,14,-1,-1,-1,-1,-1,-1,-1,-1],"split_conditions":[3.6250668E1,4.0307852E2,3.8537834E3,-1.1888889E1,-2.461111E1,6.4962816E0,-3.3591666E2,1.7995981E-2,-6.151317E-3,-1.7985612E-2,-8.2619665E-3,-2.1492313E-3,1.6919617E-2,-1.658215E-2,5.129665E-3],"split_indices":[3,6,6,0,0,2,0,0,0,0,0,0,0,0,0],"split_type":[0,0,0,0,0,0,0,0,0,0,0,0,0,0,0],"sum_hessian":[4.2954146E3,2.4030876E3,1.8923268E3,2.5937372E2,2.1437139E3,1.5765674E3,3.157595E2,1.8370512E2,7.56686E1,1.3416682E3,8.020456E2,5.9989924E0,1.5705684E3,6.971649E1,2.4604301E2],"tree_param":{"num_deleted":"0","num_feature":"7","num_nodes":"15","size_leaf_vector":"1"}},{"base_weights":[-1.2347062E-2,-1.0268143E0,1.5547643E0,5.654534E-1,-1.5279497E0,1.7378197E0,4.4866157E-1,1.5736958E-2,-8.569112E-3,-1.8516043E-2,-7.6889065E-3,-0E0,1.7430494E-2,-1.268231E-3,1.3123825E-2],"categories":[],"categories_nodes":[],"categories_segments":[],"categories_sizes":[],"default_left":[0,0,0,0,0,0,0,0,0,0,0,0,0,0,0],"id":4,"left_children":[1,3,5,7,9,11,13,-1,-1,-1,-1,-1,-1,-1,-1],"loss_changes":[6.917357E3,2.1268406E3,3.2029297E2,9.265768E2,4.6196533E2,2.042627E1,1.408495E2,0E0,0E0,0E0,0E0,0E0,0E0,0E0,0E0],"parents":[2147483647,0,0,1,1,2,2,3,3,4,4,5,5,6,6],"right_children":[2,4,6,8,10,12,14,-1,-1,-1,-1,-1,-1,-1,-1],"split_conditions":[3.6579468E1,1.436909E3,3.203677E3,-8.694445E0,-2.3694445E1,1.2809974E-1,1.2073768E4,1.5736958E-2,-8.569112E-3,-1.8516043E-2,-7.6889065E-3,-0E0,1.7430494E-2,-1.268231E-3,1.3123825E-2],"split_indices":[3,6,6,0,0,5,6,0,0,0,0,0,0,0,0],"split_type":[0,0,0,0,0,0,0,0,0,0,0,0,0,0,0],"sum_hessian":[4.33929E3,2.6391406E3,1.7001493E3,6.272518E2,2.0118888E3,1.4481274E3,2.5202196E2,3.703029E2,2.5694885E2,1.3946969E3,6.1719183E2,1.9978637E0,1.4461295E3,1.4878325E2,1.032387E2],"tree_param":{"num_deleted":"0","num_feature":"7","num_nodes":"15","size_leaf_vector":"1"}},{"base_weights":[3.3356683E-4,-1.8730974E-2,2.1889856E-1,-1.1478027E0,5.178052E-1,-6.515325E-3,-1.868153E-2,-4.4278977E-3,1.2195746E-2],"categories":[],"categories_nodes":[],"categories_segments":[],"categories_sizes":[],"default_left":[0,0,0,0,0,0,0,0,0],"id":5,"left_children":[1,-1,3,5,7,-1,-1,-1,-1],"loss_changes":[1.7887593E3,0E0,1.6119406E3,2.205484E2,2.2023962E3,0E0,0E0,0E0,0E0],"parents":[2147483647,0,0,2,2,3,3,4,4],"right_children":[2,-1,4,6,8,-1,-1,-1,-1],"split_conditions":[6.4962816E0,-1.8730974E-2,1.294059E-1,-1.0611111E1,-5.7833332E1,-6.515325E-3,-1.868153E-2,-4.4278977E-3,1.2195746E-2],"split_indices":[2,0,5,0,0,0,0,0,0],"split_type":[0,0,0,0,0,0,0,0,0],"sum_hessian":[4.3900615E3,4.4850482E2,3.9415566E3,6.981689E2,3.243388E3,4.2912158E2,2.690473E2,1.3649396E3,1.8784484E3],"tree_param":{"num_deleted":"0","num_feature":"7","num_nodes":"9","size_leaf_vector":"1"}},{"base_weights":[1.6249837E-2,1.0462524E0,-1.5901664E0,-1.8551901E-2,1.4765096E0,-0E0,-1.6331016E0,1.7200418E-2,5.8328873E-3,1.0554105E-2,-1.1627654E-2,-1.8155761E-2,-1.1117352E-2],"categories":[],"categories_nodes":[],"categories_segments":[],"categories_sizes":[],"default_left":[0,0,0,0,0,0,0,0,0,0,0,0,0],"id":6,"left_children":[1,3,5,-1,7,9,11,-1,-1,-1,-1,-1,-1],"loss_changes":[7.2978745E3,3.378235E3,1.1569336E2,0E0,4.8340918E2,7.463282E1,1.1807178E2,0E0,0E0,0E0,0E0,0E0,0E0],"parents":[2147483647,0,0,1,1,2,2,4,4,5,5,6,6],"right_children":[2,4,6,-1,8,10,12,-1,-1,-1,-1,-1,-1],"split_conditions":[2.1637842E1,1.6355822E1,2.750678E2,-1.8551901E-2,2.4026235E3,-5.05E1,-2.3694445E1,1.7200418E-2,5.8328873E-3,1.0554105E-2,-1.1627654E-2,-1.8155761E-2,-1.1117352E-2],"split_indices":[1,1,6,0,6,0,0,0,0,0,0,0,0],"split_type":[0,0,0,0,0,0,0,0,0,0,0,0,0],"sum_hessian":[4.3987417E3,2.6852166E3,1.713525E3,3.409039E2,2.3443125E3,4.591933E1,1.6676057E3,1.8287792E3,5.155334E2,2.393191E1,2.1987421E1,1.208876E3,4.587298E2],"tree_param":{"num_deleted":"0","num_feature":"7","num_nodes":"13","size_leaf_vector":"1"}},{"base_weights":[-1.2091746E-2,1.0199229E0,-1.5777332E0,-1.83729E-2,1.4479934E0,-0E0,-1.6202705E0,1.6662197E-2,3.2770634E-3,1.047515E-2,-1.1259381E-2,-1.799975E-2,-1.1059643E-2],"categories":[],"categories_nodes":[],"categories_segments":[],"categories_sizes":[],"default_left":[0,0,0,0,0,0,0,0,0,0,0,0,0],"id":7,"left_children":[1,3,5,-1,7,9,11,-1,-1,-1,-1,-1,-1],"loss_changes":[7.0302446E3,3.2171768E3,1.1754932E2,0E0,5.361543E2,7.03568E1,1.1493213E2,0E0,0E0,0E0,0E0,0E0,0E0],"parents":[2147483647,0,0,1,1,2,2,4,4,5,5,6,6],"right_children":[2,4,6,-1,8,10,12,-1,-1,-1,-1,-1,-1],"split_conditions":[2.1637842E1,1.6355822E1,2.750678E2,-1.83729E-2,3.203677E3,-5.05E1,-2.3694445E1,1.6662197E-2,3.2770634E-3,1.047515E-2,-1.1259381E-2,-1.799975E-2,-1.1059643E-2],"split_indices":[1,1,6,0,6,0,0,0,0,0,0,0,0],"split_type":[0,0,0,0,0,0,0,0,0,0,0,0,0],"sum_hessian":[4.3331553E3,2.6097395E3,1.7234158E3,3.3413385E2,2.2756057E3,4.490991E1,1.6785059E3,1.8948572E3,3.807486E2,2.392697E1,2.0982939E1,1.217203E3,4.6130286E2],"tree_param":{"num_deleted":"0","num_feature":"7","num_nodes":"13","size_leaf_vector":"1"}},{"base_weights":[3.810759E-2,1.1363921E0,-1.209716E0,-1.7468078E-2,1.3313229E0,-6.889336E-1,-1.8546296E-2,1.4806706E-2,-1.0790826E-2,-1.2616453E-2,1.5893041E-3],"categories":[],"categories_nodes":[],"categories_segments":[],"categories_sizes":[],"default_left":[0,0,0,0,0,0,0,0,0,0,0],"id":8,"left_children":[1,3,5,-1,7,9,-1,-1,-1,-1,-1],"loss_changes":[6.151282E3,1.3574033E3,6.721804E2,0E0,8.2430664E2,5.8440643E2,0E0,0E0,0E0,0E0,0E0],"parents":[2147483647,0,0,1,1,2,2,4,4,5,5],"right_children":[2,4,6,-1,8,10,-1,-1,-1,-1,-1],"split_conditions":[3.203677E3,6.4962816E0,3.93807E4,-1.7468078E-2,1.7750969E1,1.1770909E4,-1.8546296E-2,1.4806706E-2,-1.0790826E-2,-1.2616453E-2,1.5893041E-3],"split_indices":[6,2,6,0,2,6,0,0,0,0,0],"split_type":[0,0,0,0,0,0,0,0,0,0,0],"sum_hessian":[4.4741206E3,2.3838364E3,2.0902844E3,1.4430814E2,2.2395283E3,1.1726243E3,9.176601E2,2.1150676E3,1.24460655E2,7.040553E2,4.6856894E2],"tree_param":{"num_deleted":"0","num_feature":"7","num_nodes":"11","size_leaf_vector":"1"}},{"base_weights":[1.2418706E-2,-1.0576824E0,1.3527489E0,-1.6241708E0,-5.136951E-1,-1.5524856E-2,1.4590691E0,-1.837528E-2,-6.998245E-3,-9.452534E-3,1.0851009E-3,1.4817233E-2,-8.108111E-3],"categories":[],"categories_nodes":[],"categories_segments":[],"categories_sizes":[],"default_left":[0,0,0,0,0,0,0,0,0,0,0,0,0],"id":9,"left_children":[1,3,5,7,9,-1,11,-1,-1,-1,-1,-1,-1],"loss_changes":[6.3302075E3,7.294048E2,6.220254E2,2.020127E2,3.488921E2,0E0,1.12618164E2,0E0,0E0,0E0,0E0,0E0,0E0],"parents":[2147483647,0,0,1,1,2,2,3,3,4,4,6,6],"right_children":[2,4,6,8,10,-1,12,-1,-1,-1,-1,-1,-1],"split_conditions":[3.6250668E1,-4.75E1,-5.475278E2,3.6003086E1,3.573669E1,-1.5524856E-2,1.6143806E1,-1.837528E-2,-6.998245E-3,-9.452534E-3,1.0851009E-3,1.4817233E-2,-8.108111E-3],"split_indices":[3,0,0,3,3,0,2,0,0,0,0,0,0],"split_type":[0,0,0,0,0,0,0,0,0,0,0,0,0],"sum_hessian":[4.3968486E3,2.4420195E3,1.954829E3,1.1809661E3,1.2610536E3,6.2471493E1,1.8923574E3,9.456454E2,2.353207E2,7.508739E2,5.1017963E2,1.8801276E3,1.222987E1],"tree_param":{"num_deleted":"0","num_feature":"7","num_nodes":"13","size_leaf_vector":"1"}},{"base_weights":[7.239196E-3,1.0128058E0,-1.5890093E0,-1.8032137E-2,1.427293E0,-0E0,-1.6823454E0,1.6334666E-2,3.313668E-3,-1.2994707E-2,7.6061985E-3,-0E0,-1.7320145E-2],"categories":[],"categories_nodes":[],"categories_segments":[],"categories_sizes":[],"default_left":[0,0,0,0,0,0,0,0,0,0,0,0,0],"id":10,"left_children":[1,3,5,-1,7,9,11,-1,-1,-1,-1,-1,-1],"loss_changes":[7.0094595E3,3.1490903E3,2.5572656E2,0E0,5.0862646E2,1.032152E2,1.4542139E2,0E0,0E0,0E0,0E0,0E0,0E0],"parents":[2147483647,0,0,1,1,2,2,4,4,5,5,6,6],"right_children":[2,4,6,-1,8,10,12,-1,-1,-1,-1,-1,-1],"split_conditions":[2.1637842E1,1.6355822E1,2.1698784E-2,-1.8032137E-2,3.203677E3,2.3133307E4,2.750678E2,1.6334666E-2,3.313668E-3,-1.2994707E-2,7.6061985E-3,-0E0,-1.7320145E-2],"split_indices":[1,1,5,0,6,6,6,0,0,0,0,0,0],"split_type":[0,0,0,0,0,0,0,0,0,0,0,0,0],"sum_hessian":[4.3553105E3,2.67716E3,1.6781505E3,3.375234E2,2.3396365E3,9.148606E1,1.5866644E3,1.959213E3,3.8042346E2,3.0186596E1,6.129947E1,4.1639496E1,1.5450249E3],"tree_param":{"num_deleted":"0","num_feature":"7","num_nodes":"13","size_leaf_vector":"1"}},{"base_weights":[2.1593172E-2,1.0193262E0,-1.5303248E0,-1.7876523E-2,1.4255037E0,-0E0,-1.6177224E0,1.5114445E-2,-7.370289E-3,-1.2983306E-2,7.44083E-3,-0E0,-1.664272E-2],"categories":[],"categories_nodes":[],"categories_segments":[],"categories_sizes":[],"default_left":[0,0,0,0,0,0,0,0,0,0,0,0,0],"id":11,"left_children":[1,3,5,-1,7,9,11,-1,-1,-1,-1,-1,-1],"loss_changes":[6.8492607E3,3.091328E3,2.342522E2,0E0,4.5448682E2,1.02349106E2,1.3329102E2,0E0,0E0,0E0,0E0,0E0,0E0],"parents":[2147483647,0,0,1,1,2,2,4,4,5,5,6,6],"right_children":[2,4,6,-1,8,10,12,-1,-1,-1,-1,-1,-1],"split_conditions":[2.1637842E1,1.6355822E1,2.1698784E-2,-1.7876523E-2,1.8957823E1,2.3133307E4,2.750678E2,1.5114445E-2,-7.370289E-3,-1.2983306E-2,7.44083E-3,-0E0,-1.664272E-2],"split_indices":[1,1,5,0,2,6,6,0,0,0,0,0,0],"split_type":[0,0,0,0,0,0,0,0,0,0,0,0,0],"sum_hessian":[4.4115596E3,2.6902974E3,1.7212621E3,3.3409995E2,2.3561975E3,9.222576E1,1.6290364E3,2.2722847E3,8.3912766E1,3.0668167E1,6.1557594E1,4.213927E1,1.5868971E3],"tree_param":{"num_deleted":"0","num_feature":"7","num_nodes":"13","size_leaf_vector":"1"}},{"base_weights":[3.297373E-2,-9.998364E-1,1.3186752E0,-1.3909938E0,-2.6461738E-1,-6.335394E-1,1.4084647E0,-1.8024055E-2,-7.767504E-3,-9.1978265E-3,1.0242051E-2,5.312256E-3,-1.4932072E-2,-7.133694E-3,1.4297393E-2],"categories":[],"categories_nodes":[],"categories_segments":[],"categories_sizes":[],"default_left":[0,0,0,0,0,0,0,0,0,0,0,0,0,0,0],"id":12,"left_children":[1,3,5,7,9,11,13,-1,-1,-1,-1,-1,-1,-1,-1],"loss_changes":[5.89366E3,6.887749E2,3.6064355E2,3.691338E2,7.407622E2,1.0240129E2,9.9745605E1,0E0,0E0,0E0,0E0,0E0,0E0,0E0,0E0],"parents":[2147483647,0,0,1,1,2,2,3,3,4,4,5,5,6,6],"right_children":[2,4,6,8,10,12,14,-1,-1,-1,-1,-1,-1,-1,-1],"split_conditions":[3.6250668E1,3.573669E1,1.342525E-1,1.5002251E1,2.7196595E-1,7.2918234E0,6.4962816E0,-1.8024055E-2,-7.767504E-3,-9.1978265E-3,1.0242051E-2,5.312256E-3,-1.4932072E-2,-7.133694E-3,1.4297393E-2],"split_indices":[3,3,5,2,4,2,2,0,0,0,0,0,0,0,0],"split_type":[0,0,0,0,0,0,0,0,0,0,0,0,0,0,0],"sum_hessian":[4.421472E3,2.4489023E3,1.9725697E3,1.5861719E3,8.6273035E2,8.0358505E1,1.8922112E3,9.325779E2,6.53594E2,5.780063E2,2.8472403E2,3.0878819E1,4.9479687E1,1.2194726E1,1.8800165E3],"tree_param":{"num_deleted":"0","num_feature":"7","num_nodes":"15","size_leaf_vector":"1"}},{"base_weights":[1.8424021E-2,9.929751E-1,-1.5057858E0,-1.765486E-2,1.3950047E0,-0E0,-1.5921812E0,1.5992321E-2,3.0124555E-3,-1.3838062E-2,9.980376E-3,-0E0,-1.6386045E-2],"categories":[],"categories_nodes":[],"categories_segments":[],"categories_sizes":[],"default_left":[0,0,0,0,0,0,0,0,0,0,0,0,0],"id":13,"left_children":[1,3,5,-1,7,9,11,-1,-1,-1,-1,-1,-1],"loss_changes":[6.5584023E3,3.0076077E3,2.2153516E2,0E0,5.0701465E2,1.5102364E2,1.2999121E2,0E0,0E0,0E0,0E0,0E0,0E0],"parents":[2147483647,0,0,1,1,2,2,4,4,5,5,6,6],"right_children":[2,4,6,-1,8,10,12,-1,-1,-1,-1,-1,-1],"split_conditions":[2.1637842E1,1.6355822E1,2.1698784E-2,-1.765486E-2,3.203677E3,2.3970415E-1,2.750678E2,1.5992321E-2,3.0124555E-3,-1.3838062E-2,9.980376E-3,-0E0,-1.6386045E-2],"split_indices":[1,1,5,0,6,4,6,0,0,0,0,0,0],"split_type":[0,0,0,0,0,0,0,0,0,0,0,0,0],"sum_hessian":[4.403441E3,2.6912136E3,1.7122274E3,3.3629523E2,2.3549182E3,9.4169266E1,1.6180582E3,1.9745758E3,3.8034253E2,3.883395E1,5.5335316E1,4.2383896E1,1.5756743E3],"tree_param":{"num_deleted":"0","num_feature":"7","num_nodes":"13","size_leaf_vector":"1"}},{"base_weights":[-1.0947567E-2,-1.066892E0,1.2970251E0,9.068866E-1,-1.2892052E0,1.5380867E0,1.1747922E-1,-1.0117899E-2,1.1475105E-2,-9.381288E-3,-1.772717E-2,1.5555299E-2,-4.825675E-3,-7.142359E-3,9.0249255E-3],"categories":[],"categories_nodes":[],"categories_segments":[],"categories_sizes":[],"default_left":[0,0,0,0,0,0,0,0,0,0,0,0,0,0,0],"id":14,"left_children":[1,3,5,7,9,11,13,-1,-1,-1,-1,-1,-1,-1,-1],"loss_changes":[5.95896E3,1.061625E3,5.3088135E2,1.2171277E2,3.2942334E2,7.127832E1,2.2901048E2,0E0,0E0,0E0,0E0,0E0,0E0,0E0,0E0],"parents":[2147483647,0,0,1,1,2,2,3,3,4,4,5,5,6,6],"right_children":[2,4,6,8,10,12,14,-1,-1,-1,-1,-1,-1,-1,-1],"split_conditions":[3.6250668E1,4.0307852E2,3.8537834E3,3.4131638E1,3.3706453E4,7.291477E-1,3.773573E1,-1.0117899E-2,1.1475105E-2,-9.381288E-3,-1.772717E-2,1.5555299E-2,-4.825675E-3,-7.142359E-3,9.0249255E-3],"split_indices":[3,6,6,3,6,4,3,0,0,0,0,0,0,0,0],"split_type":[0,0,0,0,0,0,0,0,0,0,0,0,0,0,0],"sum_hessian":[4.3011885E3,2.384441E3,1.9167476E3,2.3497499E2,2.149466E3,1.5832935E3,3.334541E2,1.9373863E1,2.1560114E2,1.2686643E3,8.8080164E2,1.5758473E3,7.4461784E0,1.5666805E2,1.7678607E2],"tree_param":{"num_deleted":"0","num_feature":"7","num_nodes":"15","size_leaf_vector":"1"}},{"base_weights":[-9.114202E-3,9.5608646E-1,-1.4817145E0,-1.4144492E0,1.4420673E0,-0E0,-1.5222647E0,-1.7406702E-2,-2.5501603E-3,1.6147772E-2,3.259668E-3,-1.0519735E-2,8.748851E-3,-1.566835E-2,-1.8185441E-3],"categories":[],"categories_nodes":[],"categories_segments":[],"categories_sizes":[],"default_left":[0,0,0,0,0,0,0,0,0,0,0,0,0,0,0],"id":15,"left_children":[1,3,5,7,9,11,13,-1,-1,-1,-1,-1,-1,-1,-1],"loss_changes":[6.120525E3,3.005489E3,1.0398804E2,1.4599463E2,3.9515186E2,5.4755085E1,8.146948E1,0E0,0E0,0E0,0E0,0E0,0E0,0E0,0E0],"parents":[2147483647,0,0,1,1,2,2,3,3,4,4,5,5,6,6],"right_children":[2,4,6,8,10,12,14,-1,-1,-1,-1,-1,-1,-1,-1],"split_conditions":[2.1637842E1,1.695114E1,2.750678E2,1.6355822E1,3.203677E3,2.1140898E2,5.0177824E-1,-1.7406702E-2,-2.5501603E-3,1.6147772E-2,3.259668E-3,-1.0519735E-2,8.748851E-3,-1.566835E-2,-1.8185441E-3],"split_indices":[1,1,6,1,6,6,4,0,0,0,0,0,0,0,0],"split_type":[0,0,0,0,0,0,0,0,0,0,0,0,0,0,0],"sum_hessian":[4.288017E3,2.5881348E3,1.6998823E3,4.3476492E2,2.1533699E3,4.4871323E1,1.655011E3,3.3034586E2,1.04419075E2,1.8549562E3,2.984136E2,1.921366E1,2.5657663E1,1.5940428E3,6.0968166E1],"tree_param":{"num_deleted":"0","num_feature":"7","num_nodes":"15","size_leaf_vector":"1"}},{"base_weights":[3.9043052E-3,1.0649694E0,-1.2363831E0,-6.769477E-1,1.402874E0,-1.4499656E0,8.456286E-1,6.757189E-3,-1.1618696E-2,-1.4367443E-2,1.4809711E-2,3.8577063E-4,-1.5744349E-2,-0E0,1.433743E-2],"categories":[],"categories_nodes":[],"categories_segments":[],"categories_sizes":[],"default_left":[0,0,0,0,0,0,0,0,0,0,0,0,0,0,0],"id":16,"left_children":[1,3,5,7,9,11,13,-1,-1,-1,-1,-1,-1,-1,-1],"loss_changes":[5.7087397E3,1.3922837E3,9.0239136E2,2.6024445E2,4.5269995E2,3.5102197E2,8.061943E1,0E0,0E0,0E0,0E0,0E0,0E0,0E0,0E0],"parents":[2147483647,0,0,1,1,2,2,3,3,4,4,5,5,6,6],"right_children":[2,4,6,8,10,12,14,-1,-1,-1,-1,-1,-1,-1,-1],"split_conditions":[3.203677E3,3.573669E1,3.773573E1,2.750678E2,7.4828826E-2,2.7075842E-2,1.2073768E4,6.757189E-3,-1.1618696E-2,-1.4367443E-2,1.4809711E-2,3.8577063E-4,-1.5744349E-2,-0E0,1.433743E-2],"split_indices":[6,3,3,6,5,5,6,0,0,0,0,0,0,0,0],"split_type":[0,0,0,0,0,0,0,0,0,0,0,0,0,0,0],"sum_hessian":[4.324232E3,2.3349692E3,1.9892626E3,3.7382422E2,1.961145E3,1.8101392E3,1.7912344E2,9.298255E1,2.8084164E2,4.5962627E1,1.9151825E3,1.3449522E2,1.6756439E3,8.241852E1,9.670492E1],"tree_param":{"num_deleted":"0","num_feature":"7","num_nodes":"15","size_leaf_vector":"1"}},{"base_weights":[4.181201E-2,1.1408511E0,-1.0031394E0,-1.2661494E0,1.3565075E0,-5.03143E-1,-1.7365724E-2,1.0286216E-2,-1.7070968E-2,-1.6013822E-2,1.5223039E-2,-1.2945301E-2,5.810179E-4],"categories":[],"categories_nodes":[],"categories_segments":[],"categories_sizes":[],"default_left":[0,0,0,0,0,0,0,0,0,0,0,0,0],"id":17,"left_children":[1,3,5,7,9,11,-1,-1,-1,-1,-1,-1,-1],"loss_changes":[5.088144E3,1.1362476E3,8.0454443E2,1.9946332E2,9.9424194E2,6.181694E2,0E0,0E0,0E0,0E0,0E0,0E0,0E0],"parents":[2147483647,0,0,1,1,2,2,3,3,4,4,5,5],"right_children":[2,4,6,8,10,12,-1,-1,-1,-1,-1,-1,-1],"split_conditions":[2.4026235E3,1.294059E-1,3.93807E4,-2.1972221E1,6.4962816E0,1.1708471E1,-1.7365724E-2,1.0286216E-2,-1.7070968E-2,-1.6013822E-2,1.5223039E-2,-1.2945301E-2,5.810179E-4],"split_indices":[6,5,6,0,2,2,0,0,0,0,0,0,0],"split_type":[0,0,0,0,0,0,0,0,0,0,0,0,0],"sum_hessian":[4.41462E3,2.1554917E3,2.2591284E3,1.7084654E2,1.9846453E3,1.3580591E3,9.010694E2,2.2657877E1,1.4818866E2,9.905727E1,1.885588E3,5.6613873E2,7.9192035E2],"tree_param":{"num_deleted":"0","num_feature":"7","num_nodes":"13","size_leaf_vector":"1"}},{"base_weights":[5.5875707E-2,-9.813295E-1,1.2881479E0,3.647864E-1,-1.35169E0,-1.4848855E-2,1.3856747E0,1.4842541E-2,-7.896663E-3,-1.6684704E-2,-6.3406276E-3,1.5687602E-2,6.6689122E-3],"categories":[],"categories_nodes":[],"categories_segments":[],"categories_sizes":[],"default_left":[0,0,0,0,0,0,0,0,0,0,0,0,0],"id":18,"left_children":[1,3,5,7,9,-1,11,-1,-1,-1,-1,-1,-1],"loss_changes":[5.719479E3,1.2214414E3,5.6819824E2,6.918582E2,4.05302E2,0E0,2.3340845E2,0E0,0E0,0E0,0E0,0E0,0E0],"parents":[2147483647,0,0,1,1,2,2,3,3,4,4,6,6],"right_children":[2,4,6,8,10,-1,12,-1,-1,-1,-1,-1,-1],"split_conditions":[3.6250668E1,1.436909E3,-5.475278E2,-1.1888889E1,-2.3694445E1,-1.4848855E-2,2.4026235E3,1.4842541E-2,-7.896663E-3,-1.6684704E-2,-6.3406276E-3,1.5687602E-2,6.6689122E-3],"split_indices":[3,6,0,0,0,0,6,0,0,0,0,0,0],"split_type":[0,0,0,0,0,0,0,0,0,0,0,0,0],"sum_hessian":[4.458039E3,2.4174617E3,2.0405774E3,5.163914E2,1.9010703E3,6.2616486E1,1.9779609E3,2.6505276E2,2.5133865E2,1.3033776E3,5.9769275E2,1.5594679E3,4.1849304E2],"tree_param":{"num_deleted":"0","num_feature":"7","num_nodes":"13","size_leaf_vector":"1"}},{"base_weights":[1.2886881E-2,9.508839E-1,-1.4871233E0,-1.3919618E0,1.4213935E0,-1.6558771E0,-9.815385E-1,-1.7199535E-2,-0E0,1.50496E-2,-1.5737442E-2,-2.8509605E-3,-1.7246813E-2,-6.615228E-4,-1.4420928E-2],"categories":[],"categories_nodes":[],"categories_segments":[],"categories_sizes":[],"default_left":[0,0,0,0,0,0,0,0,0,0,0,0,0,0,0],"id":19,"left_children":[1,3,5,7,9,11,13,-1,-1,-1,-1,-1,-1,-1,-1],"loss_changes":[6.103318E3,2.963227E3,1.06427734E2,2.1367657E2,5.7610645E2,9.384717E1,1.7483453E2,0E0,0E0,0E0,0E0,0E0,0E0,0E0,0E0],"parents":[2147483647,0,0,1,1,2,2,3,3,4,4,5,5,6,6],"right_children":[2,4,6,8,10,12,14,-1,-1,-1,-1,-1,-1,-1,-1],"split_conditions":[2.1637842E1,1.695114E1,3.6122547E1,3.57015E1,1.8957823E1,2.352965E1,3.6150417E1,-1.7199535E-2,-0E0,1.50496E-2,-1.5737442E-2,-2.8509605E-3,-1.7246813E-2,-6.615228E-4,-1.4420928E-2],"split_indices":[1,1,3,3,2,1,3,0,0,0,0,0,0,0,0],"split_type":[0,0,0,0,0,0,0,0,0,0,0,0,0,0,0],"sum_hessian":[4.326401E3,2.6672231E3,1.659178E3,4.4044745E2,2.2267756E3,1.2179979E3,4.411801E2,3.5815753E2,8.228994E1,2.1728384E3,5.3937183E1,6.628449E1,1.1517134E3,1.5704536E2,2.8413474E2],"tree_param":{"num_deleted":"0","num_feature":"7","num_nodes":"15","size_leaf_vector":"1"}},{"base_weights":[-2.3224443E-2,1.161343E0,-9.6176624E-1,-1.1042129E0,1.3466045E0,-5.0591224E-1,-1.6991526E-2,1.9169063E-5,-1.6002556E-2,-1.5321703E-2,1.49859125E-2,-1.6753335E-2,-1.403748E-3],"categories":[],"categories_nodes":[],"categories_segments":[],"categories_sizes":[],"default_left":[0,0,0,0,0,0,0,0,0,0,0,0,0],"id":20,"left_children":[1,3,5,7,9,11,-1,-1,-1,-1,-1,-1,-1],"loss_changes":[4.731172E3,8.013135E2,7.735989E2,9.250571E1,7.792312E2,6.1818805E2,0E0,0E0,0E0,0E0,0E0,0E0,0E0],"parents":[2147483647,0,0,1,1,2,2,3,3,4,4,5,5],"right_children":[2,4,6,8,10,12,-1,-1,-1,-1,-1,-1,-1],"split_conditions":[1.826325E3,1.294059E-1,3.93807E4,2.1140898E2,6.4962816E0,7.040915E0,-1.6991526E-2,1.9169063E-5,-1.6002556E-2,-1.5321703E-2,1.49859125E-2,-1.6753335E-2,-1.403748E-3],"split_indices":[6,5,6,6,2,2,0,0,0,0,0,0,0],"split_type":[0,0,0,0,0,0,0,0,0,0,0,0,0],"sum_hessian":[4.242327E3,1.8703478E3,2.3719795E3,1.3493587E2,1.7354119E3,1.4810643E3,8.9091504E2,3.8441864E1,9.6493996E1,8.0688065E1,1.6547239E3,3.4052512E2,1.1405392E3],"tree_param":{"num_deleted":"0","num_feature":"7","num_nodes":"13","size_leaf_vector":"1"}},{"base_weights":[1.46020185E-2,-1.0107628E0,1.2487938E0,-1.6127027E0,-4.7589657E-1,-1.449588E-2,1.3451816E0,-1.6893946E-2,-7.5356867E-3,-1.6977234E-2,-1.4612405E-3,-6.707066E-3,1.3652056E-2],"categories":[],"categories_nodes":[],"categories_segments":[],"categories_sizes":[],"default_left":[0,0,0,0,0,0,0,0,0,0,0,0,0],"id":21,"left_children":[1,3,5,7,9,-1,11,-1,-1,-1,-1,-1,-1],"loss_changes":[5.47914E3,7.3535474E2,5.2532886E2,4.1029785E1,4.9250168E2,0E0,9.000928E1,0E0,0E0,0E0,0E0,0E0,0E0],"parents":[2147483647,0,0,1,1,2,2,3,3,4,4,6,6],"right_children":[2,4,6,8,10,-1,12,-1,-1,-1,-1,-1,-1],"split_conditions":[3.6250668E1,-5.1666668E1,-5.475278E2,3.6142582E1,3.319291E1,-1.449588E-2,6.4962816E0,-1.6893946E-2,-7.5356867E-3,-1.6977234E-2,-1.4612405E-3,-6.707066E-3,1.3652056E-2],"split_indices":[3,0,0,3,3,0,2,0,0,0,0,0,0],"split_type":[0,0,0,0,0,0,0,0,0,0,0,0,0],"sum_hessian":[4.3131616E3,2.3526394E3,1.9605222E3,1.0919817E3,1.2606577E3,6.0812405E1,1.8997098E3,9.863103E2,1.0567134E2,2.5561201E2,1.0050457E3,1.1898809E1,1.887811E3],"tree_param":{"num_deleted":"0","num_feature":"7","num_nodes":"13","size_leaf_vector":"1"}},{"base_weights":[-1.2514552E-2,9.2632586E-1,-1.5105838E0,-1.6757883E-2,1.3025404E0,-0E0,-1.6047084E0,1.50599545E-2,3.381282E-3,-1.2332005E-2,7.7581177E-3,-0E0,-1.6530292E-2],"categories":[],"categories_nodes":[],"categories_segments":[],"categories_sizes":[],"default_left":[0,0,0,0,0,0,0,0,0,0,0,0,0],"id":22,"left_children":[1,3,5,-1,7,9,11,-1,-1,-1,-1,-1,-1],"loss_changes":[5.988828E3,2.5695393E3,2.4456421E2,0E0,4.2876904E2,9.912236E1,1.30021E2,0E0,0E0,0E0,0E0,0E0,0E0],"parents":[2147483647,0,0,1,1,2,2,4,4,5,5,6,6],"right_children":[2,4,6,-1,8,10,12,-1,-1,-1,-1,-1,-1],"split_conditions":[2.1637842E1,1.6355822E1,2.1698784E-2,-1.6757883E-2,3.0427004E3,2.3133307E4,2.750678E2,1.50599545E-2,3.381282E-3,-1.2332005E-2,7.7581177E-3,-0E0,-1.6530292E-2],"split_indices":[1,1,5,0,6,6,6,0,0,0,0,0,0],"split_type":[0,0,0,0,0,0,0,0,0,0,0,0,0],"sum_hessian":[4.2396216E3,2.604314E3,1.6353077E3,3.227192E2,2.2815947E3,9.20821E1,1.5432256E3,1.8729781E3,4.0861652E2,3.0462406E1,6.1619694E1,4.1746887E1,1.5014786E3],"tree_param":{"num_deleted":"0","num_feature":"7","num_nodes":"13","size_leaf_vector":"1"}},{"base_weights":[-6.829118E-2,8.569547E-1,-1.4426278E0,-1.6637523E-2,1.2520055E0,-0E0,-1.531892E0,-1.52200395E-2,1.3249947E-2,-1.1867281E-2,7.383254E-3,-3.2699537E-3,-1.5796624E-2],"categories":[],"categories_nodes":[],"categories_segments":[],"categories_sizes":[],"default_left":[0,0,0,0,0,0,0,0,0,0,0,0,0],"id":23,"left_children":[1,3,5,-1,7,9,11,-1,-1,-1,-1,-1,-1],"loss_changes":[5.231725E3,2.4542642E3,2.2578564E2,0E0,4.439751E2,8.937388E1,6.916455E1,0E0,0E0,0E0,0E0,0E0,0E0],"parents":[2147483647,0,0,1,1,2,2,4,4,5,5,6,6],"right_children":[2,4,6,-1,8,10,12,-1,-1,-1,-1,-1,-1],"split_conditions":[2.1637842E1,1.6355822E1,2.1698784E-2,-1.6637523E-2,7.26663E-2,1.2253308E-2,2.352965E1,-1.52200395E-2,1.3249947E-2,-1.1867281E-2,7.383254E-3,-3.2699537E-3,-1.5796624E-2],"split_indices":[1,1,5,0,5,5,1,0,0,0,0,0,0],"split_type":[0,0,0,0,0,0,0,0,0,0,0,0,0],"sum_hessian":[4.0955476E3,2.4454395E3,1.6501082E3,3.2502164E2,2.1204177E3,9.132523E1,1.558783E3,4.7434116E1,2.0729836E3,2.9118124E1,6.220711E1,6.884278E1,1.4899402E3],"tree_param":{"num_deleted":"0","num_feature":"7","num_nodes":"13","size_leaf_vector":"1"}},{"base_weights":[7.3331837E-3,9.2771083E-1,-1.4847554E0,-1.3647405E0,1.3779234E0,-1.668996E-2,-1.2832695E0,-2.3460495E-3,-1.6912686E-2,1.453544E-2,-5.867897E-3,-1.6671292E-2,-6.049736E-3],"categories":[],"categories_nodes":[],"categories_segments":[],"categories_sizes":[],"default_left":[0,0,0,0,0,0,0,0,0,0,0,0,0],"id":24,"left_children":[1,3,5,7,9,-1,11,-1,-1,-1,-1,-1,-1],"loss_changes":[5.907029E3,2.765918E3,1.8411621E1,1.4140533E2,3.462622E2,0E0,1.9029565E2,0E0,0E0,0E0,0E0,0E0,0E0],"parents":[2147483647,0,0,1,1,2,2,3,3,4,4,6,6],"right_children":[2,4,6,8,10,-1,12,-1,-1,-1,-1,-1,-1],"split_conditions":[2.1637842E1,1.695114E1,2.5909027E1,1.30784445E1,1.8957823E1,-1.668996E-2,8.346347E0,-2.3460495E-3,-1.6912686E-2,1.453544E-2,-5.867897E-3,-1.6671292E-2,-6.049736E-3],"split_indices":[1,1,1,2,2,0,2,0,0,0,0,0,0],"split_type":[0,0,0,0,0,0,0,0,0,0,0,0,0],"sum_hessian":[4.2902144E3,2.6589207E3,1.6312937E3,4.3071698E2,2.2282036E3,8.006271E2,8.3066656E2,1.0557933E2,3.2513763E2,2.151885E3,7.631861E1,5.151038E2,3.1556277E2],"tree_param":{"num_deleted":"0","num_feature":"7","num_nodes":"13","size_leaf_vector":"1"}},{"base_weights":[-0E0,8.8984424E-1,-1.3758655E0,-1.3410088E0,1.3493351E0,-0E0,-1.4150223E0,-1.6421035E-2,-2.5043034E-3,1.4285186E-2,-5.9732753E-3,1.030414E-2,-1.0234049E-2,-1.5809856E-2,-9.5205195E-3],"categories":[],"categories_nodes":[],"categories_segments":[],"categories_sizes":[],"default_left":[0,0,0,0,0,0,0,0,0,0,0,0,0,0,0],"id":25,"left_children":[1,3,5,7,9,11,13,-1,-1,-1,-1,-1,-1,-1,-1],"loss_changes":[5.2094575E3,2.659297E3,9.620264E1,1.2480261E2,3.447954E2,6.1218895E1,9.123462E1,0E0,0E0,0E0,0E0,0E0,0E0,0E0,0E0],"parents":[2147483647,0,0,1,1,2,2,3,3,4,4,5,5,6,6],"right_children":[2,4,6,8,10,12,14,-1,-1,-1,-1,-1,-1,-1,-1],"split_conditions":[2.1637842E1,1.695114E1,2.750678E2,1.6355822E1,1.8957823E1,-5.05E1,-2.3694445E1,-1.6421035E-2,-2.5043034E-3,1.4285186E-2,-5.9732753E-3,1.030414E-2,-1.0234049E-2,-1.5809856E-2,-9.5205195E-3],"split_indices":[1,1,6,1,2,0,0,0,0,0,0,0,0,0,0],"split_type":[0,0,0,0,0,0,0,0,0,0,0,0,0,0,0],"sum_hessian":[4.2386387E3,2.5737573E3,1.6648813E3,4.338087E2,2.1399485E3,4.3224518E1,1.6216569E3,3.3055252E2,1.0325616E2,2.0626404E3,7.7308174E1,2.3615433E1,1.9609087E1,1.1662687E3,4.5538815E2],"tree_param":{"num_deleted":"0","num_feature":"7","num_nodes":"15","size_leaf_vector":"1"}},{"base_weights":[1.2068422E-2,-8.891398E-1,1.180134E0,-1.4271284E0,-4.0136522E-1,-1.4102802E-2,1.2771032E0,-1.630551E-2,-5.3949044E-3,-1.3459969E-2,-1.0730013E-3,1.3039274E-2,-9.911673E-3],"categories":[],"categories_nodes":[],"categories_segments":[],"categories_sizes":[],"default_left":[0,0,0,0,0,0,0,0,0,0,0,0,0],"id":26,"left_children":[1,3,5,7,9,-1,11,-1,-1,-1,-1,-1,-1],"loss_changes":[4.4767725E3,6.077717E2,4.78187E2,1.7748804E2,3.4006558E2,0E0,1.21636475E2,0E0,0E0,0E0,0E0,0E0,0E0],"parents":[2147483647,0,0,1,1,2,2,3,3,4,4,6,6],"right_children":[2,4,6,8,10,-1,12,-1,-1,-1,-1,-1,-1],"split_conditions":[3.6250668E1,-5.1666668E1,-5.475278E2,3.6003086E1,1.6068025E-1,-1.4102802E-2,7.8460974E-1,-1.630551E-2,-5.3949044E-3,-1.3459969E-2,-1.0730013E-3,1.3039274E-2,-9.911673E-3],"split_indices":[3,0,0,3,4,0,4,0,0,0,0,0,0],"split_type":[0,0,0,0,0,0,0,0,0,0,0,0,0],"sum_hessian":[4.2355127E3,2.3875144E3,1.8479984E3,1.1197688E3,1.2677456E3,5.9716167E1,1.7882823E3,8.9770605E2,2.2206276E2,2.8741125E2,9.8033435E2,1.7744122E3,1.38701105E1],"tree_param":{"num_deleted":"0","num_feature":"7","num_nodes":"13","size_leaf_vector":"1"}},{"base_weights":[1.3901823E-2,-9.6259E-1,1.1885434E0,-1.54777E0,-4.518261E-1,-1.4602207E-2,1.2964175E0,-1.6250651E-2,-6.824225E-3,-9.2816595E-3,1.9414591E-3,1.3207684E-2,-9.401282E-3],"categories":[],"categories_nodes":[],"categories_segments":[],"categories_sizes":[],"default_left":[0,0,0,0,0,0,0,0,0,0,0,0,0],"id":27,"left_children":[1,3,5,7,9,-1,11,-1,-1,-1,-1,-1,-1],"loss_changes":[4.9032637E3,6.729905E2,5.679519E2,4.2879395E1,3.963593E2,0E0,1.1472827E2,0E0,0E0,0E0,0E0,0E0,0E0],"parents":[2147483647,0,0,1,1,2,2,3,3,4,4,6,6],"right_children":[2,4,6,8,10,-1,12,-1,-1,-1,-1,-1,-1],"split_conditions":[3.6250668E1,-5.1666668E1,-3.3591666E2,3.6142582E1,3.573669E1,-1.4602207E-2,7.8460974E-1,-1.6250651E-2,-6.824225E-3,-9.2816595E-3,1.9414591E-3,1.3207684E-2,-9.401282E-3],"split_indices":[3,0,0,3,3,0,4,0,0,0,0,0,0],"split_type":[0,0,0,0,0,0,0,0,0,0,0,0,0],"sum_hessian":[4.2582017E3,2.3217668E3,1.9364349E3,1.0668435E3,1.2549232E3,6.8882355E1,1.8675526E3,9.638525E2,1.0299106E2,7.2845795E2,5.264653E2,1.8544161E3,1.3136441E1],"tree_param":{"num_deleted":"0","num_feature":"7","num_nodes":"13","size_leaf_vector":"1"}},{"base_weights":[-1.629712E-2,8.5925394E-1,-1.3511974E0,-1.3370299E0,1.3163588E0,-1.5629245E0,-7.6500475E-1,-1.6402619E-2,-0E0,1.3982017E-2,-6.0533443E-3,-1.6319819E-2,-5.686333E-4,-1.6994112E-3,-1.3028701E-2],"categories":[],"categories_nodes":[],"categories_segments":[],"categories_sizes":[],"default_left":[0,0,0,0,0,0,0,0,0,0,0,0,0,0,0],"id":28,"left_children":[1,3,5,7,9,11,13,-1,-1,-1,-1,-1,-1,-1,-1],"loss_changes":[4.8881577E3,2.5421748E3,1.7611987E2,1.7794116E2,3.425056E2,1.08971924E2,1.3426309E2,0E0,0E0,0E0,0E0,0E0,0E0,0E0,0E0],"parents":[2147483647,0,0,1,1,2,2,3,3,4,4,5,5,6,6],"right_children":[2,4,6,8,10,12,14,-1,-1,-1,-1,-1,-1,-1,-1],"split_conditions":[2.1637842E1,1.695114E1,3.6122547E1,3.5817177E1,1.8957823E1,5.0177824E-1,3.6162727E1,-1.6402619E-2,-0E0,1.3982017E-2,-6.0533443E-3,-1.6319819E-2,-5.686333E-4,-1.6994112E-3,-1.3028701E-2],"split_indices":[1,1,3,3,2,4,3,0,0,0,0,0,0,0,0],"split_type":[0,0,0,0,0,0,0,0,0,0,0,0,0,0,0],"sum_hessian":[4.163759E3,2.512031E3,1.6517275E3,4.2690695E2,2.085124E3,1.1931058E3,4.586217E2,3.4730884E2,7.959812E1,2.0063738E3,7.875024E1,1.1344915E3,5.8614395E1,2.3030084E2,2.2832085E2],"tree_param":{"num_deleted":"0","num_feature":"7","num_nodes":"15","size_leaf_vector":"1"}},{"base_weights":[2.670121E-3,8.7629646E-1,-1.3411019E0,-1.608672E-2,1.248351E0,-1.5520662E0,-7.6249754E-1,1.4386567E-2,2.7383335E-3,-1.621276E-2,-1.18463206E-4,-1.6506051E-3,-1.29735535E-2],"categories":[],"categories_nodes":[],"categories_segments":[],"categories_sizes":[],"default_left":[0,0,0,0,0,0,0,0,0,0,0,0,0],"id":29,"left_children":[1,3,5,-1,7,9,11,-1,-1,-1,-1,-1,-1],"loss_changes":[4.929686E3,2.3701123E3,1.7203638E2,0E0,3.9451636E2,1.122146E2,1.3457156E2,0E0,0E0,0E0,0E0,0E0,0E0],"parents":[2147483647,0,0,1,1,2,2,4,4,5,5,6,6],"right_children":[2,4,6,-1,8,10,12,-1,-1,-1,-1,-1,-1],"split_conditions":[2.1637842E1,1.6355822E1,3.6122547E1,-1.608672E-2,3.203677E3,5.0177824E-1,3.6162727E1,1.4386567E-2,2.7383335E-3,-1.621276E-2,-1.18463206E-4,-1.6506051E-3,-1.29735535E-2],"split_indices":[1,1,3,0,6,4,3,0,0,0,0,0,0],"split_type":[0,0,0,0,0,0,0,0,0,0,0,0,0],"sum_hessian":[4.1879688E3,2.543582E3,1.6443867E3,3.2488373E2,2.2186985E3,1.1845021E3,4.598847E2,1.8455381E3,3.731603E2,1.1276007E3,5.690141E1,2.2975671E2,2.3012798E2],"tree_param":{"num_deleted":"0","num_feature":"7","num_nodes":"13","size_leaf_vector":"1"}},{"base_weights":[-3.6852982E-2,8.452814E-1,-1.4245135E0,-1.3034047E0,1.2941602E0,-1.4701667E0,-1.0655634E-1,-1.6631728E-2,-0E0,1.4549219E-2,4.439805E-3,-1.2741062E-3,-1.5164107E-2,1.1991846E-2,-1.2499064E-2],"categories":[],"categories_nodes":[],"categories_segments":[],"categories_sizes":[],"default_left":[0,0,0,0,0,0,0,0,0,0,0,0,0,0,0],"id":30,"left_children":[1,3,5,7,9,11,13,-1,-1,-1,-1,-1,-1,-1,-1],"loss_changes":[5.0340522E3,2.4311763E3,8.095044E1,2.1105634E2,2.626372E2,7.9385254E1,1.1330929E2,0E0,0E0,0E0,0E0,0E0,0E0,0E0,0E0],"parents":[2147483647,0,0,1,1,2,2,3,3,4,4,5,5,6,6],"right_children":[2,4,6,8,10,12,14,-1,-1,-1,-1,-1,-1,-1,-1],"split_conditions":[2.1637842E1,1.695114E1,5.0177824E-1,1.4345694E0,3.203677E3,1.5036875E-2,5.217043E-1,-1.6631728E-2,-0E0,1.4549219E-2,4.439805E-3,-1.2741062E-3,-1.5164107E-2,1.1991846E-2,-1.2499064E-2],"split_indices":[1,1,4,4,6,5,4,0,0,0,0,0,0,0,0],"split_type":[0,0,0,0,0,0,0,0,0,0,0,0,0,0,0],"sum_hessian":[4.0935037E3,2.5004053E3,1.5930985E3,4.2618967E2,2.0742156E3,1.5323359E3,6.0762547E1,3.3519467E2,9.099501E1,1.7310408E3,3.4317474E2,5.8420826E1,1.4739152E3,2.4523256E1,3.6239292E1],"tree_param":{"num_deleted":"0","num_feature":"7","num_nodes":"15","size_leaf_vector":"1"}},{"base_weights":[4.3903083E-2,-8.5488874E-1,1.1560836E0,4.2325956E-1,-1.2276899E0,-1.371869E-2,1.2473265E0,1.4144802E-2,-5.2607167E-3,-1.5334255E-2,-5.503057E-3,1.4311217E-2,5.702522E-3],"categories":[],"categories_nodes":[],"categories_segments":[],"categories_sizes":[],"default_left":[0,0,0,0,0,0,0,0,0,0,0,0,0],"id":31,"left_children":[1,3,5,7,9,-1,11,-1,-1,-1,-1,-1,-1],"loss_changes":[4.29685E3,1.1411115E3,4.5540186E2,5.1747064E2,3.5676465E2,0E0,2.0798462E2,0E0,0E0,0E0,0E0,0E0,0E0],"parents":[2147483647,0,0,1,1,2,2,3,3,4,4,6,6],"right_children":[2,4,6,8,10,-1,12,-1,-1,-1,-1,-1,-1],"split_conditions":[3.6250668E1,1.436909E3,-5.475278E2,-1.1888889E1,-2.3694445E1,-1.371869E-2,2.4026235E3,1.4144802E-2,-5.2607167E-3,-1.5334255E-2,-5.503057E-3,1.4311217E-2,5.702522E-3],"split_indices":[3,6,0,0,0,0,6,0,0,0,0,0,0],"split_type":[0,0,0,0,0,0,0,0,0,0,0,0,0],"sum_hessian":[4.281061E3,2.3641382E3,1.9169229E3,5.281688E2,1.8359694E3,5.972404E1,1.8571989E3,2.6124786E2,2.6692096E2,1.2494121E3,5.8655725E2,1.4437512E3,4.1344757E2],"tree_param":{"num_deleted":"0","num_feature":"7","num_nodes":"13","size_leaf_vector":"1"}},{"base_weights":[3.8961202E-3,8.630224E-1,-1.3667151E0,-1.5818449E-2,1.2217902E0,8.487829E-4,-1.4553292E0,1.4157519E-2,1.377454E-3,-1.1976877E-2,7.946577E-3,1.5014908E-4,-1.5014399E-2],"categories":[],"categories_nodes":[],"categories_segments":[],"categories_sizes":[],"default_left":[0,0,0,0,0,0,0,0,0,0,0,0,0],"id":32,"left_children":[1,3,5,-1,7,9,11,-1,-1,-1,-1,-1,-1],"loss_changes":[4.9793896E3,2.2966558E3,2.1024146E2,0E0,4.6390747E2,9.875744E1,1.175459E2,0E0,0E0,0E0,0E0,0E0,0E0],"parents":[2147483647,0,0,1,1,2,2,4,4,5,5,6,6],"right_children":[2,4,6,-1,8,10,12,-1,-1,-1,-1,-1,-1],"split_conditions":[2.1637842E1,1.6355822E1,2.1698784E-2,-1.5818449E-2,3.203677E3,2.3133307E4,2.750678E2,1.4157519E-2,1.377454E-3,-1.1976877E-2,7.946577E-3,1.5014908E-4,-1.5014399E-2],"split_indices":[1,1,5,0,6,6,6,0,0,0,0,0,0],"split_type":[0,0,0,0,0,0,0,0,0,0,0,0,0],"sum_hessian":[4.2177173E3,2.598336E3,1.6193815E3,3.260583E2,2.2722776E3,9.28111E1,1.5265704E3,1.9184535E3,3.5382404E2,3.0961285E1,6.1849815E1,4.0635212E1,1.4859352E3],"tree_param":{"num_deleted":"0","num_feature":"7","num_nodes":"13","size_leaf_vector":"1"}},{"base_weights":[5.0399758E-2,9.008111E-1,-1.3516995E0,-1.570409E-2,1.2411528E0,-1.3952321E0,-3.1554442E-2,1.3172737E-2,-6.7312047E-3,-2.9486674E-3,-1.4374798E-2,1.2071892E-2,-1.2013944E-2],"categories":[],"categories_nodes":[],"categories_segments":[],"categories_sizes":[],"default_left":[0,0,0,0,0,0,0,0,0,0,0,0,0],"id":33,"left_children":[1,3,5,-1,7,9,11,-1,-1,-1,-1,-1,-1],"loss_changes":[5.1120825E3,2.2609277E3,7.970581E1,0E0,3.5597778E2,5.368579E1,1.05974915E2,0E0,0E0,0E0,0E0,0E0,0E0],"parents":[2147483647,0,0,1,1,2,2,4,4,5,5,6,6],"right_children":[2,4,6,-1,8,10,12,-1,-1,-1,-1,-1,-1],"split_conditions":[2.1637842E1,1.6355822E1,5.0177824E-1,-1.570409E-2,1.8957823E1,2.1698784E-2,5.217043E-1,1.3172737E-2,-6.7312047E-3,-2.9486674E-3,-1.4374798E-2,1.2071892E-2,-1.2013944E-2],"split_indices":[1,1,4,0,2,5,4,0,0,0,0,0,0],"split_type":[0,0,0,0,0,0,0,0,0,0,0,0,0],"sum_hessian":[4.2758076E3,2.6671646E3,1.6086431E3,3.1642374E2,2.3507407E3,1.5502832E3,5.8359905E1,2.2675798E3,8.316082E1,6.7381226E1,1.482902E3,2.44938E1,3.3866108E1],"tree_param":{"num_deleted":"0","num_feature":"7","num_nodes":"13","size_leaf_vector":"1"}},{"base_weights":[2.074383E-2,8.630049E-1,-1.2986358E0,-1.2740824E0,1.2869358E0,-0E0,-1.3819339E0,-1.5608892E-2,-2.6937712E-3,1.3619508E-2,-5.820775E-3,-1.1473188E-2,7.0735407E-3,-3.0949535E-3,-1.4254725E-2],"categories":[],"categories_nodes":[],"categories_segments":[],"categories_sizes":[],"default_left":[0,0,0,0,0,0,0,0,0,0,0,0,0,0,0],"id":34,"left_children":[1,3,5,7,9,11,13,-1,-1,-1,-1,-1,-1,-1,-1],"loss_changes":[4.69909E3,2.3561763E3,1.8823413E2,1.03881226E2,3.16583E2,8.481946E1,5.354712E1,0E0,0E0,0E0,0E0,0E0,0E0,0E0,0E0],"parents":[2147483647,0,0,1,1,2,2,3,3,4,4,5,5,6,6],"right_children":[2,4,6,8,10,12,14,-1,-1,-1,-1,-1,-1,-1,-1],"split_conditions":[2.1637842E1,1.695114E1,2.1698784E-2,1.6355822E1,1.8957823E1,1.2253308E-2,2.352965E1,-1.5608892E-2,-2.6937712E-3,1.3619508E-2,-5.820775E-3,-1.1473188E-2,7.0735407E-3,-3.0949535E-3,-1.4254725E-2],"split_indices":[1,1,5,1,2,5,1,0,0,0,0,0,0,0,0],"split_type":[0,0,0,0,0,0,0,0,0,0,0,0,0,0,0],"sum_hessian":[4.217271E3,2.5797805E3,1.6374905E3,4.2106592E2,2.1587146E3,9.375468E1,1.5437357E3,3.1740424E2,1.0366168E2,2.081975E3,7.673941E1,2.9982965E1,6.3771713E1,7.063274E1,1.473103E3],"tree_param":{"num_deleted":"0","num_feature":"7","num_nodes":"15","size_leaf_vector":"1"}},{"base_weights":[-6.570888E-2,7.84735E-1,-1.3325752E0,-1.5512718E-2,1.1540521E0,-1.5000685E0,-8.378946E-1,1.2344594E-2,-6.3968278E-3,-2.0800629E-3,-1.5673988E-2,6.286705E-3,-9.834545E-3],"categories":[],"categories_nodes":[],"categories_segments":[],"categories_sizes":[],"default_left":[0,0,0,0,0,0,0,0,0,0,0,0,0],"id":35,"left_children":[1,3,5,-1,7,9,11,-1,-1,-1,-1,-1,-1],"loss_changes":[4.3073745E3,2.0676987E3,1.0289673E2,0E0,3.093767E2,8.4121826E1,1.0108023E2,0E0,0E0,0E0,0E0,0E0,0E0],"parents":[2147483647,0,0,1,1,2,2,4,4,5,5,6,6],"right_children":[2,4,6,-1,8,10,12,-1,-1,-1,-1,-1,-1],"split_conditions":[2.1637842E1,1.6355822E1,3.6122547E1,-1.5512718E-2,1.8957823E1,2.352965E1,3.6127815E1,1.2344594E-2,-6.3968278E-3,-2.0800629E-3,-1.5673988E-2,6.286705E-3,-9.834545E-3],"split_indices":[1,1,3,0,2,1,3,0,0,0,0,0,0],"split_type":[0,0,0,0,0,0,0,0,0,0,0,0,0],"sum_hessian":[3.9787803E3,2.3780881E3,1.600692E3,3.180847E2,2.0600034E3,1.1709784E3,4.2971368E2,1.9786324E3,8.1370895E1,6.611759E1,1.1048608E3,3.0998861E1,3.9871484E2],"tree_param":{"num_deleted":"0","num_feature":"7","num_nodes":"13","size_leaf_vector":"1"}},{"base_weights":[3.6207088E-3,-8.026843E-1,1.2321187E0,-1.2303476E0,-1.6639493E-1,1.2482734E0,-5.4279044E-3,-1.5582396E-2,-6.268596E-3,-6.832237E-3,7.913072E-3,-2.7915442E-3,1.2605642E-2],"categories":[],"categories_nodes":[],"categories_segments":[],"categories_sizes":[],"default_left":[0,0,0,0,0,0,0,0,0,0,0,0,0],"id":36,"left_children":[1,3,5,7,9,11,-1,-1,-1,-1,-1,-1,-1],"loss_changes":[4.1184424E3,6.671494E2,5.868579E1,2.674624E2,5.0952835E2,4.22771E1,0E0,0E0,0E0,0E0,0E0,0E0,0E0],"parents":[2147483647,0,0,1,1,2,2,3,3,4,4,5,5],"right_children":[2,4,6,8,10,12,-1,-1,-1,-1,-1,-1,-1],"split_conditions":[3.6579468E1,3.573669E1,7.8460974E-1,1.55388365E1,2.7196595E-1,1.2809974E-1,-5.4279044E-3,-1.5582396E-2,-6.268596E-3,-6.832237E-3,7.913072E-3,-2.7915442E-3,1.2605642E-2],"split_indices":[3,3,4,2,4,5,0,0,0,0,0,0,0],"split_type":[0,0,0,0,0,0,0,0,0,0,0,0,0],"sum_hessian":[4.1390674E3,2.4960583E3,1.643009E3,1.480159E3,1.0158992E3,1.6353905E3,7.6185255E0,9.4182086E2,5.383382E2,6.6730365E2,3.485955E2,5.926702E0,1.6294637E3],"tree_param":{"num_deleted":"0","num_feature":"7","num_nodes":"13","size_leaf_vector":"1"}},{"base_weights":[-9.627784E-3,8.1345755E-1,-1.2718226E0,-1.2618845E0,1.2476153E0,6.257475E-4,-1.35514E0,-1.5617418E-2,-0E0,1.3274012E-2,-5.994527E-3,-1.135727E-2,7.3966756E-3,-1.488793E-2,-7.902167E-3],"categories":[],"categories_nodes":[],"categories_segments":[],"categories_sizes":[],"default_left":[0,0,0,0,0,0,0,0,0,0,0,0,0,0,0],"id":37,"left_children":[1,3,5,7,9,11,13,-1,-1,-1,-1,-1,-1,-1,-1],"loss_changes":[4.2648696E3,2.2444102E3,1.842732E2,1.6757886E2,3.1554102E2,8.7056786E1,8.630347E1,0E0,0E0,0E0,0E0,0E0,0E0,0E0,0E0],"parents":[2147483647,0,0,1,1,2,2,3,3,4,4,5,5,6,6],"right_children":[2,4,6,8,10,12,14,-1,-1,-1,-1,-1,-1,-1,-1],"split_conditions":[2.1637842E1,1.695114E1,2.1698784E-2,3.57015E1,1.7750969E1,1.2253308E-2,3.6142582E1,-1.5617418E-2,-0E0,1.3274012E-2,-5.994527E-3,-1.135727E-2,7.3966756E-3,-1.488793E-2,-7.902167E-3],"split_indices":[1,1,5,3,2,5,3,0,0,0,0,0,0,0,0],"split_type":[0,0,0,0,0,0,0,0,0,0,0,0,0,0,0],"sum_hessian":[4.0864622E3,2.4707625E3,1.6156997E3,4.2142883E2,2.0493337E3,9.3104454E1,1.5225952E3,3.412726E2,8.015622E1,1.9711428E3,7.819093E1,3.0325678E1,6.277877E1,1.2086191E3,3.1397607E2],"tree_param":{"num_deleted":"0","num_feature":"7","num_nodes":"15","size_leaf_vector":"1"}},{"base_weights":[-2.8274527E-2,8.097056E-1,-1.3555087E0,-1.2504848E0,1.2385063E0,-1.4011729E0,-4.0252235E-2,-1.55067975E-2,-0E0,-1.4627288E-3,1.2819646E-2,-2.6361211E-3,-1.4457329E-2,1.2517763E-2,-1.1979394E-2],"categories":[],"categories_nodes":[],"categories_segments":[],"categories_sizes":[],"default_left":[0,0,0,0,0,0,0,0,0,0,0,0,0,0,0],"id":38,"left_children":[1,3,5,7,9,11,13,-1,-1,-1,-1,-1,-1,-1,-1],"loss_changes":[4.5053657E3,2.1990317E3,8.091382E1,1.6466809E2,1.3540576E2,5.8369385E1,1.1070427E2,0E0,0E0,0E0,0E0,0E0,0E0,0E0,0E0],"parents":[2147483647,0,0,1,1,2,2,3,3,4,4,5,5,6,6],"right_children":[2,4,6,8,10,12,14,-1,-1,-1,-1,-1,-1,-1,-1],"split_conditions":[2.1637842E1,1.695114E1,5.0177824E-1,3.57015E1,5.400237E-2,2.1698784E-2,5.217043E-1,-1.55067975E-2,-0E0,-1.4627288E-3,1.2819646E-2,-2.6361211E-3,-1.4457329E-2,1.2517763E-2,-1.1979394E-2],"split_indices":[1,1,4,3,5,5,4,0,0,0,0,0,0,0,0],"split_type":[0,0,0,0,0,0,0,0,0,0,0,0,0,0,0],"sum_hessian":[4.0317554E3,2.4689995E3,1.5627559E3,4.1929773E2,2.049702E3,1.5032388E3,5.9517014E1,3.3856104E2,8.07367E1,5.5534046E1,1.9941677E3,6.620719E1,1.4370316E3,2.4168447E1,3.5348568E1],"tree_param":{"num_deleted":"0","num_feature":"7","num_nodes":"15","size_leaf_vector":"1"}},{"base_weights":[-2.4157275E-2,7.9473394E-1,-1.2551478E0,-1.251288E0,1.2227947E0,1.9431865E-2,-1.3382705E0,-1.5696699E-3,-1.5716327E-2,1.3005052E-2,-5.6512025E-3,-1.2275494E-2,1.0609465E-2,-1.3855252E-2,-0E0],"categories":[],"categories_nodes":[],"categories_segments":[],"categories_sizes":[],"default_left":[0,0,0,0,0,0,0,0,0,0,0,0,0,0,0],"id":39,"left_children":[1,3,5,7,9,11,13,-1,-1,-1,-1,-1,-1,-1,-1],"loss_changes":[4.0652883E3,2.1262307E3,1.8303174E2,1.2910522E2,2.905752E2,1.3731583E2,8.686035E1,0E0,0E0,0E0,0E0,0E0,0E0,0E0,0E0],"parents":[2147483647,0,0,1,1,2,2,3,3,4,4,5,5,6,6],"right_children":[2,4,6,8,10,12,14,-1,-1,-1,-1,-1,-1,-1,-1],"split_conditions":[2.1637842E1,1.695114E1,2.1698784E-2,1.30784445E1,1.8957823E1,2.3970415E-1,5.0177824E-1,-1.5696699E-3,-1.5716327E-2,1.3005052E-2,-5.6512025E-3,-1.2275494E-2,1.0609465E-2,-1.3855252E-2,-0E0],"split_indices":[1,1,5,2,2,4,4,0,0,0,0,0,0,0,0],"split_type":[0,0,0,0,0,0,0,0,0,0,0,0,0,0,0],"sum_hessian":[4.0140012E3,2.4076638E3,1.6063376E3,4.10469E2,1.9971947E3,9.206321E1,1.5142744E3,1.0180757E2,3.0866144E2,1.9207612E3,7.6433495E1,3.7364506E1,5.4698708E1,1.4574952E3,5.6779118E1],"tree_param":{"num_deleted":"0","num_feature":"7","num_nodes":"15","size_leaf_vector":"1"}},{"base_weights":[4.602371E-2,8.4135586E-1,-1.2457205E0,-1.5108596E-2,1.1706177E0,8.978794E-3,-1.3286635E0,-0E0,1.2384687E-2,-1.2137724E-2,1.0069998E-2,-1.4639399E-2,-7.6605245E-3],"categories":[],"categories_nodes":[],"categories_segments":[],"categories_sizes":[],"default_left":[0,0,0,0,0,0,0,0,0,0,0,0,0],"id":40,"left_children":[1,3,5,-1,7,9,11,-1,-1,-1,-1,-1,-1],"loss_changes":[4.323921E3,2.0323462E3,1.7857812E2,0E0,1.8357666E2,1.2908823E2,8.643994E1,0E0,0E0,0E0,0E0,0E0,0E0],"parents":[2147483647,0,0,1,1,2,2,4,4,5,5,6,6],"right_children":[2,4,6,-1,8,10,12,-1,-1,-1,-1,-1,-1],"split_conditions":[2.1637842E1,1.6355822E1,2.1698784E-2,-1.5108596E-2,1.695114E1,2.3970415E-1,3.6142582E1,-0E0,1.2384687E-2,-1.2137724E-2,1.0069998E-2,-1.4639399E-2,-7.6605245E-3],"split_indices":[1,1,5,0,1,4,3,0,0,0,0,0,0],"split_type":[0,0,0,0,0,0,0,0,0,0,0,0,0],"sum_hessian":[4.1973384E3,2.6037478E3,1.5935906E3,3.131002E2,2.2906475E3,9.249449E1,1.5010961E3,1.2521788E2,2.1654297E3,3.679571E1,5.569878E1,1.1876749E3,3.134212E2],"tree_param":{"num_deleted":"0","num_feature":"7","num_nodes":"13","size_leaf_vector":"1"}},{"base_weights":[1.087011E-2,8.078859E-1,-1.237975E0,-1.5025558E-2,1.1448864E0,4.7586992E-2,-1.3209922E0,1.3734011E-2,3.0377149E-3,-1.1449546E-2,8.203002E-3,6.907341E-4,-1.3664579E-2],"categories":[],"categories_nodes":[],"categories_segments":[],"categories_sizes":[],"default_left":[0,0,0,0,0,0,0,0,0,0,0,0,0],"id":41,"left_children":[1,3,5,-1,7,9,11,-1,-1,-1,-1,-1,-1],"loss_changes":[4.095649E3,1.9704504E3,1.8270068E2,0E0,4.0572998E2,9.399457E1,1.0780298E2,0E0,0E0,0E0,0E0,0E0,0E0],"parents":[2147483647,0,0,1,1,2,2,4,4,5,5,6,6],"right_children":[2,4,6,-1,8,10,12,-1,-1,-1,-1,-1,-1],"split_conditions":[2.1637842E1,1.6355822E1,2.1698784E-2,-1.5025558E-2,2.4026235E3,2.3133307E4,2.750678E2,1.3734011E-2,3.0377149E-3,-1.1449546E-2,8.203002E-3,6.907341E-4,-1.3664579E-2],"split_indices":[1,1,5,0,6,6,6,0,0,0,0,0,0],"split_type":[0,0,0,0,0,0,0,0,0,0,0,0,0],"sum_hessian":[4.103839E3,2.5110808E3,1.5927579E3,3.1298526E2,2.1980957E3,9.023108E1,1.5025269E3,1.7163997E3,4.8169595E2,2.9496515E1,6.0734566E1,4.1196507E1,1.4613303E3],"tree_param":{"num_deleted":"0","num_feature":"7","num_nodes":"13","size_leaf_vector":"1"}},{"base_weights":[-1.9831427E-3,1.0526257E0,-8.708765E-1,-9.9918735E-1,1.215364E0,-4.7304222E-1,-1.5020822E-2,-0E0,-1.4472989E-2,-1.33795915E-2,1.3403232E-2,-1.3510969E-2,-1.2087056E-3],"categories":[],"categories_nodes":[],"categories_segments":[],"categories_sizes":[],"default_left":[0,0,0,0,0,0,0,0,0,0,0,0,0],"id":42,"left_children":[1,3,5,7,9,11,-1,-1,-1,-1,-1,-1,-1],"loss_changes":[3.7078767E3,6.1997644E2,5.354922E2,6.98589E1,5.548508E2,4.1346466E2,0E0,0E0,0E0,0E0,0E0,0E0,0E0],"parents":[2147483647,0,0,1,1,2,2,3,3,4,4,5,5],"right_children":[2,4,6,8,10,12,-1,-1,-1,-1,-1,-1,-1],"split_conditions":[1.6790333E3,1.294059E-1,3.3706453E4,2.1140898E2,6.4962816E0,8.076297E0,-1.5020822E-2,-0E0,-1.4472989E-2,-1.33795915E-2,1.3403232E-2,-1.3510969E-2,-1.2087056E-3],"split_indices":[6,5,6,6,2,2,0,0,0,0,0,0,0],"split_type":[0,0,0,0,0,0,0,0,0,0,0,0,0],"sum_hessian":[4.0333691E3,1.8165864E3,2.2167827E3,1.2663445E2,1.689952E3,1.3764453E3,8.4033734E2,3.679949E1,8.983496E1,7.213535E1,1.6178167E3,3.8070474E2,9.957406E2],"tree_param":{"num_deleted":"0","num_feature":"7","num_nodes":"13","size_leaf_vector":"1"}},{"base_weights":[-0E0,7.8217447E-1,-1.2212118E0,-1.4900686E-2,1.1177919E0,5.636009E-2,-1.3045689E0,1.2063616E-2,-1.5543453E-2,-1.0769491E-2,7.687374E-3,-1.4401338E-2,-7.4803107E-3],"categories":[],"categories_nodes":[],"categories_segments":[],"categories_sizes":[],"default_left":[0,0,0,0,0,0,0,0,0,0,0,0,0],"id":43,"left_children":[1,3,5,-1,7,9,11,-1,-1,-1,-1,-1,-1],"loss_changes":[3.8628413E3,1.8849658E3,1.8014575E2,0E0,5.1983936E2,8.1920494E1,8.483252E1,0E0,0E0,0E0,0E0,0E0,0E0],"parents":[2147483647,0,0,1,1,2,2,4,4,5,5,6,6],"right_children":[2,4,6,-1,8,10,12,-1,-1,-1,-1,-1,-1],"split_conditions":[2.1637842E1,1.6355822E1,2.1698784E-2,-1.4900686E-2,1.8957823E1,1.2253308E-2,3.6142582E1,1.2063616E-2,-1.5543453E-2,-1.0769491E-2,7.687374E-3,-1.4401338E-2,-7.4803107E-3],"split_indices":[1,1,5,0,2,5,3,0,0,0,0,0,0],"split_type":[0,0,0,0,0,0,0,0,0,0,0,0,0],"sum_hessian":[4.0261768E3,2.452579E3,1.5735977E3,3.0890662E2,2.1436724E3,8.9916664E1,1.4836809E3,2.0820876E3,6.158487E1,2.8367092E1,6.1549572E1,1.170615E3,3.13066E2],"tree_param":{"num_deleted":"0","num_feature":"7","num_nodes":"13","size_leaf_vector":"1"}},{"base_weights":[-3.1553674E-3,7.914928E-1,-1.2681226E0,-1.2093489E0,1.194373E0,4.165287E-2,-1.3551905E0,-1.50882155E-2,-0E0,-1.981922E-3,1.2390892E-2,7.169587E-3,-1.0980429E-2,-1.9074125E-3,-1.403451E-2],"categories":[],"categories_nodes":[],"categories_segments":[],"categories_sizes":[],"default_left":[0,0,0,0,0,0,0,0,0,0,0,0,0,0,0],"id":44,"left_children":[1,3,5,7,9,11,13,-1,-1,-1,-1,-1,-1,-1,-1],"loss_changes":[4.0581606E3,2.0036761E3,1.9018066E2,1.5619672E2,1.3981079E2,7.781759E1,6.626636E1,0E0,0E0,0E0,0E0,0E0,0E0,0E0,0E0],"parents":[2147483647,0,0,1,1,2,2,3,3,4,4,5,5,6,6],"right_children":[2,4,6,8,10,12,14,-1,-1,-1,-1,-1,-1,-1,-1],"split_conditions":[2.1637842E1,1.695114E1,2.1698784E-2,3.57015E1,5.400237E-2,-1.0611111E1,2.352965E1,-1.50882155E-2,-0E0,-1.981922E-3,1.2390892E-2,7.169587E-3,-1.0980429E-2,-1.9074125E-3,-1.403451E-2],"split_indices":[1,1,5,3,5,0,1,0,0,0,0,0,0,0,0],"split_type":[0,0,0,0,0,0,0,0,0,0,0,0,0,0,0],"sum_hessian":[4.0180957E3,2.465151E3,1.5529447E3,4.069492E2,2.0582017E3,9.059565E1,1.4623491E3,3.274027E2,7.9546486E1,5.6982033E1,2.0012197E3,6.3570045E1,2.7025604E1,6.707474E1,1.3952743E3],"tree_param":{"num_deleted":"0","num_feature":"7","num_nodes":"15","size_leaf_vector":"1"}},{"base_weights":[-1.4395542E-2,7.673508E-1,-1.2077295E0,-1.4738965E-2,1.1018984E0,-1.4206123E0,-6.3913345E-1,1.189172E-2,-1.5355204E-2,-1.3328971E-3,-1.48954885E-2,-2.5999153E-4,-1.1921862E-2],"categories":[],"categories_nodes":[],"categories_segments":[],"categories_sizes":[],"default_left":[0,0,0,0,0,0,0,0,0,0,0,0,0],"id":45,"left_children":[1,3,5,-1,7,9,11,-1,-1,-1,-1,-1,-1],"loss_changes":[3.70989E3,1.8049902E3,1.6561499E2,0E0,4.919922E2,8.418335E1,1.4293465E2,0E0,0E0,0E0,0E0,0E0,0E0],"parents":[2147483647,0,0,1,1,2,2,4,4,5,5,6,6],"right_children":[2,4,6,-1,8,10,12,-1,-1,-1,-1,-1,-1],"split_conditions":[2.1637842E1,1.6355822E1,3.6122547E1,-1.4738965E-2,1.8957823E1,2.352965E1,3.6162727E1,1.189172E-2,-1.5355204E-2,-1.3328971E-3,-1.48954885E-2,-2.5999153E-4,-1.1921862E-2],"split_indices":[1,1,3,0,2,1,3,0,0,0,0,0,0],"split_type":[0,0,0,0,0,0,0,0,0,0,0,0,0],"sum_hessian":[3.957795E3,2.3883198E3,1.5694751E3,3.0343082E2,2.084889E3,1.1223495E3,4.4712567E2,2.0253451E3,5.9543915E1,6.478659E1,1.0575629E3,2.2343678E2,2.2368889E2],"tree_param":{"num_deleted":"0","num_feature":"7","num_nodes":"13","size_leaf_vector":"1"}},{"base_weights":[-2.1029254E-2,9.3043196E-1,-9.4058055E-1,-5.986996E-1,1.2044436E0,-1.1848893E0,2.0567319E-1,5.6284987E-3,-1.1586544E-2,-1.1908107E-2,1.2717355E-2,-1.2674489E-2,5.029607E-3,-4.5611677E-3,1.0699805E-2],"categories":[],"categories_nodes":[],"categories_segments":[],"categories_sizes":[],"default_left":[0,0,0,0,0,0,0,0,0,0,0,0,0,0,0],"id":46,"left_children":[1,3,5,7,9,11,13,-1,-1,-1,-1,-1,-1,-1,-1],"loss_changes":[3.4686362E3,8.251892E2,5.765055E2,2.0226846E2,2.78812E2,2.4476709E2,2.1211217E2,0E0,0E0,0E0,0E0,0E0,0E0,0E0,0E0],"parents":[2147483647,0,0,1,1,2,2,3,3,4,4,5,5,6,6],"right_children":[2,4,6,8,10,12,14,-1,-1,-1,-1,-1,-1,-1,-1],"split_conditions":[2.4026235E3,3.573669E1,3.639697E1,2.750678E2,7.4828826E-2,1.7411231E0,1.2073768E4,5.6284987E-3,-1.1586544E-2,-1.1908107E-2,1.2717355E-2,-1.2674489E-2,5.029607E-3,-4.5611677E-3,1.0699805E-2],"split_indices":[6,3,3,6,5,4,6,0,0,0,0,0,0,0,0],"split_type":[0,0,0,0,0,0,0,0,0,0,0,0,0,0,0],"sum_hessian":[3.949624E3,1.9362786E3,2.0133455E3,2.8791956E2,1.648359E3,1.6658862E3,3.4745926E2,8.841135E1,1.9950822E2,3.8012333E1,1.6103467E3,1.5950416E3,7.084454E1,1.9286595E2,1.545933E2],"tree_param":{"num_deleted":"0","num_feature":"7","num_nodes":"15","size_leaf_vector":"1"}},{"base_weights":[2.232769E-2,-8.181822E-1,1.0325607E0,9.325504E-1,-1.0633305E0,1.251467E0,-0E0,-8.35175E-3,1.1264109E-2,-1.3236904E-2,-5.164994E-3,1.2713724E-2,-7.127179E-3,-7.0008026E-3,6.6800364E-3],"categories":[],"categories_nodes":[],"categories_segments":[],"categories_sizes":[],"default_left":[0,0,0,0,0,0,0,0,0,0,0,0,0,0,0],"id":47,"left_children":[1,3,5,7,9,11,13,-1,-1,-1,-1,-1,-1,-1,-1],"loss_changes":[3.4716208E3,9.6378064E2,4.174939E2,1.0307431E2,2.574768E2,7.167627E1,1.5995312E2,0E0,0E0,0E0,0E0,0E0,0E0,0E0,0E0],"parents":[2147483647,0,0,1,1,2,2,3,3,4,4,5,5,6,6],"right_children":[2,4,6,8,10,12,14,-1,-1,-1,-1,-1,-1,-1,-1],"split_conditions":[3.6250668E1,4.0307852E2,3.8537834E3,3.4131638E1,3.573669E1,7.291477E-1,3.773573E1,-8.35175E-3,1.1264109E-2,-1.3236904E-2,-5.164994E-3,1.2713724E-2,-7.127179E-3,-7.0008026E-3,6.6800364E-3],"split_indices":[3,6,6,3,3,4,3,0,0,0,0,0,0,0,0],"split_type":[0,0,0,0,0,0,0,0,0,0,0,0,0,0,0],"sum_hessian":[4.0715017E3,2.2183452E3,1.8531565E3,2.6541507E2,1.9529302E3,1.5257576E3,3.273989E2,1.922312E1,2.4619196E2,1.3047397E3,6.481904E2,1.5175704E3,8.187093E0,1.5790327E2,1.6949562E2],"tree_param":{"num_deleted":"0","num_feature":"7","num_nodes":"15","size_leaf_vector":"1"}},{"base_weights":[-3.5410292E-2,7.3677486E-1,-1.2343322E0,-1.4534288E-2,1.0660734E0,-0E0,-1.276007E0,1.1597166E-2,-1.5443845E-2,1.0840641E-2,-9.152209E-3,-1.817663E-3,-1.3204308E-2],"categories":[],"categories_nodes":[],"categories_segments":[],"categories_sizes":[],"default_left":[0,0,0,0,0,0,0,0,0,0,0,0,0],"id":48,"left_children":[1,3,5,-1,7,9,11,-1,-1,-1,-1,-1,-1],"loss_changes":[3.631529E3,1.7235254E3,9.057202E1,0E0,5.1717285E2,5.912983E1,5.7425293E1,0E0,0E0,0E0,0E0,0E0,0E0],"parents":[2147483647,0,0,1,1,2,2,4,4,5,5,6,6],"right_children":[2,4,6,-1,8,10,12,-1,-1,-1,-1,-1,-1],"split_conditions":[2.1637842E1,1.6355822E1,2.750678E2,-1.4534288E-2,1.7750969E1,-5.05E1,2.352965E1,1.1597166E-2,-1.5443845E-2,1.0840641E-2,-9.152209E-3,-1.817663E-3,-1.3204308E-2],"split_indices":[1,1,6,0,2,0,1,0,0,0,0,0,0],"split_type":[0,0,0,0,0,0,0,0,0,0,0,0,0],"sum_hessian":[3.9031226E3,2.3712356E3,1.531887E3,3.0304636E2,2.0681892E3,4.327813E1,1.4886089E3,2.003866E3,6.4323135E1,2.3651386E1,1.9626743E1,6.7450516E1,1.4211583E3],"tree_param":{"num_deleted":"0","num_feature":"7","num_nodes":"13","size_leaf_vector":"1"}},{"base_weights":[4.0468685E-2,7.900293E-1,-1.1802828E0,-1.2119114E0,1.1763325E0,7.159049E-2,-1.2640462E0,-1.9780456E-3,-1.5148776E-2,1.2479956E-2,-5.49004E-3,-1.1590428E-2,1.0598665E-2,-1.312855E-2,-0E0],"categories":[],"categories_nodes":[],"categories_segments":[],"categories_sizes":[],"default_left":[0,0,0,0,0,0,0,0,0,0,0,0,0,0,0],"id":49,"left_children":[1,3,5,7,9,11,13,-1,-1,-1,-1,-1,-1,-1,-1],"loss_changes":[3.7409844E3,1.974367E3,1.7418018E2,1.08548096E2,2.7552124E2,1.26921104E2,8.869849E1,0E0,0E0,0E0,0E0,0E0,0E0,0E0,0E0],"parents":[2147483647,0,0,1,1,2,2,3,3,4,4,5,5,6,6],"right_children":[2,4,6,8,10,12,14,-1,-1,-1,-1,-1,-1,-1,-1],"split_conditions":[2.1637842E1,1.695114E1,2.1698784E-2,1.30784445E1,1.8957823E1,2.3970415E-1,5.0177824E-1,-1.9780456E-3,-1.5148776E-2,1.2479956E-2,-5.49004E-3,-1.1590428E-2,1.0598665E-2,-1.312855E-2,-0E0],"split_indices":[1,1,5,2,2,4,4,0,0,0,0,0,0,0,0],"split_type":[0,0,0,0,0,0,0,0,0,0,0,0,0,0,0],"sum_hessian":[4.0772832E3,2.5323586E3,1.5449246E3,4.0328745E2,2.1290713E3,9.021781E1,1.4547068E3,1.0241509E2,3.0087234E2,2.0511394E3,7.793191E1,3.55564E1,5.4661407E1,1.399474E3,5.5232796E1],"tree_param":{"num_deleted":"0","num_feature":"7","num_nodes":"15","size_leaf_vector":"1"}},{"base_weights":[1.9905516E-3,1.0159206E0,-8.0939615E-1,-9.5127314E-1,1.1700262E0,-4.2246804E-1,-1.4489519E-2,-1.4134582E-2,-0E0,-1.2797199E-2,1.2875125E-2,-1.4206487E-2,-1.2502368E-3],"categories":[],"categories_nodes":[],"categories_segments":[],"categories_sizes":[],"default_left":[0,0,0,0,0,0,0,0,0,0,0,0,0],"id":50,"left_children":[1,3,5,7,9,11,-1,-1,-1,-1,-1,-1,-1],"loss_changes":[3.2673867E3,5.4659827E2,5.2303687E2,6.3307236E1,4.8668823E2,3.9744513E2,0E0,0E0,0E0,0E0,0E0,0E0,0E0],"parents":[2147483647,0,0,1,1,2,2,3,3,4,4,5,5],"right_children":[2,4,6,8,10,12,-1,-1,-1,-1,-1,-1,-1],"split_conditions":[1.6790333E3,1.294059E-1,3.3706453E4,1.2214291E0,6.4962816E0,6.7292233E0,-1.4489519E-2,-1.4134582E-2,-0E0,-1.2797199E-2,1.2875125E-2,-1.4206487E-2,-1.2502368E-3],"split_indices":[6,5,6,4,2,2,0,0,0,0,0,0,0],"split_type":[0,0,0,0,0,0,0,0,0,0,0,0,0],"sum_hessian":[3.9545364E3,1.7619653E3,2.1925713E3,1.2097759E2,1.6409877E3,1.3825161E3,8.100551E2,8.243533E1,3.8542263E1,6.824202E1,1.5727457E3,3.0403076E2,1.0784852E3],"tree_param":{"num_deleted":"0","num_feature":"7","num_nodes":"13","size_leaf_vector":"1"}},{"base_weights":[1.0168768E-2,9.0557784E-1,-8.288328E-1,-1.4827036E-2,1.1052223E0,-4.133341E-1,-1.4422802E-2,-1.3261959E-2,1.24378605E-2,-1.4539638E-2,-2.1106719E-4],"categories":[],"categories_nodes":[],"categories_segments":[],"categories_sizes":[],"default_left":[0,0,0,0,0,0,0,0,0,0,0],"id":51,"left_children":[1,3,5,-1,7,9,-1,-1,-1,-1,-1],"loss_changes":[2.9957986E3,9.307478E2,5.021974E2,0E0,6.1529395E2,4.9391013E2,0E0,0E0,0E0,0E0,0E0],"parents":[2147483647,0,0,1,1,2,2,4,4,5,5],"right_children":[2,4,6,-1,8,10,-1,-1,-1,-1,-1],"split_conditions":[2.4026235E3,1.294059E-1,3.3706453E4,-1.4827036E-2,6.4962816E0,8.346347E0,-1.4422802E-2,-1.3261959E-2,1.24378605E-2,-1.4539638E-2,-2.1106719E-4],"split_indices":[6,5,6,0,2,2,0,0,0,0,0],"split_type":[0,0,0,0,0,0,0,0,0,0,0],"sum_hessian":[3.972041E3,1.926335E3,2.045706E3,1.4145978E2,1.7848752E3,1.2357609E3,8.099451E2,8.9312164E1,1.695563E3,3.2651016E2,9.092507E2],"tree_param":{"num_deleted":"0","num_feature":"7","num_nodes":"11","size_leaf_vector":"1"}},{"base_weights":[2.8222932E-2,-7.978728E-1,1.0188231E0,8.9478874E-1,-1.0369983E0,1.2351637E0,-5.8292836E-2,1.4697647E-2,-5.298727E-3,-1.29639525E-2,-4.9477373E-3,-4.3310155E-3,1.2518798E-2,-1.3408463E-2,2.8283559E-3],"categories":[],"categories_nodes":[],"categories_segments":[],"categories_sizes":[],"default_left":[0,0,0,0,0,0,0,0,0,0,0,0,0,0,0],"id":52,"left_children":[1,3,5,7,9,11,13,-1,-1,-1,-1,-1,-1,-1,-1],"loss_changes":[3.3049924E3,8.9702356E2,4.399474E2,2.3633594E2,2.5091602E2,5.4319824E1,1.4704155E2,0E0,0E0,0E0,0E0,0E0,0E0,0E0,0E0],"parents":[2147483647,0,0,1,1,2,2,3,3,4,4,5,5,6,6],"right_children":[2,4,6,8,10,12,14,-1,-1,-1,-1,-1,-1,-1,-1],"split_conditions":[3.6250668E1,4.0307852E2,3.8537834E3,-1.1888889E1,3.573669E1,1.2809974E-1,-3.3591666E2,1.4697647E-2,-5.298727E-3,-1.29639525E-2,-4.9477373E-3,-4.3310155E-3,1.2518798E-2,-1.3408463E-2,2.8283559E-3],"split_indices":[3,6,6,0,3,5,0,0,0,0,0,0,0,0,0],"split_type":[0,0,0,0,0,0,0,0,0,0,0,0,0,0,0],"sum_hessian":[4.02152E3,2.1886685E3,1.8328518E3,2.6375293E2,1.9249154E3,1.532347E3,3.005047E2,1.9224727E2,7.150564E1,1.283842E3,6.4107336E2,8.031853E0,1.5243152E3,6.4121414E1,2.3638329E2],"tree_param":{"num_deleted":"0","num_feature":"7","num_nodes":"15","size_leaf_vector":"1"}},{"base_weights":[-0E0,7.531726E-1,-1.2036718E0,-1.4295382E-2,1.0746945E0,-1.378884E0,-6.0856086E-1,1.2612884E-2,2.271475E-3,-5.3152104E-4,-1.4464783E-2,1.93357E-3,-1.1488341E-2],"categories":[],"categories_nodes":[],"categories_segments":[],"categories_sizes":[],"default_left":[0,0,0,0,0,0,0,0,0,0,0,0,0],"id":53,"left_children":[1,3,5,-1,7,9,11,-1,-1,-1,-1,-1,-1],"loss_changes":[3.5523452E3,1.6965702E3,1.3334155E2,0E0,3.1734766E2,8.8893555E1,1.6983728E2,0E0,0E0,0E0,0E0,0E0,0E0],"parents":[2147483647,0,0,1,1,2,2,4,4,5,5,6,6],"right_children":[2,4,6,-1,8,10,12,-1,-1,-1,-1,-1,-1],"split_conditions":[2.1637842E1,1.6355822E1,3.6142582E1,-1.4295382E-2,3.203677E3,2.352965E1,3.6162727E1,1.2612884E-2,2.271475E-3,-5.3152104E-4,-1.4464783E-2,1.93357E-3,-1.1488341E-2],"split_indices":[1,1,3,0,6,1,3,0,0,0,0,0,0],"split_type":[0,0,0,0,0,0,0,0,0,0,0,0,0],"sum_hessian":[3.900945E3,2.398443E3,1.502502E3,3.0107132E2,2.0973716E3,1.141541E3,3.60961E2,1.7072716E3,3.9010007E2,6.2480145E1,1.0790608E3,1.4050514E2,2.2045587E2],"tree_param":{"num_deleted":"0","num_feature":"7","num_nodes":"13","size_leaf_vector":"1"}},{"base_weights":[4.5530368E-3,7.530692E-1,-1.1945572E0,-1.4224935E-2,1.0679498E0,8.053466E-2,-1.2833153E0,1.3148672E-2,4.21211E-3,-1.1179818E-2,8.883035E-3,-1.8289607E-3,-1.33135E-2],"categories":[],"categories_nodes":[],"categories_segments":[],"categories_sizes":[],"default_left":[0,0,0,0,0,0,0,0,0,0,0,0,0],"id":54,"left_children":[1,3,5,-1,7,9,11,-1,-1,-1,-1,-1,-1],"loss_changes":[3.5177222E3,1.6660618E3,1.8172998E2,0E0,3.1916235E2,1.0035184E2,5.9234375E1,0E0,0E0,0E0,0E0,0E0,0E0],"parents":[2147483647,0,0,1,1,2,2,4,4,5,5,6,6],"right_children":[2,4,6,-1,8,10,12,-1,-1,-1,-1,-1,-1],"split_conditions":[2.1637842E1,1.6355822E1,2.1698784E-2,-1.4224935E-2,1.6790333E3,2.3133307E4,2.352965E1,1.3148672E-2,4.21211E-3,-1.1179818E-2,8.883035E-3,-1.8289607E-3,-1.33135E-2],"split_indices":[1,1,5,0,6,6,1,0,0,0,0,0,0],"split_type":[0,0,0,0,0,0,0,0,0,0,0,0,0],"sum_hessian":[3.9088445E3,2.4129043E3,1.4959402E3,2.9817194E2,2.1147324E3,9.080014E1,1.4051401E3,1.5148278E3,5.9990454E2,3.0927778E1,5.987236E1,6.809544E1,1.3370447E3],"tree_param":{"num_deleted":"0","num_feature":"7","num_nodes":"13","size_leaf_vector":"1"}},{"base_weights":[-6.8124025E-3,8.9962673E-1,-8.999619E-1,-1.0793422E0,1.0855024E0,-1.2318778E0,-3.0234727E-1,7.974573E-3,-1.4561529E-2,1.1356087E-2,-2.8501733E-3,-0E0,-1.3121943E-2,-8.425111E-3,6.3853934E-3],"categories":[],"categories_nodes":[],"categories_segments":[],"categories_sizes":[],"default_left":[0,0,0,0,0,0,0,0,0,0,0,0,0,0,0],"id":55,"left_children":[1,3,5,7,9,11,13,-1,-1,-1,-1,-1,-1,-1,-1],"loss_changes":[3.143554E3,7.1577185E2,3.723694E2,1.3091937E2,1.3125317E2,1.1546997E2,3.7156067E2,0E0,0E0,0E0,0E0,0E0,0E0,0E0,0E0],"parents":[2147483647,0,0,1,1,2,2,3,3,4,4,5,5,6,6],"right_children":[2,4,6,8,10,12,14,-1,-1,-1,-1,-1,-1,-1,-1],"split_conditions":[2.4026235E3,1.294059E-1,-3.2305557E1,-2.1972221E1,7.8460974E-1,3.7468552E3,1.1770909E4,7.974573E-3,-1.4561529E-2,1.1356087E-2,-2.8501733E-3,-0E0,-1.3121943E-2,-8.425111E-3,6.3853934E-3],"split_indices":[6,5,0,0,4,6,6,0,0,0,0,0,0,0,0],"split_type":[0,0,0,0,0,0,0,0,0,0,0,0,0,0,0],"sum_hessian":[3.868113E3,1.9147461E3,1.9533671E3,1.5719048E2,1.7575555E3,1.2411287E3,7.122383E2,2.0907904E1,1.3628256E2,1.7031243E3,5.443134E1,8.11004E1,1.1600283E3,4.590414E2,2.531969E2],"tree_param":{"num_deleted":"0","num_feature":"7","num_nodes":"15","size_leaf_vector":"1"}},{"base_weights":[-1.7744081E-2,-7.9906046E-1,9.539689E-1,2.3210981E-1,-1.0885218E0,1.1792883E0,-6.3747056E-2,-1.2635747E-2,5.345056E-3,-1.16774775E-2,4.752486E-3,1.20088635E-2,-7.441917E-3,-1.222854E-2,5.995772E-3],"categories":[],"categories_nodes":[],"categories_segments":[],"categories_sizes":[],"default_left":[0,0,0,0,0,0,0,0,0,0,0,0,0,0,0],"id":56,"left_children":[1,3,5,7,9,11,13,-1,-1,-1,-1,-1,-1,-1,-1],"loss_changes":[2.9053123E3,6.4452344E2,4.007235E2,2.0899509E2,2.1712524E2,6.8906494E1,2.4797382E2,0E0,0E0,0E0,0E0,0E0,0E0,0E0,0E0],"parents":[2147483647,0,0,1,1,2,2,3,3,4,4,5,5,6,6],"right_children":[2,4,6,8,10,12,14,-1,-1,-1,-1,-1,-1,-1,-1],"split_conditions":[3.6250668E1,1.436909E3,3.8537834E3,7.7471156E0,1.7411231E0,7.291477E-1,1.2073768E4,-1.2635747E-2,5.345056E-3,-1.16774775E-2,4.752486E-3,1.20088635E-2,-7.441917E-3,-1.222854E-2,5.995772E-3],"split_indices":[3,6,6,2,4,4,6,0,0,0,0,0,0,0,0],"split_type":[0,0,0,0,0,0,0,0,0,0,0,0,0,0,0],"sum_hessian":[3.8137373E3,2.1198364E3,1.6939008E3,4.5814078E2,1.6616957E3,1.3931335E3,3.007673E2,6.8087685E1,3.900531E2,1.5888296E3,7.286608E1,1.3850404E3,8.093145E0,1.1213907E2,1.8862825E2],"tree_param":{"num_deleted":"0","num_feature":"7","num_nodes":"15","size_leaf_vector":"1"}},{"base_weights":[3.943233E-2,7.7195776E-1,-1.177069E0,-1.0195205E0,1.1415435E0,-1.3396327E0,-7.656197E-1,4.4688256E-3,-1.2923185E-2,1.2080015E-2,-4.6961964E-3,-6.959291E-3,-1.4159055E-2,-1.501583E-2,9.659431E-3],"categories":[],"categories_nodes":[],"categories_segments":[],"categories_sizes":[],"default_left":[0,0,0,0,0,0,0,0,0,0,0,0,0,0,0],"id":57,"left_children":[1,3,5,7,9,11,13,-1,-1,-1,-1,-1,-1,-1,-1],"loss_changes":[3.5198376E3,1.6466329E3,7.255957E1,1.809191E2,2.3111157E2,2.4587036E1,5.922488E2,0E0,0E0,0E0,0E0,0E0,0E0,0E0,0E0],"parents":[2147483647,0,0,1,1,2,2,3,3,4,4,5,5,6,6],"right_children":[2,4,6,8,10,12,14,-1,-1,-1,-1,-1,-1,-1,-1],"split_conditions":[2.1637842E1,1.695114E1,-2.3694445E1,3.4931076E2,1.8957823E1,6.2769126E3,1.1770909E4,4.4688256E-3,-1.2923185E-2,1.2080015E-2,-4.6961964E-3,-6.959291E-3,-1.4159055E-2,-1.501583E-2,9.659431E-3],"split_indices":[1,1,0,6,2,6,6,0,0,0,0,0,0,0,0],"split_type":[0,0,0,0,0,0,0,0,0,0,0,0,0,0,0],"sum_hessian":[3.9390574E3,2.4649011E3,1.4741564E3,4.1515787E2,2.0497432E3,1.029022E3,4.4513437E2,5.9203033E1,3.5595483E2,1.9756869E3,7.405634E1,1.2944968E2,8.9957227E2,3.1670584E2,1.2842853E2],"tree_param":{"num_deleted":"0","num_feature":"7","num_nodes":"15","size_leaf_vector":"1"}},{"base_weights":[8.543125E-3,-7.622305E-1,9.5998615E-1,3.1544122E-1,-1.0772716E0,-1.3491262E-2,1.0615534E0,1.2519425E-2,-4.89009E-3,-1.3442777E-2,-4.977471E-3,1.2596502E-2,5.1124166E-3],"categories":[],"categories_nodes":[],"categories_segments":[],"categories_sizes":[],"default_left":[0,0,0,0,0,0,0,0,0,0,0,0,0],"id":58,"left_children":[1,3,5,7,9,-1,11,-1,-1,-1,-1,-1,-1],"loss_changes":[2.8546924E3,7.3728406E2,4.175636E2,3.7621564E2,2.3644019E2,0E0,1.6250427E2,0E0,0E0,0E0,0E0,0E0,0E0],"parents":[2147483647,0,0,1,1,2,2,3,3,4,4,6,6],"right_children":[2,4,6,8,10,-1,12,-1,-1,-1,-1,-1,-1],"split_conditions":[3.6250668E1,1.436909E3,-3.1097223E2,-1.1888889E1,-2.3694445E1,-1.3491262E-2,1.6790333E3,1.2519425E-2,-4.89009E-3,-1.3442777E-2,-4.977471E-3,1.2596502E-2,5.1124166E-3],"split_indices":[3,6,0,0,0,0,6,0,0,0,0,0,0],"split_type":[0,0,0,0,0,0,0,0,0,0,0,0,0],"sum_hessian":[3.8754783E3,2.136605E3,1.7388732E3,4.7685016E2,1.6597549E3,6.5699554E1,1.6731736E3,2.2360806E2,2.5324211E2,1.118931E3,5.4082385E2,1.2112606E3,4.619129E2],"tree_param":{"num_deleted":"0","num_feature":"7","num_nodes":"13","size_leaf_vector":"1"}},{"base_weights":[1.8746523E-2,8.855459E-1,-8.435537E-1,-1.0988765E0,1.0751015E0,-1.1377265E0,3.2585374E-1,-1.4245538E-2,6.125137E-5,-7.6322607E-4,1.2121633E-2,-1.1845751E-2,1.25829615E-2,-0E0,9.557785E-3],"categories":[],"categories_nodes":[],"categories_segments":[],"categories_sizes":[],"default_left":[0,0,0,0,0,0,0,0,0,0,0,0,0,0,0],"id":59,"left_children":[1,3,5,7,9,11,13,-1,-1,-1,-1,-1,-1,-1,-1],"loss_changes":[2.928358E3,7.453096E2,6.8383887E2,7.4118546E1,2.9431274E2,1.8690906E2,8.4969284E1,0E0,0E0,0E0,0E0,0E0,0E0,0E0,0E0],"parents":[2147483647,0,0,1,1,2,2,3,3,4,4,5,5,6,6],"right_children":[2,4,6,8,10,12,14,-1,-1,-1,-1,-1,-1,-1,-1],"split_conditions":[2.4026235E3,1.342525E-1,3.639697E1,3.6199596E1,3.57015E1,5.9871297E0,1.2073768E4,-1.4245538E-2,6.125137E-5,-7.6322607E-4,1.2121633E-2,-1.1845751E-2,1.25829615E-2,-0E0,9.557785E-3],"split_indices":[6,5,3,3,3,4,6,0,0,0,0,0,0,0,0],"split_type":[0,0,0,0,0,0,0,0,0,0,0,0,0,0,0],"sum_hessian":[3.9025417E3,1.9512993E3,1.9512426E3,1.6290445E2,1.7883948E3,1.5653613E3,3.858812E2,1.3045903E2,3.244541E1,1.8360326E2,1.6047916E3,1.5426954E3,2.2665977E1,2.54555E2,1.313262E2],"tree_param":{"num_deleted":"0","num_feature":"7","num_nodes":"15","size_leaf_vector":"1"}},{"base_weights":[-4.4641625E-2,6.943696E-1,-1.2169067E0,-1.3924957E-2,1.0075132E0,9.793594E-2,-1.3111525E0,1.2320762E-2,2.112118E-3,-1.07886195E-2,8.764023E-3,-1.3166401E-3,-1.3639784E-2],"categories":[],"categories_nodes":[],"categories_segments":[],"categories_sizes":[],"default_left":[0,0,0,0,0,0,0,0,0,0,0,0,0],"id":60,"left_children":[1,3,5,-1,7,9,11,-1,-1,-1,-1,-1,-1],"loss_changes":[3.2420945E3,1.5018424E3,1.9149268E2,0E0,3.4221875E2,9.44479E1,6.991675E1,0E0,0E0,0E0,0E0,0E0,0E0],"parents":[2147483647,0,0,1,1,2,2,4,4,5,5,6,6],"right_children":[2,4,6,-1,8,10,12,-1,-1,-1,-1,-1,-1],"split_conditions":[2.1637842E1,1.6355822E1,2.1698784E-2,-1.3924957E-2,2.4026235E3,2.3133307E4,2.352965E1,1.2320762E-2,2.112118E-3,-1.07886195E-2,8.764023E-3,-1.3166401E-3,-1.3639784E-2],"split_indices":[1,1,5,0,6,6,1,0,0,0,0,0,0],"split_type":[0,0,0,0,0,0,0,0,0,0,0,0,0],"sum_hessian":[3.7223413E3,2.2802078E3,1.4421335E3,2.9043442E2,1.9897734E3,9.0049446E1,1.3520841E3,1.5401014E3,4.496721E2,3.0112318E1,5.9937126E1,6.637142E1,1.2857126E3],"tree_param":{"num_deleted":"0","num_feature":"7","num_nodes":"13","size_leaf_vector":"1"}},{"base_weights":[-0E0,7.043443E-1,-1.10786E0,-1.0049003E0,1.0819342E0,8.205257E-2,-1.1923178E0,4.281592E-3,-1.271681E-2,1.2443863E-2,2.1883664E-3,-1.0619355E-2,8.1846565E-3,5.3269585E-4,-1.2375956E-2],"categories":[],"categories_nodes":[],"categories_segments":[],"categories_sizes":[],"default_left":[0,0,0,0,0,0,0,0,0,0,0,0,0,0,0],"id":61,"left_children":[1,3,5,7,9,11,13,-1,-1,-1,-1,-1,-1,-1,-1],"loss_changes":[2.9768286E3,1.5098541E3,1.5998218E2,1.7233298E2,2.5303027E2,8.7050026E1,8.978601E1,0E0,0E0,0E0,0E0,0E0,0E0,0E0,0E0],"parents":[2147483647,0,0,1,1,2,2,3,3,4,4,5,5,6,6],"right_children":[2,4,6,8,10,12,14,-1,-1,-1,-1,-1,-1,-1,-1],"split_conditions":[2.1637842E1,1.695114E1,2.1698784E-2,3.4931076E2,3.203677E3,2.3133307E4,2.750678E2,4.281592E-3,-1.271681E-2,1.2443863E-2,2.1883664E-3,-1.0619355E-2,8.1846565E-3,5.3269585E-4,-1.2375956E-2],"split_indices":[1,1,5,6,6,6,6,0,0,0,0,0,0,0,0],"split_type":[0,0,0,0,0,0,0,0,0,0,0,0,0,0,0],"sum_hessian":[3.796361E3,2.3184907E3,1.4778705E3,4.129684E2,1.9055222E3,9.089627E1,1.3869741E3,5.8815994E1,3.5415244E2,1.5921514E3,3.133709E2,2.9530048E1,6.1366226E1,4.1631084E1,1.345343E3],"tree_param":{"num_deleted":"0","num_feature":"7","num_nodes":"15","size_leaf_vector":"1"}},{"base_weights":[-0E0,7.169659E-1,-1.1465493E0,-1.3791516E-2,1.0130873E0,-1.1920272E0,-0E0,1.0870848E-2,-5.8333674E-3,-1.32169295E-2,-7.0623606E-3,1.3131933E-2,-1.08044315E-2],"categories":[],"categories_nodes":[],"categories_segments":[],"categories_sizes":[],"default_left":[0,0,0,0,0,0,0,0,0,0,0,0,0],"id":62,"left_children":[1,3,5,-1,7,9,11,-1,-1,-1,-1,-1,-1],"loss_changes":[3.1037183E3,1.4524174E3,7.263208E1,0E0,2.5120532E2,6.2587036E1,1.0192114E2,0E0,0E0,0E0,0E0,0E0,0E0],"parents":[2147483647,0,0,1,1,2,2,4,4,5,5,6,6],"right_children":[2,4,6,-1,8,10,12,-1,-1,-1,-1,-1,-1],"split_conditions":[2.1637842E1,1.6355822E1,5.0177824E-1,-1.3791516E-2,1.8957823E1,-1.3666667E1,5.217043E-1,1.0870848E-2,-5.8333674E-3,-1.32169295E-2,-7.0623606E-3,1.3131933E-2,-1.08044315E-2],"split_indices":[1,1,4,0,2,0,4,0,0,0,0,0,0],"split_type":[0,0,0,0,0,0,0,0,0,0,0,0,0],"sum_hessian":[3.764248E3,2.3211982E3,1.4430497E3,2.8021527E2,2.040983E3,1.3856024E3,5.744722E1,1.9582144E3,8.276876E1,1.0690071E3,3.1659543E2,2.4160244E1,3.3286976E1],"tree_param":{"num_deleted":"0","num_feature":"7","num_nodes":"13","size_leaf_vector":"1"}},{"base_weights":[-8.228763E-2,8.990443E-1,-8.3957607E-1,-3.8268402E-1,1.1321657E0,-1.0555195E0,8.647395E-2,1.7839182E-3,-1.3772969E-2,1.1659735E-2,-7.882741E-3,-1.1357081E-2,5.441871E-3,-2.0895228E-3,8.546101E-3],"categories":[],"categories_nodes":[],"categories_segments":[],"categories_sizes":[],"default_left":[0,0,0,0,0,0,0,0,0,0,0,0,0,0,0],"id":63,"left_children":[1,3,5,7,9,11,13,-1,-1,-1,-1,-1,-1,-1,-1],"loss_changes":[2.6472314E3,4.7219434E2,4.1249866E2,1.4523494E2,9.569177E1,2.2066357E2,9.3393654E1,0E0,0E0,0E0,0E0,0E0,0E0,0E0,0E0],"parents":[2147483647,0,0,1,1,2,2,3,3,4,4,5,5,6,6],"right_children":[2,4,6,8,10,12,14,-1,-1,-1,-1,-1,-1,-1,-1],"split_conditions":[1.6790333E3,3.573669E1,3.639697E1,3.1971946E-1,1.6274426E1,1.7411231E0,1.2073768E4,1.7839182E-3,-1.3772969E-2,1.1659735E-2,-7.882741E-3,-1.1357081E-2,5.441871E-3,-2.0895228E-3,8.546101E-3],"split_indices":[6,3,3,4,2,4,6,0,0,0,0,0,0,0,0],"split_type":[0,0,0,0,0,0,0,0,0,0,0,0,0,0,0],"sum_hessian":[3.5479736E3,1.5396061E3,2.0083677E3,2.3025941E2,1.3093467E3,1.6356406E3,3.72727E2,1.453112E2,8.4948204E1,1.2941577E3,1.5189025E1,1.5649658E3,7.067477E1,2.64623E2,1.0810402E2],"tree_param":{"num_deleted":"0","num_feature":"7","num_nodes":"15","size_leaf_vector":"1"}},{"base_weights":[-1.3829126E-2,6.843294E-1,-1.0891705E0,-1.122556E0,1.0634619E0,-1.3096207E0,-5.2631503E-1,-1.4000255E-2,-0E0,1.14131505E-2,-5.4031075E-3,-0E0,-1.3833061E-2,1.6987808E-4,-1.0969081E-2],"categories":[],"categories_nodes":[],"categories_segments":[],"categories_sizes":[],"default_left":[0,0,0,0,0,0,0,0,0,0,0,0,0,0,0],"id":64,"left_children":[1,3,5,7,9,11,13,-1,-1,-1,-1,-1,-1,-1,-1],"loss_changes":[2.7913508E3,1.5472395E3,1.6037585E2,1.1818176E2,2.4280469E2,8.858862E1,1.4522551E2,0E0,0E0,0E0,0E0,0E0,0E0,0E0,0E0],"parents":[2147483647,0,0,1,1,2,2,3,3,4,4,5,5,6,6],"right_children":[2,4,6,8,10,12,14,-1,-1,-1,-1,-1,-1,-1,-1],"split_conditions":[2.1637842E1,1.695114E1,3.6122547E1,3.57015E1,1.7750969E1,2.352965E1,3.6162727E1,-1.4000255E-2,-0E0,1.14131505E-2,-5.4031075E-3,-0E0,-1.3833061E-2,1.6987808E-4,-1.0969081E-2],"split_indices":[1,1,3,3,2,1,3,0,0,0,0,0,0,0,0],"split_type":[0,0,0,0,0,0,0,0,0,0,0,0,0,0,0],"sum_hessian":[3.6984397E3,2.2390632E3,1.4593763E3,3.816988E2,1.8573646E3,1.0301111E3,4.2926523E2,3.0304666E2,7.865213E1,1.7787623E3,7.860225E1,6.1292027E1,9.688191E2,2.1548912E2,2.1377612E2],"tree_param":{"num_deleted":"0","num_feature":"7","num_nodes":"15","size_leaf_vector":"1"}},{"base_weights":[3.0306472E-2,7.253153E-1,-1.0851312E0,-9.770797E-1,1.0819858E0,-8.386693E-1,-1.3627467E-2,4.1202134E-3,-1.243405E-2,1.2348823E-2,2.9752643E-3,-1.1724912E-2,2.0412721E-4],"categories":[],"categories_nodes":[],"categories_segments":[],"categories_sizes":[],"default_left":[0,0,0,0,0,0,0,0,0,0,0,0,0],"id":65,"left_children":[1,3,5,7,9,11,-1,-1,-1,-1,-1,-1,-1],"loss_changes":[2.9663423E3,1.4446699E3,7.2009155E1,1.6263992E2,2.189419E2,2.4363513E2,0E0,0E0,0E0,0E0,0E0,0E0,0E0],"parents":[2147483647,0,0,1,1,2,2,3,3,4,4,5,5],"right_children":[2,4,6,8,10,12,-1,-1,-1,-1,-1,-1,-1],"split_conditions":[2.1637842E1,1.695114E1,3.93807E4,3.4931076E2,3.203677E3,1.1770909E4,-1.3627467E-2,4.1202134E-3,-1.243405E-2,1.2348823E-2,2.9752643E-3,-1.1724912E-2,2.0412721E-4],"split_indices":[1,1,6,6,6,6,0,0,0,0,0,0,0],"split_type":[0,0,0,0,0,0,0,0,0,0,0,0,0],"sum_hessian":[3.815623E3,2.3574165E3,1.4582065E3,4.0175018E2,1.9556664E3,8.0537994E2,6.528266E2,5.854573E1,3.4320444E2,1.6235111E3,3.3215524E2,5.856031E2,2.1977684E2],"tree_param":{"num_deleted":"0","num_feature":"7","num_nodes":"13","size_leaf_vector":"1"}},{"base_weights":[3.738127E-2,7.190851E-1,-1.0756981E0,-9.7244513E-1,1.0711107E0,1.1318357E-1,-1.161726E0,4.2052753E-3,-1.2379106E-2,1.2246271E-2,2.1157602E-3,-1.0449002E-2,8.74859E-3,7.281883E-4,-1.2079139E-2],"categories":[],"categories_nodes":[],"categories_segments":[],"categories_sizes":[],"default_left":[0,0,0,0,0,0,0,0,0,0,0,0,0,0,0],"id":66,"left_children":[1,3,5,7,9,11,13,-1,-1,-1,-1,-1,-1,-1,-1],"loss_changes":[2.8974226E3,1.4231254E3,1.5840942E2,1.6233444E2,2.4566235E2,9.108474E1,8.8250854E1,0E0,0E0,0E0,0E0,0E0,0E0,0E0,0E0],"parents":[2147483647,0,0,1,1,2,2,3,3,4,4,5,5,6,6],"right_children":[2,4,6,8,10,12,14,-1,-1,-1,-1,-1,-1,-1,-1],"split_conditions":[2.1637842E1,1.695114E1,2.1698784E-2,3.4931076E2,3.203677E3,2.3133307E4,2.750678E2,4.2052753E-3,-1.2379106E-2,1.2246271E-2,2.1157602E-3,-1.0449002E-2,8.74859E-3,7.281883E-4,-1.2079139E-2],"split_indices":[1,1,5,6,6,6,6,0,0,0,0,0,0,0,0],"split_type":[0,0,0,0,0,0,0,0,0,0,0,0,0,0,0],"sum_hessian":[3.807761E3,2.3681167E3,1.4396444E3,4.0128418E2,1.9668324E3,8.992689E1,1.3497175E3,5.8114697E1,3.431695E2,1.6572302E3,3.096022E2,2.9899187E1,6.0027702E1,4.1494656E1,1.3082229E3],"tree_param":{"num_deleted":"0","num_feature":"7","num_nodes":"15","size_leaf_vector":"1"}},{"base_weights":[-1.972813E-2,7.0441824E-1,-1.2403027E0,-9.669221E-1,1.0589601E0,-0E0,-1.2872984E0,4.1530016E-3,-1.2322236E-2,1.13151595E-2,-5.1737814E-3,-7.99991E-3,8.7422E-3,-5.4378584E-3,-1.3942213E-2],"categories":[],"categories_nodes":[],"categories_segments":[],"categories_sizes":[],"default_left":[0,0,0,0,0,0,0,0,0,0,0,0,0,0,0],"id":67,"left_children":[1,3,5,7,9,11,13,-1,-1,-1,-1,-1,-1,-1,-1],"loss_changes":[3.2825984E3,1.3849417E3,9.183008E1,1.6001093E2,2.2996509E2,4.169001E1,8.3600586E1,0E0,0E0,0E0,0E0,0E0,0E0,0E0,0E0],"parents":[2147483647,0,0,1,1,2,2,3,3,4,4,5,5,6,6],"right_children":[2,4,6,8,10,12,14,-1,-1,-1,-1,-1,-1,-1,-1],"split_conditions":[2.1637842E1,1.695114E1,2.750678E2,3.4931076E2,1.8957823E1,2.1140898E2,4.7957785E-2,4.1530016E-3,-1.2322236E-2,1.13151595E-2,-5.1737814E-3,-7.99991E-3,8.7422E-3,-5.4378584E-3,-1.3942213E-2],"split_indices":[1,1,6,6,2,6,5,0,0,0,0,0,0,0,0],"split_type":[0,0,0,0,0,0,0,0,0,0,0,0,0,0,0],"sum_hessian":[3.693702E3,2.315632E3,1.3780698E3,3.9857053E2,1.9170616E3,4.3898045E1,1.3341718E3,5.8045525E1,3.40525E2,1.8401602E3,7.69015E1,1.8112717E1,2.5785326E1,1.8398645E2,1.1501853E3],"tree_param":{"num_deleted":"0","num_feature":"7","num_nodes":"15","size_leaf_vector":"1"}}]},"name":"gbtree"},"learner_model_param":{"base_score":"5E-1","boost_from_average":"1","num_class":"0","num_feature":"7","num_target":"1"},"objective":{"name":"binary:logistic","reg_loss_param":{"scale_pos_weight":"90.7570114"}}},"version":[2,1,4]}