{"learner":{"attributes":{"best_iteration":"148","best_score":"0.4835537126541115","scikit_learn":"{\"_estimator_type\": \"classifier\"}"},"feature_names":[],"feature_types":[],"gradient_booster":{"model":{"gbtree_model_param":{"num_parallel_tree":"1","num_trees":"199"},"iteration_indptr":[0,1,2,3,4,5,6,7,8,9,10,11,12,13,14,15,16,17,18,19,20,21,22,23,24,25,26,27,28,29,30,31,32,33,34,35,36,37,38,39,40,41,42,43,44,45,46,47,48,49,50,51,52,53,54,55,56,57,58,59,60,61,62,63,64,65,66,67,68,69,70,71,72,73,74,75,76,77,78,79,80,81,82,83,84,85,86,87,88,89,90,91,92,93,94,95,96,97,98,99,100,101,102,103,104,105,106,107,108,109,110,111,112,113,114,115,116,117,118,119,120,121,122,123,124,125,126,127,128,129,130,131,132,133,134,135,136,137,138,139,140,141,142,143,144,145,146,147,148,149,150,151,152,153,154,155,156,157,158,159,160,161,162,163,164,165,166,167,168,169,170,171,172,173,174,175,176,177,178,179,180,181,182,183,184,185,186,187,188,189,190,191,192,193,194,195,196,197,198,199],"tree_info":[0,0,0,0,0,0,0,0,0,0,0,0,0,0,0,0,0,0,0,0,0,0,0,0,0,0,0,0,0,0,0,0,0,0,0,0,0,0,0,0,0,0,0,0,0,0,0,0,0,0,0,0,0,0,0,0,0,0,0,0,0,0,0,0,0,0,0,0,0,0,0,0,0,0,0,0,0,0,0,0,0,0,0,0,0,0,0,0,0,0,0,0,0,0,0,0,0,0,0,0,0,0,0,0,0,0,0,0,0,0,0,0,0,0,0,0,0,0,0,0,0,0,0,0,0,0,0,0,0,0,0,0,0,0,0,0,0,0,0,0,0,0,0,0,0,0,0,0,0,0,0,0,0,0,0,0,0,0,0,0,0,0,0,0,0,0,0,0,0,0,0,0,0,0,0,0,0,0,0,0,0,0,0,0,0,0,0,0,0,0,0,0,0,0,0,0,0,0,0],"trees":[{"base_weights":[-3.2848276E-2,-1.2769841E0,1.3923305E0,8.2708853E-1,-1.6578385E0,1.7111647E0,-1.0902927E-3,-5.8659215E-2,1.2671196E0,-1.8013431E0,-7.4313205E-1,1.7787696E0,-3.705441E-1,-1.3594837E0,7.4257064E-1,1.5582812E0,-5.7499997E-2,-5.9947554E-2,-1.24015E0,5.0440025E-1,-1.4889736E0,-5.414634E-2,1.8029381E0,-5.7757005E-2,1.5076146E0,7.650063E-1,-5.936842E-2,-5.7209298E-2,1.0195682E0,-5.6190476E-2,5.321916E-2,-5.9750777E-2,-4.053999E-3,-5.717647E-2,3.6256816E-2,-4.477692E-3,-5.9464283E-2,5.752759E-2,4.3361187E-2,-4.1538462E-2,5.7013474E-2,5.557527E-2,-5.333333E-2,4.575164E-2,3.21157E-3],"categories":[],"categories_nodes":[],"categories_segments":[],"categories_sizes":[],"default_left":[0,0,0,0,0,0,0,0,0,0,0,0,0,0,0,0,0,0,0,0,0,0,0,0,0,0,0,0,0,0,0,0,0,0,0,0,0,0,0,0,0,0,0,0,0],"id":0,"left_children":[1,3,5,7,9,11,13,-1,15,17,19,21,23,25,27,29,-1,-1,31,33,35,-1,37,-1,39,41,-1,-1,43,-1,-1,-1,-1,-1,-1,-1,-1,-1,-1,-1,-1,-1,-1,-1,-1],"loss_changes":[7.0241206E3,1.69626E3,8.203015E2,4.0018347E2,2.3378516E2,2.1212402E2,3.493332E2,0E0,2.635493E2,1.6853857E2,2.2835205E2,1.293164E2,1.4332375E2,1.6251907E2,1.6595432E2,1.9432953E2,0E0,0E0,3.357469E2,1.5890752E2,1.0101715E2,0E0,5.6516113E1,0E0,2.801363E1,8.166214E1,0E0,0E0,9.346039E1,0E0,0E0,0E0,0E0,0E0,0E0,0E0,0E0,0E0,0E0,0E0,0E0,0E0,0E0,0E0,0E0],"parents":[2147483647,0,0,1,1,2,2,3,3,4,4,5,5,6,6,8,8,9,9,10,10,11,11,12,12,13,13,14,14,15,15,18,18,19,19,20,20,22,22,24,24,25,25,28,28],"right_children":[2,4,6,8,10,12,14,-1,16,18,20,22,24,26,28,30,-1,-1,32,34,36,-1,38,-1,40,42,-1,-1,44,-1,-1,-1,-1,-1,-1,-1,-1,-1,-1,-1,-1,-1,-1,-1,-1],"split_conditions":[3.624609E1,7.597868E2,3.7714045E3,1.2894541E-1,3.6139423E1,2.191568E1,2.4186544E-1,-5.8659215E-2,2.7206263E1,5.0826705E-1,3.6150417E1,1.6937439E1,3.8559532E1,1.0509884E-1,1.708826E1,1.64387E1,-5.7499997E-2,-5.9947554E-2,1.708826E1,1.5280151E-1,1.3816671E-1,-5.414634E-2,1.0695077E3,-5.7757005E-2,2.3406378E1,8.630169E-1,-5.936842E-2,-5.7209298E-2,1.884065E1,-5.6190476E-2,5.321916E-2,-5.9750777E-2,-4.053999E-3,-5.717647E-2,3.6256816E-2,-4.477692E-3,-5.9464283E-2,5.752759E-2,4.3361187E-2,-4.1538462E-2,5.7013474E-2,5.557527E-2,-5.333333E-2,4.575164E-2,3.21157E-3],"split_indices":[3,6,6,5,3,1,4,0,1,4,3,1,3,4,1,1,0,0,1,4,4,0,6,0,1,5,0,0,1,0,0,0,0,0,0,0,0,0,0,0,0,0,0,0,0],"split_type":[0,0,0,0,0,0,0,0,0,0,0,0,0,0,0,0,0,0,0,0,0,0,0,0,0,0,0,0,0,0,0,0,0,0,0,0,0,0,0,0,0,0,0,0,0],"sum_hessian":[3.959453E3,2.1140544E3,1.8453984E3,3.238327E2,1.7902218E3,1.5015864E3,3.43812E2,4.375E1,2.800827E2,1.5466108E3,2.436109E2,1.4544962E3,4.7090225E1,1.21340225E2,2.224718E2,2.570827E2,2.3E1,1.143E3,4.036109E2,9.1270676E1,1.5234023E2,9.25E0,1.4452462E3,2.575E1,2.1340225E1,2.7340225E1,9.4E1,2.05E1,2.019718E2,1.475E1,2.423327E2,2.3975E2,1.638609E2,2.025E1,7.1020676E1,4.1340225E1,1.11E2,1.0910526E3,3.541936E2,2.25E0,1.9090225E1,1.9340225E1,8E0,1.2954135E2,7.243045E1],"tree_param":{"num_deleted":"0","num_feature":"7","num_nodes":"45","size_leaf_vector":"1"}},{"base_weights":[7.880422E-3,-1.3326249E0,1.4096498E0,3.3778116E-1,-1.5382208E0,1.6125034E0,-6.7919695E-1,1.0937597E0,-5.774377E-2,-1.2403439E0,-5.8190644E-2,1.6864384E0,-6.440494E-1,-5.803367E-2,5.1436E-1,-5.6459293E-2,1.7402776E0,-8.6881137E-1,-5.8204666E-2,-5.4841477E-2,1.7187352E0,-5.6944914E-2,1.2839481E0,-5.7074986E-2,1.5417722E0,-3.830129E-2,5.3609602E-2,-1.0714802E-2,-5.8421224E-2,5.602346E-2,4.0892247E-2,-4.5532163E-2,5.5431426E-2,-4.061021E-2,5.002799E-2],"categories":[],"categories_nodes":[],"categories_segments":[],"categories_sizes":[],"default_left":[0,0,0,0,0,0,0,0,0,0,0,0,0,0,0,0,0,0,0,0,0,0,0,0,0,0,0,0,0,0,0,0,0,0,0],"id":1,"left_children":[1,3,5,7,9,11,13,15,-1,17,-1,19,21,-1,23,-1,25,27,-1,-1,29,-1,31,-1,33,-1,-1,-1,-1,-1,-1,-1,-1,-1,-1],"loss_changes":[7.6523223E3,7.154287E2,8.446135E2,3.9372583E2,2.1927686E2,3.0386133E2,2.6605066E2,3.3466797E2,0E0,2.7571838E2,0E0,2.0262793E2,1.4339728E2,0E0,2.3007689E2,0E0,2.2296295E1,3.8490173E2,0E0,0E0,8.959131E1,0E0,4.0037037E1,0E0,2.5844284E1,0E0,0E0,0E0,0E0,0E0,0E0,0E0,0E0,0E0,0E0],"parents":[2147483647,0,0,1,1,2,2,3,3,4,4,5,5,6,6,7,7,9,9,11,11,12,12,14,14,16,16,17,17,20,20,22,22,24,24],"right_children":[2,4,6,8,10,12,14,16,-1,18,-1,20,22,-1,24,-1,26,28,-1,-1,30,-1,32,-1,34,-1,-1,-1,-1,-1,-1,-1,-1,-1,-1],"split_conditions":[3.624609E1,7.597868E2,6.533741E3,1.9801632E1,3.3706453E4,2.191568E1,-7.897222E1,1.6279951E1,-5.774377E-2,2.726598E1,-5.8190644E-2,1.6937439E1,3.8559532E1,-5.803367E-2,1.2018089E4,-5.6459293E-2,1.8435487E2,-9.138889E0,-5.8204666E-2,-5.4841477E-2,1.0695077E3,-5.6944914E-2,2.3406378E1,-5.7074986E-2,1.7369307E1,-3.830129E-2,5.3609602E-2,-1.0714802E-2,-5.8421224E-2,5.602346E-2,4.0892247E-2,-4.5532163E-2,5.5431426E-2,-4.061021E-2,5.002799E-2],"split_indices":[3,6,6,1,6,1,0,1,0,1,0,1,3,0,6,0,6,0,0,0,6,0,1,0,1,0,0,0,0,0,0,0,0,0,0],"split_type":[0,0,0,0,0,0,0,0,0,0,0,0,0,0,0,0,0,0,0,0,0,0,0,0,0,0,0,0,0,0,0,0,0,0,0],"sum_hessian":[4.0703784E3,2.080682E3,1.9896967E3,2.2795671E2,1.8527251E3,1.8137833E3,1.7591336E2,1.7125351E2,5.6703194E1,1.065928E3,7.867971E2,1.7564855E3,5.729787E1,8.543792E1,9.047544E1,3.022511E1,1.4102841E2,6.97738E2,3.6819003E2,1.54880905E1,1.7409973E3,3.472536E1,2.257251E1,2.6734386E1,6.374106E1,1.7486475E0,1.3927975E2,4.7414368E2,2.235943E2,1.2246707E3,5.1632666E2,3.4977891E0,1.907472E1,2.2482336E0,6.1492825E1],"tree_param":{"num_deleted":"0","num_feature":"7","num_nodes":"35","size_leaf_vector":"1"}},{"base_weights":[1.3763023E-2,-1.1201097E0,1.3312215E0,-1.6782417E0,-6.10869E-1,-5.6090314E-2,1.4403445E0,-5.6638025E-2,-8.1791407E-1,-1.0669594E0,1.356868E-1,1.4680654E0,-5.4871175E-2,-5.639178E-2,-3.457328E-2,-5.6545142E-2,-7.1300906E-1,-1.4275115E0,1.0665871E0,-5.1709086E-2,1.4867922E0,1.5854042E-2,-5.5561185E-2,-4.831418E-2,6.1910534E-3,2.1324923E-2,-5.653106E-2,3.9279245E-2,-5.505906E-2,4.5142435E-2,-5.356643E-2],"categories":[],"categories_nodes":[],"categories_segments":[],"categories_sizes":[],"default_left":[0,0,0,0,0,0,0,0,0,0,0,0,0,0,0,0,0,0,0,0,0,0,0,0,0,0,0,0,0,0,0],"id":2,"left_children":[1,3,5,7,9,-1,11,-1,13,15,17,19,-1,-1,21,-1,23,25,27,-1,29,-1,-1,-1,-1,-1,-1,-1,-1,-1,-1],"loss_changes":[6.062038E3,6.188638E2,6.583347E2,1.8607104E2,3.8899838E2,0E0,1.6724707E2,0E0,1.7091861E2,2.039129E2,6.330495E2,1.1021118E2,0E0,0E0,1.23074936E2,0E0,4.099805E2,1.5999939E2,1.9439194E2,0E0,1.0792432E2,0E0,0E0,0E0,0E0,0E0,0E0,0E0,0E0,0E0,0E0],"parents":[2147483647,0,0,1,1,2,2,3,3,4,4,6,6,8,8,9,9,10,10,11,11,14,14,16,16,17,17,18,18,20,20],"right_children":[2,4,6,8,10,-1,12,-1,14,16,18,20,-1,-1,22,-1,24,26,28,-1,30,-1,-1,-1,-1,-1,-1,-1,-1,-1,-1],"split_conditions":[3.624609E1,-5.1083332E1,-5.551111E2,3.5986675E1,2.5887382E-1,-5.6090314E-2,7.9407E-1,-5.6638025E-2,-2.2811111E2,2.9974517E-1,1.6068025E-1,6.488854E0,-5.4871175E-2,-5.639178E-2,-9.180556E1,-5.6545142E-2,3.3710087E1,4.0958664E-1,7.827645E-1,-5.1709086E-2,3.928416E1,1.5854042E-2,-5.5561185E-2,-4.831418E-2,6.1910534E-3,2.1324923E-2,-5.653106E-2,3.9279245E-2,-5.505906E-2,4.5142435E-2,-5.356643E-2],"split_indices":[3,0,0,3,5,0,4,0,0,4,4,2,0,0,0,0,3,5,4,0,3,0,0,0,0,0,0,0,0,0,0],"split_type":[0,0,0,0,0,0,0,0,0,0,0,0,0,0,0,0,0,0,0,0,0,0,0,0,0,0,0,0,0,0,0],"sum_hessian":[4.0560522E3,2.17999E3,1.8760621E3,1.0389723E3,1.1410178E3,6.1317047E1,1.814745E3,8.34404E2,2.045683E2,7.0803284E2,4.3298495E2,1.8000336E3,1.4711459E1,8.625318E1,1.1831511E2,2.1255455E2,4.954783E2,1.614087E2,2.7157626E2,9.968762E0,1.7900648E3,9.087252E1,2.7442593E1,2.503469E2,2.4513141E2,2.8316431E1,1.3309227E2,2.5112073E2,2.0455542E1,1.7808334E3,9.231453E0],"tree_param":{"num_deleted":"0","num_feature":"7","num_nodes":"31","size_leaf_vector":"1"}},{"base_weights":[8.3821945E-2,1.2303348E0,-1.1272352E0,-8.7473214E-1,1.5552102E0,-1.4630536E0,4.1247478E-1,2.650951E-1,-5.5520657E-2,-5.410248E-2,1.6179594E0,-1.7229524E0,-8.778044E-1,-5.6056358E-2,6.8241096E-1,-5.396566E-2,8.4116846E-1,-5.3387836E-2,1.6554103E0,-9.729865E-1,-5.5346966E-2,-1.451239E0,2.6247573E-1,1.258909E0,1.5344529E-1,-5.2445848E-2,4.203283E-2,5.325364E-2,4.4744574E-2,-5.5055458E-2,1.6257359E-2,4.3709993E-2,-4.952121E-2,2.6925221E-2,-5.3885195E-2,-5.7036012E-2,4.5213513E-2,-1.6407631E-2,3.6347665E-2],"categories":[],"categories_nodes":[],"categories_segments":[],"categories_sizes":[],"default_left":[0,0,0,0,0,0,0,0,0,0,0,0,0,0,0,0,0,0,0,0,0,0,0,0,0,0,0,0,0,0,0,0,0,0,0,0,0,0,0],"id":3,"left_children":[1,3,5,7,9,11,13,15,-1,-1,17,19,21,-1,23,-1,25,-1,27,29,-1,31,33,35,37,-1,-1,-1,-1,-1,-1,-1,-1,-1,-1,-1,-1,-1,-1],"loss_changes":[5.876777E3,1.4882258E3,1.0648958E3,3.2455725E2,3.9993604E2,2.555481E2,2.2868376E2,1.6232532E2,0E0,0E0,2.3831738E2,1.0514038E2,3.4153986E2,0E0,1.0073918E2,0E0,1.5674246E2,0E0,3.32666E1,2.1735649E2,0E0,2.0388397E2,2.3095526E2,1.26980606E2,1.2942358E2,0E0,0E0,0E0,0E0,0E0,0E0,0E0,0E0,0E0,0E0,0E0,0E0,0E0,0E0],"parents":[2147483647,0,0,1,1,2,2,3,3,4,4,5,5,6,6,7,7,10,10,11,11,12,12,14,14,16,16,18,18,19,19,21,21,22,22,23,23,24,24],"right_children":[2,4,6,8,10,12,14,16,-1,-1,18,20,22,-1,24,-1,26,-1,28,30,-1,32,34,36,38,-1,-1,-1,-1,-1,-1,-1,-1,-1,-1,-1,-1,-1,-1],"split_conditions":[2.389484E3,3.5728016E1,3.643997E1,5.811162E2,7.50955E-2,-2.95E1,-1.5283333E2,3.4113514E1,-5.5520657E-2,-5.410248E-2,6.488854E0,7.406603E3,1.1687945E4,-5.6056358E-2,4.367235E3,-5.396566E-2,7.6796737E0,-5.3387836E-2,-1.5694445E1,3.6136562E1,-5.5346966E-2,-2.8972221E1,3.3706453E4,1.3174154E1,1.2018089E4,-5.2445848E-2,4.203283E-2,5.325364E-2,4.4744574E-2,-5.5055458E-2,1.6257359E-2,4.3709993E-2,-4.952121E-2,2.6925221E-2,-5.3885195E-2,-5.7036012E-2,4.5213513E-2,-1.6407631E-2,3.6347665E-2],"split_indices":[6,3,3,6,5,0,0,3,0,0,2,6,6,0,6,0,2,0,0,3,0,0,6,2,6,0,0,0,0,0,0,0,0,0,0,0,0,0,0],"split_type":[0,0,0,0,0,0,0,0,0,0,0,0,0,0,0,0,0,0,0,0,0,0,0,0,0,0,0,0,0,0,0,0,0,0,0,0,0,0,0],"sum_hessian":[4.230489E3,2.1731462E3,2.0573425E3,2.9031638E2,1.8828298E3,1.6890107E3,3.6833185E2,1.3425143E2,1.5606496E2,3.4022934E1,1.8488069E3,1.1682621E3,5.207486E2,3.834934E1,3.299825E2,2.8831516E1,1.0541992E2,1.9649834E1,1.8291571E3,1.646501E2,1.003612E3,3.4631686E2,1.7443175E2,1.5723671E2,1.727458E2,1.8365753E1,8.705417E1,1.0514631E3,7.776939E2,1.0479515E2,5.9854954E1,2.1823694E1,3.244932E2,1.3374075E2,4.0690994E1,1.0965654E1,1.4627106E2,1.0423659E2,6.850922E1],"tree_param":{"num_deleted":"0","num_feature":"7","num_nodes":"39","size_leaf_vector":"1"}},{"base_weights":[1.4777472E-2,-1.1404537E0,1.2829984E0,1.7687649E-1,-1.4707836E0,1.5204817E0,-2.3318322E-1,1.3446589E0,-6.796986E-1,-1.6054398E0,-7.8974056E-1,1.5846748E0,-5.1451E-1,-5.5152368E-2,6.926533E-1,1.677475E0,-5.1720437E-2,1.9486956E-1,-5.445022E-2,-5.3929206E-2,-1.1783452E0,8.659081E-2,-1.3926316E0,-5.36984E-2,1.6132058E0,-5.566838E-2,1.3521717E0,-5.3711142E-2,9.4109786E-1,-4.7556993E-2,5.3562E-2,-5.391787E-2,4.538365E-2,-3.7715787E-3,-4.8207518E-2,-5.172479E-2,1.6687045E-2,-5.4964796E-2,-2.4342487E-2,5.220849E-2,3.892217E-2,5.1565792E-2,-3.942121E-2,-5.507047E-2,3.4333058E-2],"categories":[],"categories_nodes":[],"categories_segments":[],"categories_sizes":[],"default_left":[0,0,0,0,0,0,0,0,0,0,0,0,0,0,0,0,0,0,0,0,0,0,0,0,0,0,0,0,0,0,0,0,0,0,0,0,0,0,0,0,0,0,0,0,0],"id":4,"left_children":[1,3,5,7,9,11,13,15,17,19,21,23,25,-1,27,29,-1,31,-1,-1,33,35,37,-1,39,-1,41,-1,43,-1,-1,-1,-1,-1,-1,-1,-1,-1,-1,-1,-1,-1,-1,-1,-1],"loss_changes":[5.9017407E3,9.175796E2,6.917615E2,4.2455887E2,1.5330493E2,2.1770557E2,3.890241E2,1.8625882E2,2.4359433E2,1.1332178E2,1.4816692E2,1.5787915E2,1.31503E2,0E0,1.04209435E2,6.0044617E1,0E0,3.6840182E2,0E0,0E0,1.9800171E2,9.888293E1,4.093643E1,0E0,6.182373E1,0E0,2.3885513E1,0E0,8.777319E1,0E0,0E0,0E0,0E0,0E0,0E0,0E0,0E0,0E0,0E0,0E0,0E0,0E0,0E0,0E0,0E0],"parents":[2147483647,0,0,1,1,2,2,3,3,4,4,5,5,6,6,7,7,8,8,9,9,10,10,11,11,12,12,14,14,15,15,17,17,20,20,21,21,22,22,24,24,26,26,28,28],"right_children":[2,4,6,8,10,12,14,16,18,20,22,24,26,-1,28,30,-1,32,-1,-1,34,36,38,-1,40,-1,42,-1,44,-1,-1,-1,-1,-1,-1,-1,-1,-1,-1,-1,-1,-1,-1,-1,-1],"split_conditions":[3.624609E1,1.513659E3,4.957982E3,-9.5E0,3.6124542E1,2.191568E1,-7.897222E1,2.7206263E1,1.9801632E1,-2.95E1,3.6145683E1,1.6937439E1,3.7598045E1,-5.5152368E-2,1.708826E1,1.7369307E1,-5.1720437E-2,3.5370003E1,-5.445022E-2,-5.3929206E-2,-2.2583334E1,-2.4622223E2,1.1687945E4,-5.36984E-2,1.0695077E3,-5.566838E-2,-2.1891667E2,-5.3711142E-2,6.1420796E3,-4.7556993E-2,5.3562E-2,-5.391787E-2,4.538365E-2,-3.7715787E-3,-4.8207518E-2,-5.172479E-2,1.6687045E-2,-5.4964796E-2,-2.4342487E-2,5.220849E-2,3.892217E-2,5.1565792E-2,-3.942121E-2,-5.507047E-2,3.4333058E-2],"split_indices":[3,6,6,0,3,1,0,1,1,0,3,1,3,0,1,1,0,3,0,0,0,0,6,0,6,0,0,0,6,0,0,0,0,0,0,0,0,0,0,0,0,0,0,0,0],"split_type":[0,0,0,0,0,0,0,0,0,0,0,0,0,0,0,0,0,0,0,0,0,0,0,0,0,0,0,0,0,0,0,0,0,0,0,0,0,0,0,0,0,0,0,0,0],"sum_hessian":[4.0262498E3,2.1070364E3,1.9192133E3,4.225207E2,1.6845157E3,1.6593088E3,2.5990436E2,1.7854189E2,2.4397879E2,1.4053014E3,2.792144E2,1.6087816E3,5.0527237E1,9.470966E1,1.6519469E2,1.614816E2,1.7060297E1,1.3828296E2,1.0569585E2,9.6694806E2,4.383534E2,1.1414928E2,1.6506511E2,1.2969907E1,1.5958118E3,2.9406382E1,2.1120855E1,1.4461006E1,1.5073367E2,4.7322288E0,1.5674936E2,5.4913467E1,8.3369484E1,1.2720803E2,3.1114536E2,2.295875E1,9.119052E1,9.27632E1,7.230191E1,1.1347003E3,4.6111142E2,1.887963E1,2.2412267E0,9.737013E0,1.4099666E2],"tree_param":{"num_deleted":"0","num_feature":"7","num_nodes":"45","size_leaf_vector":"1"}},{"base_weights":[5.8745336E-2,9.60077E-1,-1.3768444E0,-5.3606547E-2,1.3349991E0,-1.4496671E0,6.2120013E-2,1.410132E0,-3.3753255E-1,1.1834018E-1,-1.531117E0,1.5095785E0,-5.339868E-2,3.0884635E-1,1.4801921E0,-5.4631297E-2,8.660277E-1,-5.1207576E-2,1.2806795E0,-1.2743409E0,-5.2921068E-2,-4.4309586E-2,5.7055842E-2,3.6956295E-2,-5.5209305E-2,-4.772566E-2,4.481404E-2,-5.0728627E-2,4.641738E-2,-4.771817E-2,5.3305794E-2,-4.9213436E-2,1.9753284E-3],"categories":[],"categories_nodes":[],"categories_segments":[],"categories_sizes":[],"default_left":[0,0,0,0,0,0,0,0,0,0,0,0,0,0,0,0,0,0,0,0,0,0,0,0,0,0,0,0,0,0,0,0,0],"id":5,"left_children":[1,3,5,-1,7,9,11,13,15,17,19,21,-1,23,25,-1,27,-1,29,31,-1,-1,-1,-1,-1,-1,-1,-1,-1,-1,-1,-1,-1],"loss_changes":[5.351763E3,2.6190933E3,1.6725488E2,0E0,2.8148096E2,1.9410742E2,2.1013208E2,1.6467627E2,1.7466614E2,1.6323141E2,8.4086426E1,5.448568E1,0E0,2.5871524E2,8.646582E1,0E0,9.702271E1,0E0,6.971098E1,3.3875806E2,0E0,0E0,0E0,0E0,0E0,0E0,0E0,0E0,0E0,0E0,0E0,0E0,0E0],"parents":[2147483647,0,0,1,1,2,2,4,4,5,5,6,6,7,7,8,8,9,9,10,10,11,11,13,13,14,14,16,16,18,18,19,19],"right_children":[2,4,6,-1,8,10,12,14,16,18,20,22,-1,24,26,-1,28,-1,30,32,-1,-1,-1,-1,-1,-1,-1,-1,-1,-1,-1,-1,-1],"split_conditions":[2.191568E1,1.64387E1,5.0826705E-1,-5.3606547E-2,1.8929024E1,2.1695197E-2,-2.2583334E1,1.708826E1,7.3764905E-2,2.3900323E-1,1.8501481E-1,-4.1916668E1,-5.339868E-2,1.1546252E1,-5.551111E2,-5.4631297E-2,-1.0916667E1,-5.1207576E-2,2.554382E1,1.6068025E-1,-5.2921068E-2,-4.4309586E-2,5.7055842E-2,3.6956295E-2,-5.5209305E-2,-4.772566E-2,4.481404E-2,-5.0728627E-2,4.641738E-2,-4.771817E-2,5.3305794E-2,-4.9213436E-2,1.9753284E-3],"split_indices":[1,1,4,0,2,5,0,1,5,4,4,0,0,2,0,0,0,0,1,4,0,0,0,0,0,0,0,0,0,0,0,0,0],"split_type":[0,0,0,0,0,0,0,0,0,0,0,0,0,0,0,0,0,0,0,0,0,0,0,0,0,0,0,0,0,0,0,0,0],"sum_hessian":[4.1339917E3,2.539748E3,1.5942438E3,3.0455826E2,2.2351897E3,1.5174419E3,7.680178E1,2.139248E3,9.594181E1,7.490858E1,1.4425333E3,4.3108593E1,3.3693184E1,1.2827534E2,2.0109727E3,4.2743294E1,5.3198517E1,2.8961252E1,4.5947323E1,6.892053E2,7.5332806E2,4.6838646E0,3.8424732E1,9.003394E1,3.8241405E1,8.360883E0,2.0026117E3,1.0879521E1,4.2318993E1,6.445124E0,3.9502197E1,5.411515E2,1.4805382E2],"tree_param":{"num_deleted":"0","num_feature":"7","num_nodes":"33","size_leaf_vector":"1"}},{"base_weights":[-4.710314E-2,8.770219E-1,-1.4242821E0,-1.4004519E0,1.3309882E0,-8.844219E-3,-1.5012217E0,8.685647E-2,-5.2683394E-2,1.5218754E0,2.6966792E-1,-5.014168E-2,1.065441E0,-5.0225407E-1,-1.5788945E0,5.1927876E-2,-5.1833022E-2,-5.197249E-2,1.5628189E0,-5.6015622E-2,6.93607E-1,-4.9545605E-2,5.530426E-2,7.136589E-1,-5.303482E-2,9.342367E-2,-1.6256884E0,4.907856E-2,3.568192E-2,-5.8256958E-2,2.8816523E-2,-4.775493E-2,3.5942934E-2,4.387772E-2,-4.9901158E-2,-4.3642536E-2,-5.191801E-2],"categories":[],"categories_nodes":[],"categories_segments":[],"categories_sizes":[],"default_left":[0,0,0,0,0,0,0,0,0,0,0,0,0,0,0,0,0,0,0,0,0,0,0,0,0,0,0,0,0,0,0,0,0,0,0,0,0],"id":6,"left_children":[1,3,5,7,9,11,13,15,-1,17,19,-1,21,23,25,-1,-1,-1,27,-1,29,-1,-1,31,-1,33,35,-1,-1,-1,-1,-1,-1,-1,-1,-1,-1],"loss_changes":[4.9165835E3,2.3921045E3,1.6892798E2,2.0366199E2,3.9021924E2,1.464205E2,1.1337012E2,2.2733302E2,0E0,2.2042676E2,2.6866528E2,0E0,1.08328094E2,1.6685898E2,1.0694556E2,0E0,0E0,0E0,4.2138184E1,0E0,1.756464E2,0E0,0E0,6.400012E1,0E0,9.405891E1,2.129126E1,0E0,0E0,0E0,0E0,0E0,0E0,0E0,0E0,0E0,0E0],"parents":[2147483647,0,0,1,1,2,2,3,3,4,4,5,5,6,6,7,7,9,9,10,10,12,12,13,13,14,14,18,18,20,20,23,23,25,25,26,26],"right_children":[2,4,6,8,10,12,14,16,-1,18,20,-1,22,24,26,-1,-1,-1,28,-1,30,-1,-1,32,-1,34,36,-1,-1,-1,-1,-1,-1,-1,-1,-1,-1],"split_conditions":[2.191568E1,1.6937439E1,2.1695197E-2,7.597868E2,3.4212434E3,2.3900323E-1,2.3776226E1,-1.5694445E1,-5.2683394E-2,7.3764905E-2,-7.897222E1,-5.014168E-2,1.639177E4,-2.2583334E1,2.564939E2,5.1927876E-2,-5.1833022E-2,-5.197249E-2,1.4625841E3,-5.6015622E-2,4.630341E3,-4.9545605E-2,5.530426E-2,-2.4622223E2,-5.303482E-2,-5.025E1,1.5384613E-1,4.907856E-2,3.568192E-2,-5.8256958E-2,2.8816523E-2,-4.775493E-2,3.5942934E-2,4.387772E-2,-4.9901158E-2,-4.3642536E-2,-5.191801E-2],"split_indices":[1,1,5,6,6,4,1,0,0,5,0,0,6,0,6,0,0,0,6,0,6,0,0,0,0,0,4,0,0,0,0,0,0,0,0,0,0],"split_type":[0,0,0,0,0,0,0,0,0,0,0,0,0,0,0,0,0,0,0,0,0,0,0,0,0,0,0,0,0,0,0,0,0,0,0,0,0],"sum_hessian":[3.861175E3,2.3108765E3,1.5502986E3,3.837219E2,1.9271545E3,7.998314E1,1.4703154E3,7.419754E1,3.0952435E2,1.6330101E3,2.9414435E2,3.1177523E1,4.8805614E1,1.0661271E2,1.3637028E3,3.895234E1,3.5245205E1,1.9776945E1,1.6132332E3,4.813195E1,2.4601239E2,1.061488E1,3.819073E1,5.4595554E1,5.201716E1,3.7092674E1,1.3266101E3,1.3462034E3,2.6702982E2,2.2049147E1,2.2396324E2,9.082962E0,4.551259E1,2.0940254E1,1.615242E1,5.1019528E2,8.164148E2],"tree_param":{"num_deleted":"0","num_feature":"7","num_nodes":"37","size_leaf_vector":"1"}},{"base_weights":[-4.5467388E-2,8.92992E-1,-1.564521E0,-5.1218394E-2,1.2672093E0,9.475753E-1,-1.6099708E0,1.4331056E0,-4.5137163E-2,1.5151529E0,-4.2986047E-2,-1.6546675E0,-4.6259987E-1,1.4656428E0,-5.173624E-2,-5.505563E-2,6.5669876E-1,5.4682042E-2,-3.3248484E-2,-5.1005393E-2,-1.3397617E0,1.410682E0,-5.0898965E-2,4.7183458E-2,3.222034E-2,2.9607179E-2,-5.280718E-2,4.879189E-2,-5.1024072E-2,5.4098252E-2,-3.8049787E-2],"categories":[],"categories_nodes":[],"categories_segments":[],"categories_sizes":[],"default_left":[0,0,0,0,0,0,0,0,0,0,0,0,0,0,0,0,0,0,0,0,0,0,0,0,0,0,0,0,0,0,0],"id":7,"left_children":[1,3,5,-1,7,9,11,13,15,17,-1,19,21,23,-1,-1,25,-1,-1,-1,27,29,-1,-1,-1,-1,-1,-1,-1,-1,-1],"loss_changes":[5.460777E3,2.3062102E3,1.6853857E2,0E0,4.5084033E2,3.8143112E1,7.2937744E1,1.9138354E2,2.943455E2,1.9759972E1,0E0,1.7541992E1,1.3017145E2,7.4674805E1,0E0,0E0,1.360965E2,0E0,0E0,0E0,1.948263E2,2.5949326E1,0E0,0E0,0E0,0E0,0E0,0E0,0E0,0E0,0E0],"parents":[2147483647,0,0,1,1,2,2,4,4,5,5,6,6,7,7,8,8,9,9,11,11,12,12,13,13,16,16,20,20,21,21],"right_children":[2,4,6,-1,8,10,12,14,16,18,-1,20,22,24,-1,-1,26,-1,-1,-1,28,30,-1,-1,-1,-1,-1,-1,-1,-1,-1],"split_conditions":[2.191568E1,1.64387E1,6.799904E1,-5.1218394E-2,4.957982E3,2.7064564E1,5.0826705E-1,1.9990702E1,-5.388889E1,-9.5E0,-4.2986047E-2,2.8819683E-1,5.216106E-1,1.4625841E3,-5.173624E-2,-5.505563E-2,1.8929024E1,5.4682042E-2,-3.3248484E-2,-5.1005393E-2,7.312708E0,-2.2583334E1,-5.0898965E-2,4.7183458E-2,3.222034E-2,2.9607179E-2,-5.280718E-2,4.879189E-2,-5.1024072E-2,5.4098252E-2,-3.8049787E-2],"split_indices":[1,1,6,0,6,1,4,2,0,0,0,4,4,6,0,0,2,0,0,0,2,0,0,0,0,0,0,0,0,0,0],"split_type":[0,0,0,0,0,0,0,0,0,0,0,0,0,0,0,0,0,0,0,0,0,0,0,0,0,0,0,0,0,0,0],"sum_hessian":[3.8286113E3,2.3668203E3,1.4617909E3,2.9731894E2,2.0695015E3,2.5624567E1,1.4361664E3,1.8371693E3,2.3233218E2,2.0984627E1,4.6399403E0,1.3818916E3,5.4274715E1,1.818962E3,1.8207245E1,6.498118E1,1.67351E2,1.9055676E1,1.9289514E0,1.2035476E3,1.7834401E2,2.14977E1,3.2777016E1,1.425869E3,3.9309296E2,1.4775594E2,1.9595058E1,1.897214E1,1.5937187E2,1.9035103E1,2.4625971E0],"tree_param":{"num_deleted":"0","num_feature":"7","num_nodes":"31","size_leaf_vector":"1"}},{"base_weights":[2.8969167E-2,9.016296E-1,-1.4006197E0,-5.0178472E-2,1.2454965E0,5.931936E-1,-1.4813204E0,1.4843427E0,4.841719E-1,1.5524299E0,-4.7794998E-2,-1.5688002E0,1.8222786E-1,1.5094969E0,-5.0175935E-2,-5.1845632E-2,6.652179E-1,-3.8059507E-2,5.3295195E-2,-5.451914E-1,-1.6110202E0,1.437973E0,-4.9940716E-2,4.7142737E-2,3.4305774E-2,-5.570026E-2,2.4074683E-2,4.0322244E-2,-5.0910402E-2,-4.9888674E-2,-2.3809899E-2,-4.3046415E-2,5.650159E-2],"categories":[],"categories_nodes":[],"categories_segments":[],"categories_sizes":[],"default_left":[0,0,0,0,0,0,0,0,0,0,0,0,0,0,0,0,0,0,0,0,0,0,0,0,0,0,0,0,0,0,0,0,0],"id":8,"left_children":[1,3,5,-1,7,9,11,13,15,17,-1,19,21,23,-1,-1,25,-1,-1,27,29,31,-1,-1,-1,-1,-1,-1,-1,-1,-1,-1,-1],"loss_changes":[5.012801E3,2.2106963E3,2.459436E2,0E0,3.996206E2,1.2822964E2,2.133523E2,1.3556348E2,2.1232994E2,2.8919846E1,0E0,5.9239258E1,1.7411473E2,3.588501E1,0E0,0E0,1.704556E2,0E0,0E0,1.25480415E2,5.5370117E1,5.9786995E1,0E0,0E0,0E0,0E0,0E0,0E0,0E0,0E0,0E0,0E0,0E0],"parents":[2147483647,0,0,1,1,2,2,4,4,5,5,6,6,7,7,8,8,9,9,11,11,12,12,13,13,16,16,19,19,20,20,21,21],"right_children":[2,4,6,-1,8,10,12,14,16,18,-1,20,22,24,-1,-1,26,-1,-1,28,30,32,-1,-1,-1,-1,-1,-1,-1,-1,-1,-1,-1],"split_conditions":[2.191568E1,1.64387E1,2.564939E2,-5.0178472E-2,2.389484E3,-9.5E0,5.0826705E-1,1.9990702E1,1.708826E1,7.416774E0,-4.7794998E-2,2.3776226E1,-2.2583334E1,3.6787498E-1,-5.0175935E-2,-5.1845632E-2,1.1702565E1,-3.8059507E-2,5.3295195E-2,9.963903E2,1.5622641E1,-2.95E1,-4.9940716E-2,4.7142737E-2,3.4305774E-2,-5.570026E-2,2.4074683E-2,4.0322244E-2,-5.0910402E-2,-4.9888674E-2,-2.3809899E-2,-4.3046415E-2,5.650159E-2],"split_indices":[1,1,6,0,6,0,4,2,1,2,0,1,0,4,0,0,2,0,0,6,2,0,0,0,0,0,0,0,0,0,0,0,0],"split_type":[0,0,0,0,0,0,0,0,0,0,0,0,0,0,0,0,0,0,0,0,0,0,0,0,0,0,0,0,0,0,0,0,0],"sum_hessian":[4.016118E3,2.4940503E3,1.5220677E3,2.9344052E2,2.2006096E3,5.896291E1,1.4631049E3,1.6743691E3,5.2624054E2,4.118395E1,1.777896E1,1.3900635E3,7.3041306E1,1.6616508E3,1.2718327E1,3.9160343E1,4.8708017E2,2.6874762E0,3.8496475E1,5.5614857E1,1.3344486E3,4.3611004E1,2.9430298E1,1.4183511E3,2.4329971E2,2.4497484E1,4.6258267E2,2.100109E1,3.461377E1,1.2537495E3,8.069911E1,5.5557485E0,3.8055256E1],"tree_param":{"num_deleted":"0","num_feature":"7","num_nodes":"33","size_leaf_vector":"1"}},{"base_weights":[3.4246806E-2,-9.3431985E-1,1.1361437E0,7.2776055E-1,-1.2266037E0,1.3446459E0,-1.8652909E-1,1.5641913E0,-6.3823783E-1,-1.4311261E0,-6.372395E-1,-5.191701E-2,1.3698958E0,-5.0663564E-2,6.379401E-1,-4.167639E-2,1.6531246E0,-5.0364614E-2,1.0351019E0,-8.749296E-1,-1.5625978E0,-1.0672663E0,7.799904E-1,1.5232568E0,9.887101E-1,-5.289095E-2,8.205009E-1,5.0806984E-2,3.7922032E-2,-4.3569703E-2,4.8839737E-2,-3.3031903E-2,4.2350806E-2,-4.0425774E-2,-4.8682082E-2,2.9373512E-2,-3.673791E-2,5.2243996E-2,-4.870608E-2,4.7312014E-2,4.1346036E-2,3.1518575E-2,-6.135234E-2,3.6883067E-2,7.001727E-3],"categories":[],"categories_nodes":[],"categories_segments":[],"categories_sizes":[],"default_left":[0,0,0,0,0,0,0,0,0,0,0,0,0,0,0,0,0,0,0,0,0,0,0,0,0,0,0,0,0,0,0,0,0,0,0,0,0,0,0,0,0,0,0,0,0],"id":9,"left_children":[1,3,5,7,9,11,13,15,17,19,21,-1,23,-1,25,-1,27,-1,29,31,33,35,37,39,41,-1,43,-1,-1,-1,-1,-1,-1,-1,-1,-1,-1,-1,-1,-1,-1,-1,-1,-1,-1],"loss_changes":[4.208395E3,1.0203767E3,5.0895776E2,3.6030936E2,2.1426001E2,1.26108154E2,3.132714E2,5.3602814E1,2.109341E2,9.5479004E1,2.822024E2,0E0,9.092529E1,0E0,7.309923E1,0E0,8.499756E-1,0E0,7.12121E1,1.3365837E2,1.1651855E1,1.153746E2,2.525317E2,6.612793E0,8.7882965E1,0E0,3.635096E1,0E0,0E0,0E0,0E0,0E0,0E0,0E0,0E0,0E0,0E0,0E0,0E0,0E0,0E0,0E0,0E0,0E0,0E0],"parents":[2147483647,0,0,1,1,2,2,3,3,4,4,5,5,6,6,7,7,8,8,9,9,10,10,12,12,14,14,16,16,18,18,19,19,20,20,21,21,22,22,23,23,24,24,26,26],"right_children":[2,4,6,8,10,12,14,16,18,20,22,-1,24,-1,26,-1,28,-1,30,32,34,36,38,40,42,-1,44,-1,-1,-1,-1,-1,-1,-1,-1,-1,-1,-1,-1,-1,-1,-1,-1,-1,-1],"split_conditions":[3.624609E1,7.597868E2,4.957982E3,-9.5E0,3.595589E1,1.06076784E-1,-7.897222E1,4.7077913E0,1.7861061E0,7.50955E-2,1.4479164E1,-5.191701E-2,1.0695077E3,-5.0663564E-2,6.0288823E3,-4.167639E-2,4.525141E2,-5.0364614E-2,5.4875326E0,7.3764905E-2,1.8231145E-1,3.5986675E1,1.5896678E1,-4.0277777E0,-2.8888888E0,-5.289095E-2,1.2878819E1,5.0806984E-2,3.7922032E-2,-4.3569703E-2,4.8839737E-2,-3.3031903E-2,4.2350806E-2,-4.0425774E-2,-4.8682082E-2,2.9373512E-2,-3.673791E-2,5.2243996E-2,-4.870608E-2,4.7312014E-2,4.1346036E-2,3.1518575E-2,-6.135234E-2,3.6883067E-2,7.001727E-3],"split_indices":[3,6,6,0,3,5,0,2,5,5,2,0,6,0,6,0,6,0,2,5,5,3,2,0,0,0,2,0,0,0,0,0,0,0,0,0,0,0,0,0,0,0,0,0,0],"split_type":[0,0,0,0,0,0,0,0,0,0,0,0,0,0,0,0,0,0,0,0,0,0,0,0,0,0,0,0,0,0,0,0,0,0,0,0,0,0,0,0,0,0,0,0,0],"sum_hessian":[3.9411802E3,2.0975698E3,1.8436104E3,3.134781E2,1.7840916E3,1.5925491E3,2.5106125E2,1.943365E2,1.191416E2,1.3234106E3,4.6068094E2,1.2419614E1,1.5801295E3,8.859143E1,1.6246983E2,5.2534246E0,1.8908307E2,7.345785E1,4.5683754E1,2.5447937E2,1.0689313E3,3.536275E2,1.0705344E2,1.1246553E3,4.5547424E2,1.0868898E1,1.5160092E2,1.682417E2,2.084138E1,8.51406E0,3.7169693E1,2.3204948E2,2.242988E1,2.386955E2,8.3023584E2,2.4873783E1,3.287537E2,7.6661995E1,3.0391441E1,8.131385E2,3.1151678E2,4.470061E2,8.468131E0,8.8715E1,6.2885937E1],"tree_param":{"num_deleted":"0","num_feature":"7","num_nodes":"45","size_leaf_vector":"1"}},{"base_weights":[4.1607566E-2,8.481722E-1,-1.2160734E0,-4.8423555E-2,1.1863812E0,-9.18247E-1,-4.7691453E-2,1.3905078E0,5.5931345E-2,-4.7979694E-2,-3.5868356E-1,-4.9801435E-2,1.426779E0,2.6256743E-1,-5.1326994E-2,1.1915376E0,-7.596904E-1,4.3110624E-2,-4.7895484E-2,-1.0912736E-2,3.9179273E-2,-4.727077E-2,4.502212E-2,-3.5266776E-2,7.1417573E-3],"categories":[],"categories_nodes":[],"categories_segments":[],"categories_sizes":[],"default_left":[0,0,0,0,0,0,0,0,0,0,0,0,0,0,0,0,0,0,0,0,0,0,0,0,0],"id":10,"left_children":[1,3,5,-1,7,9,-1,11,13,-1,15,-1,17,19,-1,21,23,-1,-1,-1,-1,-1,-1,-1,-1],"loss_changes":[3.98828E3,1.9967373E3,1.6949292E2,0E0,4.8605298E2,3.2611487E2,0E0,1.9981152E2,1.1847084E2,0E0,2.942459E2,0E0,5.6914307E1,1.9018002E2,0E0,8.56743E1,1.5609045E2,0E0,0E0,0E0,0E0,0E0,0E0,0E0,0E0],"parents":[2147483647,0,0,1,1,2,2,4,4,5,5,7,7,8,8,10,10,12,12,13,13,15,15,16,16],"right_children":[2,4,6,-1,8,10,-1,12,14,-1,16,-1,18,20,-1,22,24,-1,-1,-1,-1,-1,-1,-1,-1],"split_conditions":[2.191568E1,1.64387E1,3.93807E4,-4.8423555E-2,3.4212434E3,7.217587E0,-4.7691453E-2,7.3764905E-2,1.8929024E1,-4.7979694E-2,8.390912E0,-4.9801435E-2,1.9990702E1,1.5173552E1,-5.1326994E-2,4.8949927E3,1.1687945E4,4.3110624E-2,-4.7895484E-2,-1.0912736E-2,3.9179273E-2,-4.727077E-2,4.502212E-2,-3.5266776E-2,7.1417573E-3],"split_indices":[1,1,6,0,6,2,0,5,2,0,2,0,2,2,0,6,6,0,0,0,0,0,0,0,0],"split_type":[0,0,0,0,0,0,0,0,0,0,0,0,0,0,0,0,0,0,0,0,0,0,0,0,0],"sum_hessian":[3.9296438E3,2.3944087E3,1.5352351E3,2.8871094E2,2.1056978E3,8.562132E2,6.790219E2,1.7834316E3,3.222662E2,3.853382E2,4.70875E2,2.0429897E1,1.7630017E3,2.8928488E2,3.2981327E1,9.636678E1,3.745082E2,1.7575725E3,5.4292917E0,1.8117975E2,1.0810515E2,9.273766E0,8.709302E1,2.6420676E2,1.1030144E2],"tree_param":{"num_deleted":"0","num_feature":"7","num_nodes":"25","size_leaf_vector":"1"}},{"base_weights":[4.0589582E-2,8.410631E-1,-1.2387849E0,-4.7515955E-2,1.1694509E0,6.08019E-1,-1.3128415E0,1.3994092E0,3.7601662E-1,-4.5166295E-2,1.375535E0,-1.3926646E0,1.7151298E-1,-4.8066206E-2,1.4296161E0,5.633899E-1,-5.0668877E-2,5.2989006E-2,-4.1504394E-2,1.5606311E-1,-1.4802723E0,1.4356146E0,-4.7580607E-2,4.3068107E-2,-4.1948292E-2,-5.337649E-2,2.2405712E-2,-4.577639E-2,3.8041797E-2,-1.5347264E-2,-4.5670975E-2,5.2072145E-2,-3.8290642E-2],"categories":[],"categories_nodes":[],"categories_segments":[],"categories_sizes":[],"default_left":[0,0,0,0,0,0,0,0,0,0,0,0,0,0,0,0,0,0,0,0,0,0,0,0,0,0,0,0,0,0,0,0,0],"id":11,"left_children":[1,3,5,-1,7,9,11,13,15,-1,17,19,21,-1,23,25,-1,-1,-1,27,29,31,-1,-1,-1,-1,-1,-1,-1,-1,-1,-1,-1],"loss_changes":[4.0210603E3,1.9251318E3,2.0747876E2,0E0,3.8769287E2,9.769133E1,1.7242603E2,1.5182812E2,1.8647011E2,0E0,4.962764E1,1.8735913E2,1.6901898E2,0E0,2.9663574E1,1.905812E2,0E0,0E0,0E0,1.4173076E2,5.245117E1,3.8173523E1,0E0,0E0,0E0,0E0,0E0,0E0,0E0,0E0,0E0,0E0,0E0],"parents":[2147483647,0,0,1,1,2,2,4,4,5,5,6,6,7,7,8,8,10,10,11,11,12,12,14,14,15,15,19,19,20,20,21,21],"right_children":[2,4,6,-1,8,10,12,14,16,-1,18,20,22,-1,24,26,-1,-1,-1,28,30,32,-1,-1,-1,-1,-1,-1,-1,-1,-1,-1,-1],"split_conditions":[2.191568E1,1.64387E1,2.564939E2,-4.7515955E-2,2.389484E3,6.6118985E-1,5.0826705E-1,7.950232E-2,1.8929024E1,-4.5166295E-2,1.1680545E0,2.1695197E-2,1.5173552E1,-4.8066206E-2,1.9990702E1,1.1702565E1,-5.0668877E-2,5.2989006E-2,-4.1504394E-2,2.4015649E-1,2.3776226E1,1.8231145E-1,-4.7580607E-2,4.3068107E-2,-4.1948292E-2,-5.337649E-2,2.2405712E-2,-4.577639E-2,3.8041797E-2,-1.5347264E-2,-4.5670975E-2,5.2072145E-2,-3.8290642E-2],"split_indices":[1,1,6,0,6,5,4,5,2,0,5,5,2,0,2,2,0,0,0,4,1,5,0,0,0,0,0,0,0,0,0,0,0],"split_type":[0,0,0,0,0,0,0,0,0,0,0,0,0,0,0,0,0,0,0,0,0,0,0,0,0,0,0,0,0,0,0,0,0],"sum_hessian":[3.9243953E3,2.4142195E3,1.5101759E3,2.8748773E2,2.1267317E3,5.794515E1,1.4522307E3,1.6482588E3,4.784729E2,1.5180359E1,4.276479E1,1.3781792E3,7.405155E1,1.5903581E1,1.6323552E3,4.393354E2,3.9137493E1,3.7774513E1,4.990277E0,7.374455E1,1.3044346E3,4.3178604E1,3.0872946E1,1.6293976E3,2.9576352E0,3.1276964E1,4.0805844E2,2.9202429E1,4.454212E1,5.4869892E1,1.2495647E3,3.9200413E1,3.9781916E0],"tree_param":{"num_deleted":"0","num_feature":"7","num_nodes":"33","size_leaf_vector":"1"}},{"base_weights":[-2.367023E-2,-1.0552111E0,8.5346645E-1,-3.1997523E-1,-1.3019713E0,1.3061303E0,-2.2850705E-2,-9.1856295E-1,8.551924E-1,-3.1785563E-1,-1.4881862E0,-4.3687843E-2,1.3350108E0,-7.333733E-1,5.8264565E-1,-1.1277692E0,5.6662757E-2,-4.6214357E-2,1.1461904E0,-4.8415605E-2,6.0114884E-1,-9.819553E-1,-4.642711E-2,-3.9420396E-2,1.3463978E0,1.2285237E0,-1.1074591E0,8.0504835E-1,-6.5446275E-1,-7.4443E-3,-4.6858132E-2,-4.251972E-2,4.092777E-2,3.4118284E-2,-4.4806957E-2,-4.6645433E-2,3.8640767E-2,-3.9096333E-2,4.0641848E-2,-4.3185975E-2,5.5406343E-2,-4.9164396E-2,-1.7290838E-2,2.8395321E-2,-5.8455452E-2,4.044707E-2,-5.481522E-2],"categories":[],"categories_nodes":[],"categories_segments":[],"categories_sizes":[],"default_left":[0,0,0,0,0,0,0,0,0,0,0,0,0,0,0,0,0,0,0,0,0,0,0,0,0,0,0,0,0,0,0,0,0,0,0,0,0,0,0,0,0,0,0,0,0,0,0],"id":12,"left_children":[1,3,5,7,9,11,13,15,17,19,21,-1,23,25,27,29,-1,-1,31,-1,33,35,-1,-1,37,39,41,43,45,-1,-1,-1,-1,-1,-1,-1,-1,-1,-1,-1,-1,-1,-1,-1,-1,-1,-1],"loss_changes":[3.345876E3,3.0789526E2,7.928058E2,3.0210532E2,2.326333E2,1.0708032E2,2.937099E2,1.6908922E2,1.0290135E2,2.4354272E2,3.0627441E1,0E0,4.1125E1,2.318793E2,1.01945465E2,1.00889496E2,0E0,0E0,7.4569244E1,0E0,1.3634346E2,1.5156503E2,0E0,0E0,3.0452393E1,8.642451E1,7.364688E1,1.2372333E2,1.3567842E2,0E0,0E0,0E0,0E0,0E0,0E0,0E0,0E0,0E0,0E0,0E0,0E0,0E0,0E0,0E0,0E0,0E0,0E0],"parents":[2147483647,0,0,1,1,2,2,3,3,4,4,5,5,6,6,7,7,8,8,9,9,10,10,12,12,13,13,14,14,15,15,18,18,20,20,21,21,24,24,25,25,26,26,27,27,28,28],"right_children":[2,4,6,8,10,12,14,16,18,20,22,-1,24,26,28,30,-1,-1,32,-1,34,36,-1,-1,38,40,42,44,46,-1,-1,-1,-1,-1,-1,-1,-1,-1,-1,-1,-1,-1,-1,-1,-1,-1,-1],"split_conditions":[3.6139423E1,3.0141086E3,1.8731042E3,3.5728016E1,5.6642912E-2,7.50955E-2,3.67395E1,5.9871297E0,2.1775122E-1,1.3103031E4,5.170314E3,-4.3687843E-2,6.488854E0,3.6145683E1,7.6846675E3,5.811162E2,5.6662757E-2,-4.6214357E-2,5.4875326E0,-4.8415605E-2,3.3706453E4,5.07299E3,-4.642711E-2,-3.9420396E-2,3.6148426E1,1.510482E-1,1.1687945E4,3.819572E1,1.0509884E-1,-7.4443E-3,-4.6858132E-2,-4.251972E-2,4.092777E-2,3.4118284E-2,-4.4806957E-2,-4.6645433E-2,3.8640767E-2,-3.9096333E-2,4.0641848E-2,-4.3185975E-2,5.5406343E-2,-4.9164396E-2,-1.7290838E-2,2.8395321E-2,-5.8455452E-2,4.044707E-2,-5.481522E-2],"split_indices":[3,6,6,3,5,5,3,4,5,6,6,0,2,3,6,6,0,0,2,0,6,6,0,0,3,4,6,3,4,0,0,0,0,0,0,0,0,0,0,0,0,0,0,0,0,0,0],"split_type":[0,0,0,0,0,0,0,0,0,0,0,0,0,0,0,0,0,0,0,0,0,0,0,0,0,0,0,0,0,0,0,0,0,0,0,0,0,0,0,0,0,0,0,0,0,0,0],"sum_hessian":[3.6959128E3,1.698371E3,1.9975419E3,4.273512E2,1.2710198E3,1.3168362E3,6.807056E2,2.83278E2,1.4407318E2,2.0266656E2,1.0683533E3,1.3113546E1,1.3037227E3,3.130934E2,3.6761218E2,2.6418854E2,1.9089495E1,1.5139761E1,1.2893341E2,8.377265E1,1.18893906E2,1.140077E2,9.543456E2,5.0904827E0,1.2986322E3,4.9773212E1,2.6332022E2,3.1189087E2,5.5721325E1,8.7825516E1,1.7636302E2,9.676893E0,1.1925652E2,9.5028984E1,2.3864925E1,9.128455E1,2.2723145E1,3.5830495E0,1.2950491E3,9.115207E0,4.065801E1,1.3058574E2,1.3273448E2,2.9727484E2,1.4616026E1,2.052318E1,3.5198147E1],"tree_param":{"num_deleted":"0","num_feature":"7","num_nodes":"47","size_leaf_vector":"1"}},{"base_weights":[-3.9543346E-2,7.640089E-1,-1.2679741E0,-1.2437872E0,1.1486125E0,3.552095E-2,-1.3428128E0,3.2808712E-1,-4.701901E-2,1.3971772E0,4.9979618E-1,-4.450201E-2,9.63626E-1,2.9480353E-2,-1.3822467E0,-4.7267973E-2,1.4092543E0,-4.5961626E-2,1.4229279E0,7.74175E-1,1.1496698E-1,-4.5526054E-2,5.1436823E-2,1.4035631E0,-4.5321424E-2,-1.4260923E0,-1.4198485E-1,-3.321929E-2,4.644076E-2,4.3327074E-2,2.341697E-2,-1.1612269E-2,3.0393004E-2,-3.599538E-2,2.7919635E-2,-2.9704785E-2,4.959308E-2,-4.586627E-2,-3.8119227E-2,-4.5656603E-2,5.206529E-2],"categories":[],"categories_nodes":[],"categories_segments":[],"categories_sizes":[],"default_left":[0,0,0,0,0,0,0,0,0,0,0,0,0,0,0,0,0,0,0,0,0,0,0,0,0,0,0,0,0,0,0,0,0,0,0,0,0,0,0,0,0],"id":13,"left_children":[1,3,5,7,9,11,13,15,-1,17,19,-1,21,23,25,-1,27,-1,29,31,33,-1,-1,35,-1,37,39,-1,-1,-1,-1,-1,-1,-1,-1,-1,-1,-1,-1,-1,-1],"loss_changes":[3.624327E3,1.7155127E3,1.4168848E2,1.8222156E2,2.9981763E2,1.1393943E2,7.4348145E1,1.294516E2,0E0,1.0376074E2,5.457425E1,0E0,9.6033676E1,8.5367805E1,7.2384766E1,0E0,1.5666916E1,0E0,1.71521E1,8.4195206E1,2.3347237E2,0E0,0E0,1.4364159E1,0E0,1.8654297E1,1.23596756E2,0E0,0E0,0E0,0E0,0E0,0E0,0E0,0E0,0E0,0E0,0E0,0E0,0E0,0E0],"parents":[2147483647,0,0,1,1,2,2,3,3,4,4,5,5,6,6,7,7,9,9,10,10,12,12,13,13,14,14,16,16,18,18,19,19,20,20,23,23,25,25,26,26],"right_children":[2,4,6,8,10,12,14,16,-1,18,20,-1,22,24,26,-1,28,-1,30,32,34,-1,-1,36,-1,38,40,-1,-1,-1,-1,-1,-1,-1,-1,-1,-1,-1,-1,-1,-1],"split_conditions":[2.191568E1,1.6937439E1,2.1695197E-2,5.440636E2,1.6790333E3,2.4015649E-1,2.564939E2,4.8843005E-1,-4.701901E-2,8.359257E-2,3.5057628E-1,-4.450201E-2,2.0287477E4,-5.025E1,5.531123E-1,-4.7267973E-2,6.9128853E-1,-4.5961626E-2,6.509822E-1,5.496807E-2,2.6507912E0,-4.5526054E-2,5.1436823E-2,-5.9055557E1,-4.5321424E-2,2.6970041E1,2.6132374E1,-3.321929E-2,4.644076E-2,4.3327074E-2,2.341697E-2,-1.1612269E-2,3.0393004E-2,-3.599538E-2,2.7919635E-2,-2.9704785E-2,4.959308E-2,-4.586627E-2,-3.8119227E-2,-4.5656603E-2,5.206529E-2],"split_indices":[1,1,5,6,6,4,6,5,0,5,5,0,6,0,4,0,4,0,4,5,5,0,0,0,0,1,1,0,0,0,0,0,0,0,0,0,0,0,0,0,0],"split_type":[0,0,0,0,0,0,0,0,0,0,0,0,0,0,0,0,0,0,0,0,0,0,0,0,0,0,0,0,0,0,0,0,0,0,0,0,0,0,0,0,0],"sum_hessian":[3.6696797E3,2.218725E3,1.4509545E3,3.5632446E2,1.8624008E3,7.881025E1,1.3721442E3,6.0816624E1,2.9550784E2,1.3457021E3,5.1669855E2,2.9664125E1,4.9146126E1,3.8335285E1,1.333809E3,2.186322E1,3.8953403E1,1.121711E1,1.3344851E3,3.0104514E2,2.1565343E2,1.1181269E1,3.7964855E1,2.0307068E1,1.8028217E1,1.2881216E3,4.5687294E1,1.6709994E0,3.7282406E1,1.2904314E3,4.4053722E1,5.1264366E1,2.4978076E2,8.238517E1,1.3326825E2,1.636916E0,1.8670153E1,7.701007E2,5.180209E2,2.6442362E1,1.9244934E1],"tree_param":{"num_deleted":"0","num_feature":"7","num_nodes":"41","size_leaf_vector":"1"}},{"base_weights":[4.058703E-2,8.077621E-1,-1.2427536E0,-4.535719E-2,1.1134598E0,-1.4380777E0,-7.4615264E-1,1.2354674E0,-7.4057597E-1,-4.490578E-2,-2.7444425E-1,1.1017605E-1,-1.3021522E0,-4.8632536E-2,1.2857368E0,-5.3262193E-2,1.153765E-1,-4.5292314E-2,1.4760059E0,-4.5869175E-2,9.1751474E-1,-4.6619818E-2,1.1835897E0,4.1844964E-2,2.6522882E-2,4.5011386E-2,-5.0077718E-2,5.106276E-2,-2.9282607E-2,-3.7661302E-3,5.039597E-2,-3.8592104E-2,4.9978174E-2],"categories":[],"categories_nodes":[],"categories_segments":[],"categories_sizes":[],"default_left":[0,0,0,0,0,0,0,0,0,0,0,0,0,0,0,0,0,0,0,0,0,0,0,0,0,0,0,0,0,0,0,0,0],"id":14,"left_children":[1,3,5,-1,7,9,11,13,15,-1,17,19,21,-1,23,-1,25,-1,27,-1,29,-1,31,-1,-1,-1,-1,-1,-1,-1,-1,-1,-1],"loss_changes":[3.736397E3,1.6859382E3,1.3665259E2,0E0,4.7575732E2,6.921973E1,1.9197034E2,2.8495923E2,1.1556186E2,0E0,1.1072516E2,2.1252055E2,1.5481488E2,0E0,8.361499E1,0E0,1.8100375E2,0E0,1.3450363E1,0E0,8.5701584E1,0E0,2.960218E1,0E0,0E0,0E0,0E0,0E0,0E0,0E0,0E0,0E0,0E0],"parents":[2147483647,0,0,1,1,2,2,4,4,5,5,6,6,7,7,8,8,10,10,11,11,12,12,14,14,16,16,18,18,20,20,22,22],"right_children":[2,4,6,-1,8,10,12,14,16,-1,18,20,22,-1,24,-1,26,-1,28,-1,30,-1,32,-1,-1,-1,-1,-1,-1,-1,-1,-1,-1],"split_conditions":[2.191568E1,1.64387E1,3.6124542E1,-4.535719E-2,6.533741E3,5.0826705E-1,3.6150417E1,7.3764905E-2,5.849088E-1,-4.490578E-2,1.2839003E4,1.5280151E-1,3.8559532E1,-4.8632536E-2,1.6480481E3,-5.3262193E-2,6.124949E-1,-4.5292314E-2,5.216106E-1,-4.5869175E-2,9.2525357E-1,-4.6619818E-2,2.3406378E1,4.1844964E-2,2.6522882E-2,4.5011386E-2,-5.0077718E-2,5.106276E-2,-2.9282607E-2,-3.7661302E-3,5.039597E-2,-3.8592104E-2,4.9978174E-2],"split_indices":[1,1,3,0,6,4,3,5,4,0,6,4,3,0,6,0,4,0,4,0,5,0,1,0,0,0,0,0,0,0,0,0,0],"split_type":[0,0,0,0,0,0,0,0,0,0,0,0,0,0,0,0,0,0,0,0,0,0,0,0,0,0,0,0,0,0,0,0,0],"sum_hessian":[3.7930225E3,2.374142E3,1.4188805E3,2.7598575E2,2.0981562E3,1.016983E3,4.0189752E2,1.9689221E3,1.2923422E2,9.678071E2,4.9175854E1,1.58533E2,2.433645E2,3.350931E1,1.9354127E3,5.8017704E1,7.1216515E1,2.8910858E1,2.0264994E1,5.2020786E1,1.06512215E2,2.2131673E2,2.2047771E1,1.5200557E3,4.1535706E2,4.0187458E1,3.1029053E1,1.8834309E1,1.4306858E0,4.532865E1,6.1183563E1,3.3297887E0,1.8717983E1],"tree_param":{"num_deleted":"0","num_feature":"7","num_nodes":"33","size_leaf_vector":"1"}},{"base_weights":[5.3960346E-2,9.717512E-1,-9.4987303E-1,1.206447E0,-7.4893737E-1,-6.1488676E-1,-4.4092156E-2,-4.3873806E-2,1.3059918E0,1.5792511E-1,-4.5100264E-2,-4.450426E-2,-3.249288E-1,1.3426245E0,-4.824233E-2,-4.459003E-2,1.2789916E0,-4.6570946E-2,2.0025613E-2,1.1892495E-2,4.1228775E-2,4.7060218E-2,-4.3165937E-2,8.72397E-3,-3.2649755E-2],"categories":[],"categories_nodes":[],"categories_segments":[],"categories_sizes":[],"default_left":[0,0,0,0,0,0,0,0,0,0,0,0,0,0,0,0,0,0,0,0,0,0,0,0,0],"id":15,"left_children":[1,3,5,7,9,11,-1,-1,13,15,-1,-1,17,19,-1,-1,21,-1,23,-1,-1,-1,-1,-1,-1],"loss_changes":[3.458989E3,7.929271E2,3.1137585E2,4.6052588E2,1.6170534E2,2.745981E2,0E0,0E0,1.7986499E2,2.0113278E2,0E0,0E0,3.472871E2,4.8733154E1,0E0,0E0,5.3277824E1,0E0,1.9274974E2,0E0,0E0,0E0,0E0,0E0,0E0],"parents":[2147483647,0,0,1,1,2,2,3,3,4,4,5,5,8,8,9,9,12,12,13,13,16,16,18,18],"right_children":[2,4,6,8,10,12,-1,-1,14,16,-1,-1,18,20,-1,-1,22,-1,24,-1,-1,-1,-1,-1,-1],"split_conditions":[2.389484E3,2.191568E1,3.93807E4,1.64387E1,-9.5E0,7.217587E0,-4.4092156E-2,-4.3873806E-2,1.7677956E1,8.52314E0,-4.5100264E-2,-4.450426E-2,1.7515253E1,1.6937439E1,-4.824233E-2,-4.459003E-2,9.963903E2,-4.6570946E-2,-1E1,1.1892495E-2,4.1228775E-2,4.7060218E-2,-4.3165937E-2,8.72397E-3,-3.2649755E-2],"split_indices":[6,1,6,1,0,2,0,0,2,2,0,0,1,1,0,0,6,0,0,0,0,0,0,0,0],"split_type":[0,0,0,0,0,0,0,0,0,0,0,0,0,0,0,0,0,0,0,0,0,0,0,0,0],"sum_hessian":[3.7524263E3,1.960239E3,1.7921873E3,1.7252236E3,2.3501546E2,1.0912197E3,7.009676E2,6.1541267E1,1.6636823E3,1.0708287E2,1.27932594E2,2.720774E2,8.1914233E2,1.6435603E3,2.012197E1,4.3279434E1,6.3803432E1,1.7893732E2,6.40205E2,5.3663372E1,1.589897E3,5.8040066E1,5.7633667E0,5.1510175E2,1.2510325E2],"tree_param":{"num_deleted":"0","num_feature":"7","num_nodes":"25","size_leaf_vector":"1"}},{"base_weights":[1.8589826E-2,1.0130105E0,-8.2474786E-1,-4.910242E-1,1.2356553E0,-1.124198E0,4.6117067E-1,2.8065866E-1,-4.420803E-2,-4.22856E-2,1.2764868E0,-1.1603736E0,5.340948E-2,7.45804E-1,-5.1834755E-2,-4.2560063E-2,6.8595016E-1,-4.0575054E-2,1.2961723E0,-8.10266E-1,-1.3578439E0,8.3670914E-1,-5.5043187E-2,-4.1832883E-2,3.3699773E-2,3.9051503E-2,-5.0044324E-2,-4.377445E-2,-1.9800295E-3,-2.49347E-2,-4.4181924E-2,-5.4326568E-2,2.700505E-2],"categories":[],"categories_nodes":[],"categories_segments":[],"categories_sizes":[],"default_left":[0,0,0,0,0,0,0,0,0,0,0,0,0,0,0,0,0,0,0,0,0,0,0,0,0,0,0,0,0,0,0,0,0],"id":16,"left_children":[1,3,5,7,9,11,13,15,-1,-1,17,19,-1,21,-1,-1,23,-1,25,27,29,31,-1,-1,-1,-1,-1,-1,-1,-1,-1,-1,-1],"loss_changes":[3.0452327E3,5.586022E2,7.571271E2,1.6387311E2,1.5859668E2,1.6955432E2,2.3296793E2,8.4713135E1,0E0,0E0,7.577075E1,1.0779053E2,0E0,7.889102E1,0E0,0E0,9.150807E1,0E0,2.5511475E1,2.75408E2,5.9621216E1,5.526335E1,0E0,0E0,0E0,0E0,0E0,0E0,0E0,0E0,0E0,0E0,0E0],"parents":[2147483647,0,0,1,1,2,2,3,3,4,4,5,5,6,6,7,7,10,10,11,11,13,13,16,16,18,18,19,19,20,20,21,21],"right_children":[2,4,6,8,10,12,14,16,-1,-1,18,20,-1,22,-1,-1,24,-1,26,28,30,32,-1,-1,-1,-1,-1,-1,-1,-1,-1,-1,-1],"split_conditions":[1.6790333E3,3.5817177E1,3.663583E1,5.811162E2,7.50955E-2,5.9871297E0,7.6846675E3,3.4113514E1,-4.420803E-2,-4.22856E-2,6.488854E0,9.522784E0,5.340948E-2,3.8559532E1,-5.1834755E-2,-4.2560063E-2,7.6796737E0,-4.0575054E-2,3.928416E1,6.8196654E0,4.9351253E-2,1.69371E-1,-5.5043187E-2,-4.1832883E-2,3.3699773E-2,3.9051503E-2,-5.0044324E-2,-4.377445E-2,-1.9800295E-3,-2.49347E-2,-4.4181924E-2,-5.4326568E-2,2.700505E-2],"split_indices":[6,3,3,6,5,4,6,3,0,0,2,2,0,3,0,0,2,0,3,2,5,5,0,0,0,0,0,0,0,0,0,0,0],"split_type":[0,0,0,0,0,0,0,0,0,0,0,0,0,0,0,0,0,0,0,0,0,0,0,0,0,0,0,0,0,0,0,0,0],"sum_hessian":[3.629193E3,1.6653254E3,1.9638677E3,2.1457822E2,1.4507472E3,1.5930273E3,3.708404E2,1.2058734E2,9.3990875E1,2.1543991E1,1.4292032E3,1.5740234E3,1.9003922E1,3.2875232E2,4.20881E1,2.274029E1,9.7847046E1,1.011896E1,1.4190842E3,5.6947266E2,1.0045508E3,3.182183E2,1.0534006E1,1.6617527E1,8.122952E1,1.4169948E3,2.0894935E0,3.0371783E2,2.657548E2,1.8135994E2,8.2319086E2,6.804166E0,3.1141412E2],"tree_param":{"num_deleted":"0","num_feature":"7","num_nodes":"33","size_leaf_vector":"1"}},{"base_weights":[8.592798E-3,7.520038E-1,-1.2190523E0,-4.345718E-2,1.0495269E0,1.2876713E-1,-1.2998185E0,-4.8231E-2,1.1164069E0,-4.3331634E-2,9.631746E-1,-4.2197794E-1,-1.3406212E0,1.2124687E0,-2.0273119E-1,-4.0606145E-2,5.2203212E-2,-4.41141E-2,1.4230384E0,-4.3415707E-2,-1.1827885E0,3.983522E-2,2.5454456E-2,-4.7453262E-2,1.5281875E-2,4.909212E-2,-2.8453698E-2,4.136896E-2,-3.9634526E-2],"categories":[],"categories_nodes":[],"categories_segments":[],"categories_sizes":[],"default_left":[0,0,0,0,0,0,0,0,0,0,0,0,0,0,0,0,0,0,0,0,0,0,0,0,0,0,0,0,0],"id":17,"left_children":[1,3,5,-1,7,9,11,-1,13,-1,15,17,19,21,23,-1,-1,-1,25,-1,27,-1,-1,-1,-1,-1,-1,-1,-1],"loss_changes":[3.2430493E3,1.4505637E3,1.4606335E2,0E0,3.4837622E2,1.02047066E2,4.472876E1,0E0,2.413811E2,0E0,9.362109E1,1.1357001E2,1.8605713E1,7.336597E1,1.2849646E2,0E0,0E0,0E0,1.237516E1,0E0,1.763316E2,0E0,0E0,0E0,0E0,0E0,0E0,0E0,0E0],"parents":[2147483647,0,0,1,1,2,2,4,4,5,5,6,6,8,8,10,10,11,11,12,12,13,13,14,14,18,18,20,20],"right_children":[2,4,6,-1,8,10,12,-1,14,-1,16,18,20,22,24,-1,-1,-1,26,-1,28,-1,-1,-1,-1,-1,-1,-1,-1],"split_conditions":[2.191568E1,1.64387E1,2.1695197E-2,-4.345718E-2,7.3764905E-2,2.0287477E4,2.3524279E1,-4.8231E-2,6.533741E3,-4.3331634E-2,-2.2583334E1,1.2839003E4,2.6970041E1,1.513659E3,-7.897222E1,-4.0606145E-2,5.2203212E-2,-4.41141E-2,1.3470502E4,-4.3415707E-2,2.7015913E1,3.983522E-2,2.5454456E-2,-4.7453262E-2,1.5281875E-2,4.909212E-2,-2.8453698E-2,4.136896E-2,-3.9634526E-2],"split_indices":[1,1,5,0,5,6,1,0,6,0,0,6,1,6,0,0,0,0,6,0,1,0,0,0,0,0,0,0,0],"split_type":[0,0,0,0,0,0,0,0,0,0,0,0,0,0,0,0,0,0,0,0,0,0,0,0,0,0,0,0,0],"sum_hessian":[3.551458E3,2.212218E3,1.33924E3,2.6301392E2,1.9492041E3,7.56813E1,1.2635587E3,4.7289616E1,1.9019144E3,2.5976091E1,4.9705208E1,5.6626434E1,1.2069323E3,1.7728904E3,1.2902402E2,1.2296493E1,3.7408714E1,3.6236717E1,2.0389719E1,7.15593E2,4.9133923E2,1.3441812E3,4.287093E2,4.3521946E1,8.550207E1,1.8991047E1,1.3986728E0,2.4718292E1,4.6662094E2],"tree_param":{"num_deleted":"0","num_feature":"7","num_nodes":"29","size_leaf_vector":"1"}},{"base_weights":[1.8510295E-2,-7.8844494E-1,9.417091E-1,6.0094976E-1,-1.0248677E0,1.2568893E0,1.965458E-1,1.3896594E0,-2.9198608E-1,-1.2250478E0,-4.6451935E-1,-4.5898072E-2,1.2655737E0,-1.59128E0,5.7352215E-1,-3.5055097E-2,1.4680281E0,-4.6387266E-2,5.6609994E-1,-1.2740346E0,5.1502813E-2,-1.23404585E-1,-4.2905908E-2,4.140513E-2,1.0809468E0,-4.3073345E-2,-5.3590845E-2,-5.1333107E-2,7.2633135E-1,4.6171222E-2,3.6871023E-2,-4.094076E-2,3.530724E-2,-1.921852E-2,-4.0953483E-2,5.881401E-3,-4.429281E-2,3.560068E-2,-1.0489005E-2,-4.523968E-2,2.3841068E-2],"categories":[],"categories_nodes":[],"categories_segments":[],"categories_sizes":[],"default_left":[0,0,0,0,0,0,0,0,0,0,0,0,0,0,0,0,0,0,0,0,0,0,0,0,0,0,0,0,0,0,0,0,0,0,0,0,0,0,0,0,0],"id":18,"left_children":[1,3,5,7,9,11,13,15,17,19,21,-1,23,25,27,-1,29,-1,31,33,-1,35,-1,-1,37,-1,-1,-1,39,-1,-1,-1,-1,-1,-1,-1,-1,-1,-1,-1,-1],"loss_changes":[2.633586E3,6.202439E2,3.8698877E2,1.9403366E2,1.8029346E2,2.997461E1,3.3201776E2,3.1017761E1,1.405458E2,1.732998E2,1.401543E2,0E0,2.2955078E1,3.845215E-2,1.4314342E2,0E0,5.2285767E-1,0E0,9.334553E1,6.653943E1,0E0,1.3683034E2,0E0,0E0,6.805408E1,0E0,0E0,0E0,5.9505127E1,0E0,0E0,0E0,0E0,0E0,0E0,0E0,0E0,0E0,0E0,0E0,0E0],"parents":[2147483647,0,0,1,1,2,2,3,3,4,4,5,5,6,6,7,7,8,8,9,9,10,10,12,12,13,13,14,14,16,16,18,18,19,19,21,21,24,24,28,28],"right_children":[2,4,6,8,10,12,14,16,18,20,22,-1,24,26,28,-1,30,-1,32,34,-1,36,-1,-1,38,-1,-1,-1,40,-1,-1,-1,-1,-1,-1,-1,-1,-1,-1,-1,-1],"split_conditions":[3.624609E1,7.597868E2,1.6790333E3,-9.5E0,3.595589E1,1.06076784E-1,-1.04083336E2,1.0509884E-1,4.9954547E2,5.9871297E0,3.3706453E4,-4.5898072E-2,-1.4222222E1,-5.0952777E2,1.5742245E-1,-3.5055097E-2,2.564939E2,-4.6387266E-2,3.5389328E1,4.9351253E-2,5.1502813E-2,1.1680545E0,-4.2905908E-2,4.140513E-2,1.0695077E3,-4.3073345E-2,-5.3590845E-2,-5.1333107E-2,3.6587517E1,4.6171222E-2,3.6871023E-2,-4.094076E-2,3.530724E-2,-1.921852E-2,-4.0953483E-2,5.881401E-3,-4.429281E-2,3.560068E-2,-1.0489005E-2,-4.523968E-2,2.3841068E-2],"split_indices":[3,6,6,0,3,5,0,4,6,4,6,0,0,0,5,0,6,0,3,5,0,5,0,0,6,0,0,0,3,0,0,0,0,0,0,0,0,0,0,0,0],"split_type":[0,0,0,0,0,0,0,0,0,0,0,0,0,0,0,0,0,0,0,0,0,0,0,0,0,0,0,0,0,0,0,0,0,0,0,0,0,0,0,0,0],"sum_hessian":[3.5331123E3,1.8853234E3,1.647789E3,2.739353E2,1.6113881E3,1.1575118E3,4.9027722E2,1.4516135E2,1.2877396E2,1.1863776E3,4.2501047E2,3.051716E0,1.1544601E3,8.481543E1,4.054618E2,3.90132E0,1.4126003E2,5.198541E1,7.678854E1,1.1675033E3,1.887424E1,3.149025E2,1.1010798E2,7.083281E2,4.4613193E2,5.184726E1,3.2968166E1,2.4780144E1,3.8068164E2,1.047082E2,3.655183E1,1.815753E1,5.8631016E1,1.4778445E2,1.0197189E3,2.5544624E2,5.9456253E1,4.1558414E2,3.054779E1,1.0677917E1,3.7000372E2],"tree_param":{"num_deleted":"0","num_feature":"7","num_nodes":"41","size_leaf_vector":"1"}},{"base_weights":[7.071078E-2,7.517256E-1,-1.0579243E0,-4.243869E-2,1.0240444E0,-1.2845639E0,-4.4615296E-1,1.0588031E0,-4.53816E-2,-3.698532E-1,-1.337952E0,4.2198262E-1,-1.1814739E0,9.916438E-2,1.1201001E0,4.723011E-2,-4.272844E-2,-1.1284219E0,-4.2030822E-2,8.5419685E-1,-4.3379024E-2,1.8753196E-1,-4.4259924E-2,2.8805487E-2,-5.2936565E-2,-4.2532045E-2,3.406131E-2,-4.251926E-2,4.6847153E-2,4.251811E-2,-4.2455766E-2,-4.0464282E-2,4.6666916E-2],"categories":[],"categories_nodes":[],"categories_segments":[],"categories_sizes":[],"default_left":[0,0,0,0,0,0,0,0,0,0,0,0,0,0,0,0,0,0,0,0,0,0,0,0,0,0,0,0,0,0,0,0,0],"id":19,"left_children":[1,3,5,-1,7,9,11,13,-1,15,17,19,21,23,25,-1,-1,27,-1,29,-1,31,-1,-1,-1,-1,-1,-1,-1,-1,-1,-1,-1],"loss_changes":[2.7703784E3,1.3275664E3,1.8749878E2,0E0,1.7772705E2,4.7814087E1,2.3554494E2,1.1583203E2,0E0,1.1691082E2,1.0766724E1,1.3815428E2,8.058005E1,1.933575E2,7.343652E1,0E0,0E0,1.7419916E2,0E0,1.7879585E2,0E0,7.81035E1,0E0,0E0,0E0,0E0,0E0,0E0,0E0,0E0,0E0,0E0,0E0],"parents":[2147483647,0,0,1,1,2,2,4,4,5,5,6,6,7,7,9,9,10,10,11,11,12,12,13,13,14,14,17,17,19,19,21,21],"right_children":[2,4,6,-1,8,10,12,14,-1,16,18,20,22,24,26,-1,-1,28,-1,30,-1,32,-1,-1,-1,-1,-1,-1,-1,-1,-1,-1,-1],"split_conditions":[2.191568E1,1.64387E1,3.6139423E1,-4.243869E-2,1.9990702E1,2.3524279E1,3.6160988E1,1.708826E1,-4.53816E-2,1.5173552E1,1.8231145E-1,1.1680545E0,1.6019197E-2,1.1546252E1,-4.8555554E2,4.723011E-2,-4.272844E-2,1.7951827E-1,-4.2030822E-2,9.522784E0,-4.3379024E-2,3.643997E1,-4.4259924E-2,2.8805487E-2,-5.2936565E-2,-4.2532045E-2,3.406131E-2,-4.251926E-2,4.6847153E-2,4.251811E-2,-4.2455766E-2,-4.0464282E-2,4.6666916E-2],"split_indices":[1,1,3,0,2,1,3,1,0,2,5,5,5,2,0,0,0,5,0,2,0,3,0,0,0,0,0,0,0,0,0,0,0],"split_type":[0,0,0,0,0,0,0,0,0,0,0,0,0,0,0,0,0,0,0,0,0,0,0,0,0,0,0,0,0,0,0,0,0],"sum_hessian":[3.602332E3,2.246896E3,1.3554359E3,2.5043582E2,1.9964602E3,9.8823145E2,3.672045E2,1.9700492E3,2.6410967E1,5.4935623E1,9.3329584E2,1.6858984E2,1.9861465E2,1.18439064E2,1.8516101E3,1.914407E1,3.5791553E1,2.2031657E2,7.1297925E2,1.3735156E2,3.123828E1,3.5162636E1,1.6345203E2,8.134383E1,3.7095238E1,1.0530107E1,1.84108E3,1.9937788E2,2.0938688E1,1.1034789E2,2.7003675E1,1.6569092E1,1.8593542E1],"tree_param":{"num_deleted":"0","num_feature":"7","num_nodes":"33","size_leaf_vector":"1"}},{"base_weights":[6.2466636E-2,8.841626E-1,-7.543935E-1,-1.0359453E0,1.0262487E0,-3.726517E-1,-4.1439284E-2,3.7844665E-2,-4.3005407E-2,-4.1280378E-2,1.1496727E0,-4.198997E-2,-6.848981E-2,1.2042354E0,-5.430428E-1,1.5733404E-1,-1.1004046E0,3.645049E-2,-3.713737E-2,4.0019568E-2,-4.6618965E-2,8.287021E-3,-4.2902045E-2,-4.353602E-2,-6.3308836E-3],"categories":[],"categories_nodes":[],"categories_segments":[],"categories_sizes":[],"default_left":[0,0,0,0,0,0,0,0,0,0,0,0,0,0,0,0,0,0,0,0,0,0,0,0,0],"id":20,"left_children":[1,3,5,7,9,11,-1,-1,-1,-1,13,-1,15,17,19,21,23,-1,-1,-1,-1,-1,-1,-1,-1],"loss_changes":[2.3692654E3,4.811388E2,4.231222E2,1.1300412E2,4.8752136E2,3.440176E2,0E0,0E0,0E0,0E0,1.4467749E2,0E0,1.9846826E2,4.1286865E1,9.578182E1,1.323314E2,4.739975E1,0E0,0E0,0E0,0E0,0E0,0E0,0E0,0E0],"parents":[2147483647,0,0,1,1,2,2,3,3,4,4,5,5,10,10,12,12,13,13,14,14,15,15,16,16],"right_children":[2,4,6,8,10,12,-1,-1,-1,-1,14,-1,16,18,20,22,24,-1,-1,-1,-1,-1,-1,-1,-1],"split_conditions":[2.389484E3,1.13762766E-1,3.3706453E4,-2.1972221E1,6.488854E0,7.416774E0,-4.1439284E-2,3.7844665E-2,-4.3005407E-2,-4.1280378E-2,7.827645E-1,-4.198997E-2,-1E1,1.9990702E1,1.16195954E-1,1.952147E1,1.69371E-1,3.645049E-2,-3.713737E-2,4.0019568E-2,-4.6618965E-2,8.287021E-3,-4.2902045E-2,-4.353602E-2,-6.3308836E-3],"split_indices":[6,5,6,0,2,2,0,0,0,0,4,0,0,2,5,2,5,0,0,0,0,0,0,0,0],"split_type":[0,0,0,0,0,0,0,0,0,0,0,0,0,0,0,0,0,0,0,0,0,0,0,0,0],"sum_hessian":[3.5278447E3,1.7586755E3,1.7691692E3,1.2074003E2,1.6379354E3,1.1005913E3,6.685779E2,1.7491074E1,1.0324896E2,7.9546005E1,1.5583894E3,2.5065239E2,8.499389E2,1.5100049E3,4.8384624E1,6.9802985E2,1.5190907E2,1.5038684E3,6.1363645E0,1.6825096E1,3.1559528E1,6.501576E2,4.7872276E1,1.0848689E2,4.3422173E1],"tree_param":{"num_deleted":"0","num_feature":"7","num_nodes":"25","size_leaf_vector":"1"}},{"base_weights":[6.5609314E-3,-7.822053E-1,8.9773864E-1,-1.2829294E0,-5.081583E-1,1.0135782E0,-4.9995622E-1,-4.1192316E-2,-8.756031E-1,-4.120488E-2,-1.5583955E-1,-5.2012593E-2,1.0636315E0,-8.6597306E-1,1.0763441E0,4.759534E-2,-4.1332673E-2,5.2253354E-1,-6.3001186E-1,-5.4305483E-2,1.0805118E0,7.4610597E-1,-4.3746043E-2,4.7375567E-2,-3.5897065E-2,-4.1089326E-2,2.0318283E-2,-4.2636033E-2,2.7477148E-3,3.2788627E-2,-5.600388E-2,-3.6561664E-2,4.656269E-2],"categories":[],"categories_nodes":[],"categories_segments":[],"categories_sizes":[],"default_left":[0,0,0,0,0,0,0,0,0,0,0,0,0,0,0,0,0,0,0,0,0,0,0,0,0,0,0,0,0,0,0,0,0],"id":21,"left_children":[1,3,5,7,9,11,13,-1,15,-1,17,-1,19,21,23,-1,-1,25,27,-1,29,31,-1,-1,-1,-1,-1,-1,-1,-1,-1,-1,-1],"loss_changes":[2.3350928E3,2.4116443E2,2.5303687E2,2.1661743E1,3.4751395E2,1.9995508E2,7.01914E1,0E0,1.4510168E2,0E0,2.614178E2,0E0,7.062317E1,9.462766E1,2.825348E1,0E0,0E0,9.886386E1,2.7314352E2,0E0,5.3669556E1,4.4624985E1,0E0,0E0,0E0,0E0,0E0,0E0,0E0,0E0,0E0,0E0,0E0],"parents":[2147483647,0,0,1,1,2,2,3,3,4,4,5,5,6,6,8,8,10,10,12,12,13,13,14,14,17,17,18,18,20,20,21,21],"right_children":[2,4,6,8,10,12,14,-1,16,-1,18,-1,20,22,24,-1,-1,26,28,-1,30,32,-1,-1,-1,-1,-1,-1,-1,-1,-1,-1,-1],"split_conditions":[3.624609E1,3.3710087E1,2.191568E1,-1.0138889E1,7.416774E0,1.6937439E1,1.38657675E1,-4.1192316E-2,-1E1,-4.120488E-2,9.680043E0,-5.2012593E-2,1.06076784E-1,1.6019197E-2,-2.1891667E2,4.759534E-2,-4.1332673E-2,1.64387E1,1.3260305E1,-5.4305483E-2,3.928416E1,-7.885833E2,-4.3746043E-2,4.7375567E-2,-3.5897065E-2,-4.1089326E-2,2.0318283E-2,-4.2636033E-2,2.7477148E-3,3.2788627E-2,-5.600388E-2,-3.6561664E-2,4.656269E-2],"split_indices":[3,3,1,0,2,1,2,0,0,0,2,0,5,5,0,0,0,1,2,0,3,0,0,0,0,0,0,0,0,0,0,0,0],"split_type":[0,0,0,0,0,0,0,0,0,0,0,0,0,0,0,0,0,0,0,0,0,0,0,0,0,0,0,0,0,0,0,0,0],"sum_hessian":[3.319939E3,1.7612281E3,1.5587108E3,6.216679E2,1.1395603E3,1.4396675E3,1.1904337E2,5.070736E2,1.1459432E2,3.2888364E2,8.1067664E2,2.5157993E1,1.4145095E3,9.697615E1,2.2067225E1,1.904669E1,9.554763E1,3.3348105E2,4.771956E2,7.639649E0,1.4068699E3,2.598465E1,7.09915E1,1.8319563E1,3.747662E0,2.4616894E1,3.0886417E2,2.2716008E2,2.5003549E2,1.401582E3,5.2878313E0,7.409549E0,1.85751E1],"tree_param":{"num_deleted":"0","num_feature":"7","num_nodes":"33","size_leaf_vector":"1"}},{"base_weights":[3.8472358E-3,-7.653812E-1,8.798672E-1,2.1038449E-1,-1.0345397E0,1.0474987E0,-7.5674146E-1,7.925484E-1,-9.9298626E-1,-1.1761231E0,-3.992755E-1,-5.3244285E-2,1.0816857E0,-1.0875276E0,1.1131922E0,-4.0175524E-2,1.2306768E0,6.7041796E-1,-4.22711E-2,-4.075948E-2,-8.1183416E-1,3.6134958E-1,-9.567705E-1,-5.142977E-2,1.1127712E0,-1.5769536E0,9.715993E-1,4.6686687E-2,-3.7797935E-2,-3.5301752E-2,3.825941E-2,-3.6470205E-2,4.4098843E-2,3.3497438E-2,-2.83802E-2,3.815873E-2,-1.1733111E-2,-4.2989783E-2,-9.787041E-3,3.8295224E-2,2.152218E-2,-4.0901303E-2,-5.2192084E-2,-4.179498E-2,4.1858803E-2],"categories":[],"categories_nodes":[],"categories_segments":[],"categories_sizes":[],"default_left":[0,0,0,0,0,0,0,0,0,0,0,0,0,0,0,0,0,0,0,0,0,0,0,0,0,0,0,0,0,0,0,0,0,0,0,0,0,0,0,0,0,0,0,0,0],"id":22,"left_children":[1,3,5,7,9,11,13,15,17,19,21,-1,23,25,27,-1,29,31,-1,-1,33,35,37,-1,39,41,43,-1,-1,-1,-1,-1,-1,-1,-1,-1,-1,-1,-1,-1,-1,-1,-1,-1,-1],"loss_changes":[2.2344182E3,4.63912E2,4.2611572E2,2.687856E2,1.24010864E2,1.3764612E2,9.066475E1,2.4296564E2,8.757129E1,7.411572E1,1.0794798E2,0E0,1.2276099E2,1.2588121E2,2.5334356E1,0E0,2.4588104E1,4.0575523E1,0E0,0E0,9.940137E1,7.453197E1,4.3583664E1,0E0,8.814722E1,1.1072845E0,2.630523E1,0E0,0E0,0E0,0E0,0E0,0E0,0E0,0E0,0E0,0E0,0E0,0E0,0E0,0E0,0E0,0E0,0E0,0E0],"parents":[2147483647,0,0,1,1,2,2,3,3,4,4,5,5,6,6,7,7,8,8,9,9,10,10,12,12,13,13,14,14,16,16,17,17,20,20,21,21,22,22,24,24,25,25,26,26],"right_children":[2,4,6,8,10,12,14,16,18,20,22,-1,24,26,28,-1,30,32,-1,-1,34,36,38,-1,40,42,44,-1,-1,-1,-1,-1,-1,-1,-1,-1,-1,-1,-1,-1,-1,-1,-1,-1,-1],"split_conditions":[3.624609E1,1.513659E3,6.533741E3,1.9801632E1,3.6124542E1,1.6937439E1,-1.4138889E1,1.64387E1,-5.025E1,-2.95E1,3.6145683E1,-5.3244285E-2,1.3021083E-1,3.8921925E1,-1.0611111E1,-4.0175524E-2,3.4025734E1,-5.5194443E1,-4.22711E-2,-4.075948E-2,-2.8972221E1,7.406603E3,1.1687945E4,-5.142977E-2,1.0695077E3,-4.8555554E2,2.0965876E1,4.6686687E-2,-3.7797935E-2,-3.5301752E-2,3.825941E-2,-3.6470205E-2,4.4098843E-2,3.3497438E-2,-2.83802E-2,3.815873E-2,-1.1733111E-2,-4.2989783E-2,-9.787041E-3,3.8295224E-2,2.152218E-2,-4.0901303E-2,-5.2192084E-2,-4.179498E-2,4.1858803E-2],"split_indices":[3,6,6,1,3,1,0,1,0,0,3,0,5,3,0,0,3,0,0,0,0,6,6,0,6,0,1,0,0,0,0,0,0,0,0,0,0,0,0,0,0,0,0,0,0],"split_type":[0,0,0,0,0,0,0,0,0,0,0,0,0,0,0,0,0,0,0,0,0,0,0,0,0,0,0,0,0,0,0,0,0,0,0,0,0,0,0,0,0,0,0,0,0],"sum_hessian":[3.3138525E3,1.764543E3,1.5493096E3,3.8154968E2,1.3829933E3,1.4056901E3,1.4361946E2,2.5737756E2,1.2417213E2,1.1302411E3,2.5275218E2,1.6214182E1,1.389476E3,1.2238781E2,2.1231659E1,4.3528954E1,2.138486E2,2.472163E1,9.94505E1,7.5114966E2,3.7909146E2,1.0704959E2,1.4570259E2,1.4682626E1,1.3747933E3,9.9073555E1,2.331425E1,1.8181622E1,3.0500379E0,3.4312067E0,2.104174E2,7.204958E0,1.7516672E1,2.4183828E1,3.5490762E2,4.8122284E1,5.8927303E1,8.2283775E1,6.3418816E1,9.706006E2,4.041927E2,4.690625E1,5.216731E1,3.194825E0,2.0119425E1],"tree_param":{"num_deleted":"0","num_feature":"7","num_nodes":"45","size_leaf_vector":"1"}},{"base_weights":[5.7233218E-2,6.833943E-1,-9.2330176E-1,-1.1159182E0,1.0121608E0,-1.2132783E0,-3.2809156E-1,-1.4169472E0,-1.0172605E-2,1.1939569E0,4.2224413E-1,-2.7917942E-1,-1.2706704E0,-6.156223E-3,-4.262559E-2,-4.080072E-2,-5.0906397E-2,1.2556435E0,-4.05187E-2,-4.126786E-2,1.2189927E0,-5.2382924E-2,6.986946E-1,4.6958424E-2,-4.1105974E-2,-1.0016673E0,-4.0201526E-2,-4.1019198E-2,5.6199276E-1,-2.301372E-2,4.0438723E-2,-3.3674903E-2,3.6707684E-2,2.320139E-2,-6.493472E-2,-4.0372845E-2,4.6340197E-2,1.5355165E-3,4.4942282E-2],"categories":[],"categories_nodes":[],"categories_segments":[],"categories_sizes":[],"default_left":[0,0,0,0,0,0,0,0,0,0,0,0,0,0,0,0,0,0,0,0,0,0,0,0,0,0,0,0,0,0,0,0,0,0,0,0,0,0,0],"id":23,"left_children":[1,3,5,7,9,11,13,15,17,19,21,23,25,27,-1,-1,-1,29,-1,-1,31,-1,33,-1,-1,35,-1,-1,37,-1,-1,-1,-1,-1,-1,-1,-1,-1,-1],"loss_changes":[2.078921E3,1.2234954E3,2.2736462E2,1.0640405E2,1.8692249E2,4.719507E1,1.5255315E2,1.6963501E0,1.1948528E2,8.758508E1,2.4893887E2,1.0803997E2,1.4248047E1,2.6059442E2,0E0,0E0,0E0,7.7978134E0,0E0,0E0,1.561377E1,0E0,8.0202774E1,0E0,0E0,1.5561493E2,0E0,0E0,1.1360493E2,0E0,0E0,0E0,0E0,0E0,0E0,0E0,0E0,0E0,0E0],"parents":[2147483647,0,0,1,1,2,2,3,3,4,4,5,5,6,6,7,7,8,8,9,9,10,10,11,11,12,12,13,13,17,17,20,20,22,22,25,25,28,28],"right_children":[2,4,6,8,10,12,14,16,18,20,22,24,26,28,-1,-1,-1,30,-1,-1,32,-1,34,-1,-1,36,-1,-1,38,-1,-1,-1,-1,-1,-1,-1,-1,-1,-1],"split_conditions":[2.191568E1,1.6937439E1,3.6124542E1,6.4272875E-1,2.389484E3,2.3524279E1,-9.5E0,1.64387E1,7.597868E2,8.359257E-2,-7.897222E1,-2.2583334E1,5.170314E3,-2.3469444E2,-4.262559E-2,-4.080072E-2,-5.0906397E-2,1.6279951E1,-4.05187E-2,-4.126786E-2,3.3313713E1,-5.2382924E-2,1.4391733E0,4.6958424E-2,-4.1105974E-2,5.07299E3,-4.0201526E-2,-4.1019198E-2,-1.3611111E1,-2.301372E-2,4.0438723E-2,-3.3674903E-2,3.6707684E-2,2.320139E-2,-6.493472E-2,-4.0372845E-2,4.6340197E-2,1.5355165E-3,4.4942282E-2],"split_indices":[1,1,3,5,6,1,0,1,6,5,0,0,6,0,0,0,0,1,0,0,3,0,5,0,0,6,0,0,0,0,0,0,0,0,0,0,0,0,0],"split_type":[0,0,0,0,0,0,0,0,0,0,0,0,0,0,0,0,0,0,0,0,0,0,0,0,0,0,0,0,0,0,0,0,0,0,0,0,0,0,0],"sum_hessian":[3.3839866E3,2.0653655E3,1.3186213E3,3.1870795E2,1.7466575E3,8.859586E2,4.326627E2,2.5028793E2,6.842001E1,1.3344062E3,4.1225122E2,5.162286E1,8.3433575E2,3.3498065E2,9.768205E1,2.1286179E2,3.7426155E1,3.5222206E1,3.319781E1,1.23555155E1,1.3220507E3,4.6015114E1,3.662361E2,1.9024931E1,3.259793E1,1.7423335E2,6.601024E2,9.823242E1,2.3674821E2,1.2182469E0,3.400396E1,2.1138597E0,1.3199369E3,3.5763718E2,8.598944E0,1.5390695E2,2.0326395E1,1.5384929E2,8.289893E1],"tree_param":{"num_deleted":"0","num_feature":"7","num_nodes":"39","size_leaf_vector":"1"}},{"base_weights":[1.1177386E-2,6.678477E-1,-1.0703448E0,-1.2513589E0,1.0011269E0,-1.1522774E0,3.025221E-1,2.0436856E-1,-1.4087666E0,1.152224E0,2.8426605E-1,-9.9606496E-1,-3.9747827E-2,1.3689454E0,-4.0406983E-2,3.7113443E-2,-3.9041784E-2,-4.0255632E-2,-5.082264E-2,1.1765113E0,-4.2554356E-2,-5.1442128E-2,6.7822117E-1,-1.0711093E0,8.800869E-1,-3.4048922E-2,5.0246544E-2,3.7888125E-2,2.8437946E-2,2.8229862E-2,-4.555895E-2,-4.0252175E-2,-2.2075899E-2,-3.4119442E-2,4.5036554E-2],"categories":[],"categories_nodes":[],"categories_segments":[],"categories_sizes":[],"default_left":[0,0,0,0,0,0,0,0,0,0,0,0,0,0,0,0,0,0,0,0,0,0,0,0,0,0,0,0,0,0,0,0,0,0,0],"id":24,"left_children":[1,3,5,7,9,11,13,15,17,19,21,23,-1,25,-1,-1,-1,-1,-1,27,-1,-1,29,31,33,-1,-1,-1,-1,-1,-1,-1,-1,-1,-1],"loss_changes":[2.298627E3,1.2893567E3,1.3788599E2,6.8666565E1,1.8558643E2,2.9806396E1,1.2436688E2,4.824939E1,2.8704224E0,9.015759E1,2.3751761E2,8.6815735E1,0E0,3.4687737E1,0E0,0E0,0E0,0E0,0E0,2.6550415E1,0E0,0E0,1.4657516E2,5.2261658E1,3.1789577E1,0E0,0E0,0E0,0E0,0E0,0E0,0E0,0E0,0E0,0E0],"parents":[2147483647,0,0,1,1,2,2,3,3,4,4,5,5,6,6,7,7,8,8,9,9,10,10,11,11,13,13,19,19,22,22,23,23,24,24],"right_children":[2,4,6,8,10,12,14,16,18,20,22,24,-1,26,-1,-1,-1,-1,-1,28,-1,-1,30,32,34,-1,-1,-1,-1,-1,-1,-1,-1,-1,-1],"split_conditions":[2.191568E1,1.708826E1,5.0826705E-1,7.839614E0,3.4212434E3,3.93807E4,-2.2583334E1,7.597868E2,1.64387E1,1.9990702E1,-6.7833336E1,3.8673535E4,-3.9747827E-2,-2.95E1,-4.0406983E-2,3.7113443E-2,-3.9041784E-2,-4.0255632E-2,-5.082264E-2,1.0695077E3,-4.2554356E-2,-5.1442128E-2,1.8929024E1,8.297172E0,-8.2916664E1,-3.4048922E-2,5.0246544E-2,3.7888125E-2,2.8437946E-2,2.8229862E-2,-4.555895E-2,-4.0252175E-2,-2.2075899E-2,-3.4119442E-2,4.5036554E-2],"split_indices":[1,1,4,2,6,6,0,6,1,2,0,6,0,0,0,0,0,0,0,6,0,0,2,2,0,0,0,0,0,0,0,0,0,0,0],"split_type":[0,0,0,0,0,0,0,0,0,0,0,0,0,0,0,0,0,0,0,0,0,0,0,0,0,0,0,0,0,0,0,0,0,0,0],"sum_hessian":[3.2345684E3,2.0128215E3,1.221747E3,2.9741074E2,1.7154108E3,1.1530913E3,6.865568E1,2.8991854E1,2.6841888E2,1.4162847E3,2.9912613E2,6.0891724E2,5.441741E2,4.1800114E1,2.685556E1,1.7302866E1,1.1688987E1,2.2204825E2,4.637062E1,1.4035665E3,1.2718157E1,4.8693478E1,2.5043265E2,5.8591046E2,2.3006779E1,4.2562E0,3.7543915E1,1.01519464E3,3.8837186E2,2.2418828E2,2.6244383E1,3.2253735E2,2.6337308E2,5.220345E0,1.7786434E1],"tree_param":{"num_deleted":"0","num_feature":"7","num_nodes":"35","size_leaf_vector":"1"}},{"base_weights":[3.2842588E-2,6.809528E-1,-1.0816026E0,-9.594283E-1,9.9591786E-1,-3.9957576E-2,-8.588653E-1,6.360052E-1,-1.3863449E0,1.0371485E0,-4.443459E-2,-3.965838E-2,-3.441765E-1,1.3081099E0,-4.2072862E-2,-3.9827622E-2,-4.988245E-2,1.2158847E0,5.855282E-1,6.0720825E-1,-7.773076E-1,-2.6206793E-2,4.181015E-2,-5.0373305E-2,3.6808033E-2,-5.4332998E-2,1.9562528E-2,4.5045607E-2,-4.0619094E-2,3.2314736E-2,-3.1007515E-2],"categories":[],"categories_nodes":[],"categories_segments":[],"categories_sizes":[],"default_left":[0,0,0,0,0,0,0,0,0,0,0,0,0,0,0,0,0,0,0,0,0,0,0,0,0,0,0,0,0,0,0],"id":25,"left_children":[1,3,5,7,9,-1,11,13,15,17,-1,-1,19,21,-1,-1,-1,23,25,27,29,-1,-1,-1,-1,-1,-1,-1,-1,-1,-1],"loss_changes":[2.3353591E3,1.0571958E3,6.5144775E1,2.2552182E2,1.767461E2,0E0,1.5016278E2,9.815994E1,2.023346E0,1.355481E2,0E0,0E0,1.2435965E2,1.1184059E1,0E0,0E0,0E0,4.071826E1,7.7836685E1,1.6797821E2,9.9505104E1,0E0,0E0,0E0,0E0,0E0,0E0,0E0,0E0,0E0,0E0],"parents":[2147483647,0,0,1,1,2,2,3,3,4,4,6,6,7,7,8,8,9,9,12,12,13,13,17,17,18,18,19,19,20,20],"right_children":[2,4,6,8,10,-1,12,14,16,18,-1,-1,20,22,-1,-1,-1,24,26,28,30,-1,-1,-1,-1,-1,-1,-1,-1,-1,-1],"split_conditions":[2.191568E1,1.708826E1,2.591688E1,8.050262E0,1.952147E1,-3.9957576E-2,7.416774E0,7.597868E2,1.662796E1,1.6790333E3,-4.443459E-2,-3.965838E-2,8.390912E0,1.64387E1,-4.2072862E-2,-3.9827622E-2,-4.988245E-2,1.3021083E-1,8.196242E0,7.406603E3,2.5998392E1,-2.6206793E-2,4.181015E-2,-5.0373305E-2,3.6808033E-2,-5.4332998E-2,1.9562528E-2,4.5045607E-2,-4.0619094E-2,3.2314736E-2,-3.1007515E-2],"split_indices":[1,1,1,2,2,0,2,6,1,6,0,0,2,1,0,0,0,5,2,6,1,0,0,0,0,0,0,0,0,0,0],"split_type":[0,0,0,0,0,0,0,0,0,0,0,0,0,0,0,0,0,0,0,0,0,0,0,0,0,0,0,0,0,0,0],"sum_hessian":[3.2312817E3,2.0433513E3,1.1879304E3,3.2881128E2,1.71454E3,5.569919E2,6.309385E2,6.9308426E1,2.5950287E2,1.6870406E3,2.7499296E1,3.3129456E2,2.9964392E2,5.2392162E1,1.6916265E1,2.1879488E2,4.070798E1,1.2074714E3,4.795693E2,9.361469E1,2.0602922E2,1.6296415E0,5.076252E1,4.0172186E0,1.2034541E3,1.2249882E1,4.6731943E2,6.445644E1,2.9158247E1,2.4626183E1,1.8140303E2],"tree_param":{"num_deleted":"0","num_feature":"7","num_nodes":"31","size_leaf_vector":"1"}},{"base_weights":[4.2725246E-2,6.701132E-1,-1.036487E0,-3.949739E-2,9.2304015E-1,-1.2386395E0,-5.7883304E-1,9.558589E-1,-4.2170495E-2,-3.918644E-2,2.0778157E-2,3.397897E-1,-9.696828E-1,1.4674772E-1,1.009592E0,-3.9156303E-2,4.806822E-2,-4.1344304E-2,1.109949E0,-4.2133495E-2,-4.923928E-1,2.8522057E-2,-4.8388265E-2,3.0589094E-2,-5.833519E-2,4.8890974E-2,-3.9852817E-2,3.480995E-2,-4.1255824E-2],"categories":[],"categories_nodes":[],"categories_segments":[],"categories_sizes":[],"default_left":[0,0,0,0,0,0,0,0,0,0,0,0,0,0,0,0,0,0,0,0,0,0,0,0,0,0,0,0,0],"id":26,"left_children":[1,3,5,-1,7,9,11,13,-1,-1,15,17,19,21,23,-1,-1,-1,25,-1,27,-1,-1,-1,-1,-1,-1,-1,-1],"loss_changes":[2.1693123E3,1.01927014E3,1.0825281E2,0E0,1.3874231E2,6.948157E1,1.3057181E2,7.695337E1,0E0,0E0,9.130599E1,1.4576299E2,5.2168488E1,1.5943434E2,5.1322266E1,0E0,0E0,0E0,9.825932E1,0E0,1.8101097E2,0E0,0E0,0E0,0E0,0E0,0E0,0E0,0E0],"parents":[2147483647,0,0,1,1,2,2,4,4,5,5,6,6,7,7,10,10,11,11,12,12,13,13,14,14,18,18,20,20],"right_children":[2,4,6,-1,8,10,12,14,-1,-1,16,18,20,22,24,-1,-1,-1,26,-1,28,-1,-1,-1,-1,-1,-1,-1,-1],"split_conditions":[2.191568E1,1.64387E1,3.6124542E1,-3.949739E-2,1.9990702E1,5.531123E-1,3.6145683E1,1.708826E1,-4.2170495E-2,-3.918644E-2,2.5846075E1,1.5280151E-1,-1.0916667E1,1.1546252E1,3.928416E1,-3.9156303E-2,4.806822E-2,-4.1344304E-2,-1.2722222E1,-4.2133495E-2,-9.5E0,2.8522057E-2,-4.8388265E-2,3.0589094E-2,-5.833519E-2,4.8890974E-2,-3.9852817E-2,3.480995E-2,-4.1255824E-2],"split_indices":[1,1,3,0,2,4,3,1,0,0,1,4,0,2,3,0,0,0,0,0,0,0,0,0,0,0,0,0,0],"split_type":[0,0,0,0,0,0,0,0,0,0,0,0,0,0,0,0,0,0,0,0,0,0,0,0,0,0,0,0,0],"sum_hessian":[3.201875E3,2.0250272E3,1.1768478E3,2.2821745E2,1.7968097E3,8.150997E2,3.617481E2,1.7724205E3,2.438919E1,7.7355664E2,4.1543045E1,1.0801312E2,2.5373499E2,1.1060895E2,1.6618115E3,2.2691935E1,1.885111E1,3.3189816E1,7.48233E1,1.317659E2,1.21969086E2,7.623674E1,3.437221E1,1.6568329E3,4.978689E0,6.195004E1,1.2873266E1,4.2356873E1,7.961221E1],"tree_param":{"num_deleted":"0","num_feature":"7","num_nodes":"29","size_leaf_vector":"1"}},{"base_weights":[-2.540304E-2,-6.638899E-1,8.921679E-1,-1.0079749E0,-1.922342E-1,9.1779506E-1,-4.943627E-2,-1.0560939E0,4.6971418E-2,-3.9562672E-2,8.2897566E-2,9.354818E-1,-7.169034E-2,-7.2666174E-1,-3.8883664E-2,-8.310768E-1,4.989859E-1,9.549352E-1,-5.1802583E-2,-3.943709E-2,-4.3327543E-3,-4.0802386E-2,1.4490113E-3,6.8439483E-3,3.8208526E-2,-5.33163E-2,2.9022107E-2],"categories":[],"categories_nodes":[],"categories_segments":[],"categories_sizes":[],"default_left":[0,0,0,0,0,0,0,0,0,0,0,0,0,0,0,0,0,0,0,0,0,0,0,0,0,0,0],"id":27,"left_children":[1,3,5,7,9,11,-1,13,-1,-1,15,17,-1,19,-1,21,23,25,-1,-1,-1,-1,-1,-1,-1,-1,-1],"loss_changes":[1.7640851E3,2.8796173E2,8.193909E1,1.2876477E2,2.3262167E2,7.382837E1,0E0,7.87749E1,0E0,0E0,2.3006203E2,6.473132E1,0E0,1.4604456E2,0E0,8.811987E1,8.690376E1,4.293396E1,0E0,0E0,0E0,0E0,0E0,0E0,0E0,0E0,0E0],"parents":[2147483647,0,0,1,1,2,2,3,3,4,4,5,5,7,7,10,10,11,11,13,13,15,15,16,16,17,17],"right_children":[2,4,6,8,10,12,-1,14,-1,-1,16,18,-1,20,-1,22,24,26,-1,-1,-1,-1,-1,-1,-1,-1,-1],"split_conditions":[3.6587517E1,3.5728016E1,7.61393E-1,5.9871297E0,-1.4527777E2,1.6099014E1,-4.943627E-2,1.8231145E-1,4.6971418E-2,-3.9562672E-2,2.5887382E-1,3.928416E1,-7.169034E-2,3.3710087E1,-3.8883664E-2,1.5091191E1,1.3260305E1,1.3021083E-1,-5.1802583E-2,-3.943709E-2,-4.3327543E-3,-4.0802386E-2,1.4490113E-3,6.8439483E-3,3.8208526E-2,-5.33163E-2,2.9022107E-2],"split_indices":[3,3,4,4,0,2,0,5,0,0,5,3,0,3,0,2,2,5,0,0,0,0,0,0,0,0,0],"split_type":[0,0,0,0,0,0,0,0,0,0,0,0,0,0,0,0,0,0,0,0,0,0,0,0,0,0,0],"sum_hessian":[3.0091082E3,1.7745637E3,1.2345443E3,1.0253833E3,7.491805E2,1.2228453E3,1.1698924E1,1.0071428E3,1.824045E1,1.4631274E2,6.0286774E2,1.2170543E3,5.7910337E0,4.2620938E2,5.809335E2,1.882853E2,4.1458246E2,1.2088623E3,8.192072E0,2.11446E2,2.1476337E2,1.17221985E2,7.106331E1,3.0813562E2,1.06446846E2,4.848714E0,1.2040135E3],"tree_param":{"num_deleted":"0","num_feature":"7","num_nodes":"27","size_leaf_vector":"1"}},{"base_weights":[4.7633987E-2,-6.568846E-1,8.1880355E-1,-1.2544665E-1,-9.649491E-1,9.224805E-1,-4.2919758E-1,-3.878902E-2,5.5043644E-1,-1.2107465E0,-2.9054907E-1,-4.591347E-2,9.645118E-1,-8.044213E-1,1.1579376E0,8.5852176E-1,-3.6005652E-1,-3.850703E-2,1.4378783E0,1.3739985E-1,-4.0306594E-2,-5.2416053E-2,9.806446E-1,-4.0878996E-2,8.574462E-1,4.7142625E-2,-3.25437E-2,-3.8064018E-2,2.893157E-2,-4.2776592E-2,2.5438868E-2,4.8298676E-2,-2.2743529E-2,1.4567205E-2,-3.981335E-2,2.9781776E-2,-5.2428E-2,4.5047164E-2,-3.5980213E-2],"categories":[],"categories_nodes":[],"categories_segments":[],"categories_sizes":[],"default_left":[0,0,0,0,0,0,0,0,0,0,0,0,0,0,0,0,0,0,0,0,0,0,0,0,0,0,0,0,0,0,0,0,0,0,0,0,0,0,0],"id":28,"left_children":[1,3,5,7,9,11,13,-1,15,17,19,-1,21,23,25,27,29,-1,31,33,-1,-1,35,-1,37,-1,-1,-1,-1,-1,-1,-1,-1,-1,-1,-1,-1,-1,-1],"loss_changes":[1.6918772E3,2.6631073E2,1.9275543E2,4.728646E2,1.7039563E2,1.430282E2,6.924726E1,0E0,1.0680706E2,1.4738892E2,1.2476496E2,0E0,6.0791992E1,8.778499E1,2.2425373E1,6.517508E1,1.2570322E2,0E0,9.028824E0,1.01338684E2,0E0,0E0,4.600415E1,0E0,3.3716614E1,0E0,0E0,0E0,0E0,0E0,0E0,0E0,0E0,0E0,0E0,0E0,0E0,0E0,0E0],"parents":[2147483647,0,0,1,1,2,2,3,3,4,4,5,5,6,6,8,8,9,9,10,10,12,12,13,13,14,14,15,15,16,16,18,18,19,19,22,22,24,24],"right_children":[2,4,6,8,10,12,14,-1,16,18,20,-1,22,24,26,28,30,-1,32,34,-1,-1,36,-1,38,-1,-1,-1,-1,-1,-1,-1,-1,-1,-1,-1,-1,-1,-1],"split_conditions":[3.624609E1,2.3524279E1,2.191568E1,1.64387E1,3.6124542E1,1.6937439E1,1.38657675E1,-3.878902E-2,1.8929024E1,5.4447913E-1,3.6160988E1,-4.591347E-2,1.0909036E-1,2.8819683E-1,1.4166924E1,3.3710087E1,7.3764905E-2,-3.850703E-2,5.6378615E-1,1.1680545E0,-4.0306594E-2,-5.2416053E-2,3.928416E1,-4.0878996E-2,7.312708E0,4.7142625E-2,-3.25437E-2,-3.8064018E-2,2.893157E-2,-4.2776592E-2,2.5438868E-2,4.8298676E-2,-2.2743529E-2,1.4567205E-2,-3.981335E-2,2.9781776E-2,-5.2428E-2,4.5047164E-2,-3.5980213E-2],"split_indices":[3,1,1,1,3,1,2,0,2,4,3,0,5,4,2,3,5,0,4,5,0,0,3,0,2,0,0,0,0,0,0,0,0,0,0,0,0,0,0],"split_type":[0,0,0,0,0,0,0,0,0,0,0,0,0,0,0,0,0,0,0,0,0,0,0,0,0,0,0,0,0,0,0,0,0,0,0,0,0,0,0],"sum_hessian":[3.1120664E3,1.6263904E3,1.4856759E3,5.973379E2,1.0290525E3,1.3719618E3,1.1371411E2,2.186789E2,3.78659E2,7.535956E2,2.7545697E2,2.2516151E1,1.3494457E3,9.236964E1,2.1344475E1,2.8296774E2,9.569128E1,7.3393225E2,1.9663305E1,1.964768E2,7.8980156E1,7.346171E0,1.3420995E3,6.9279205E1,2.3090435E1,1.8274584E1,3.0698903E0,1.2893301E1,2.7007443E2,5.0741722E1,4.494956E1,1.8481934E1,1.1813725E0,1.5927834E2,3.7198467E1,1.3368159E3,5.2835693E0,1.778929E1,5.3011465E0],"tree_param":{"num_deleted":"0","num_feature":"7","num_nodes":"39","size_leaf_vector":"1"}},{"base_weights":[4.5437466E-2,6.022442E-1,-1.0592359E0,-1.0499494E0,8.8051045E-1,-3.8377192E-2,-4.5192093E-1,2.5157109E-2,-1.3309275E0,1.1315407E0,3.6379412E-1,3.5207152E-1,-3.997813E-2,8.434777E-1,-4.123564E-2,-3.8444504E-2,-4.5756675E-2,1.2111193E0,1.4254886E-1,-4.875744E-2,4.791328E-1,7.595048E-1,-3.941861E-2,-3.9077967E-2,3.6719076E-2,3.6537968E-2,-4.8471466E-2,2.7511165E-2,-6.0696222E-2,-7.3129624E-2,1.6014846E-2,3.2554172E-2,-3.706648E-2],"categories":[],"categories_nodes":[],"categories_segments":[],"categories_sizes":[],"default_left":[0,0,0,0,0,0,0,0,0,0,0,0,0,0,0,0,0,0,0,0,0,0,0,0,0,0,0,0,0,0,0,0,0],"id":29,"left_children":[1,3,5,7,9,-1,11,13,15,17,19,21,-1,23,-1,-1,-1,25,27,-1,29,31,-1,-1,-1,-1,-1,-1,-1,-1,-1,-1,-1],"loss_changes":[1.8874111E3,9.388694E2,1.3682227E2,8.900534E1,2.2614111E2,0E0,1.9519417E2,7.218174E1,2.8878784E-1,9.230554E1,1.3213101E2,9.9121765E1,0E0,3.4052544E1,0E0,0E0,0E0,2.2910156E1,1.5053719E2,0E0,8.776094E1,7.721079E1,0E0,0E0,0E0,0E0,0E0,0E0,0E0,0E0,0E0,0E0,0E0],"parents":[2147483647,0,0,1,1,2,2,3,3,4,4,6,6,7,7,8,8,9,9,10,10,11,11,13,13,17,17,18,18,20,20,21,21],"right_children":[2,4,6,8,10,-1,12,14,16,18,20,22,-1,24,-1,-1,-1,26,28,-1,30,32,-1,-1,-1,-1,-1,-1,-1,-1,-1,-1,-1],"split_conditions":[2.3776226E1,1.708826E1,3.6139423E1,7.597868E2,1.6790333E3,-3.8377192E-2,3.6160988E1,7.827645E-1,1.64387E1,3.6787498E-1,-1.5283333E2,-9.5E0,-3.997813E-2,6.9128853E-1,-4.123564E-2,-3.8444504E-2,-4.5756675E-2,3.928416E1,-4.8333335E0,-4.875744E-2,1.9616696E3,2.726598E1,-3.941861E-2,-3.9077967E-2,3.6719076E-2,3.6537968E-2,-4.8471466E-2,2.7511165E-2,-6.0696222E-2,-7.3129624E-2,1.6014846E-2,3.2554172E-2,-3.706648E-2],"split_indices":[1,1,3,6,6,0,3,4,1,4,0,0,0,4,0,0,0,3,0,0,6,1,0,0,0,0,0,0,0,0,0,0,0],"split_type":[0,0,0,0,0,0,0,0,0,0,0,0,0,0,0,0,0,0,0,0,0,0,0,0,0,0,0,0,0,0,0,0,0],"sum_hessian":[3.0664773E3,2.0391206E3,1.0273567E3,2.9352945E2,1.7455912E3,7.533458E2,2.7401086E2,6.1007378E1,2.3252206E2,1.174034E3,5.7155707E2,1.4355608E2,1.304548E2,3.874975E1,2.2257626E1,1.9140834E2,4.1113724E1,1.0863936E3,8.764056E1,3.0608873E1,5.409482E2,1.1578461E2,2.7771473E1,5.4705997E0,3.3279152E1,1.0843492E3,2.0442364E0,6.497986E1,2.2660692E1,9.155171E0,5.31793E2,9.993003E1,1.5854571E1],"tree_param":{"num_deleted":"0","num_feature":"7","num_nodes":"33","size_leaf_vector":"1"}},{"base_weights":[2.1422882E-2,6.0436666E-1,-8.937445E-1,-3.810246E-2,8.395191E-1,-1.1271676E0,-4.0724084E-1,1.0741185E0,1.0700362E-1,-3.790553E-2,3.0747035E-1,1.3274615E-1,-1.043058E0,-3.9319735E-2,1.0990161E0,-4.393596E-2,2.4216844E-1,-3.879044E-2,1.3664603E0,4.9618208E-1,-3.945348E-2,3.774964E-1,-4.0547002E-2,3.370561E-2,4.877325E-4,2.2577444E-2,-8.886566E-3,4.522304E-2,-2.8208844E-2,-2.8886541E-3,4.1882735E-2,-3.5447497E-2,4.4039026E-2],"categories":[],"categories_nodes":[],"categories_segments":[],"categories_sizes":[],"default_left":[0,0,0,0,0,0,0,0,0,0,0,0,0,0,0,0,0,0,0,0,0,0,0,0,0,0,0,0,0,0,0,0,0],"id":30,"left_children":[1,3,5,-1,7,9,11,13,15,-1,17,19,21,-1,23,-1,25,-1,27,29,-1,31,-1,-1,-1,-1,-1,-1,-1,-1,-1,-1,-1],"loss_changes":[1.5762657E3,7.966327E2,1.3010345E2,0E0,2.755829E2,1.5225684E2,1.2866113E2,7.358313E1,8.325649E1,0E0,1.173378E2,1.0763575E2,7.590181E1,0E0,3.1900879E1,0E0,9.921387E1,0E0,1.4920044E1,8.717049E1,0E0,5.5247387E1,0E0,0E0,0E0,0E0,0E0,0E0,0E0,0E0,0E0,0E0,0E0],"parents":[2147483647,0,0,1,1,2,2,4,4,5,5,6,6,7,7,8,8,10,10,11,11,12,12,14,14,16,16,18,18,19,19,21,21],"right_children":[2,4,6,-1,8,10,12,14,16,-1,18,20,22,-1,24,-1,26,-1,28,30,-1,32,-1,-1,-1,-1,-1,-1,-1,-1,-1,-1,-1],"split_conditions":[2.1487843E1,1.64387E1,3.6124542E1,-3.810246E-2,2.389484E3,5.0826705E-1,3.6160988E1,7.950232E-2,3.5129078E1,-3.790553E-2,2.3406378E1,1.1680545E0,1.6019197E-2,-3.9319735E-2,7.827645E-1,-4.393596E-2,2.5887382E-1,-3.879044E-2,5.6378615E-1,9.633707E-1,-3.945348E-2,3.643997E1,-4.0547002E-2,3.370561E-2,4.877325E-4,2.2577444E-2,-8.886566E-3,4.522304E-2,-2.8208844E-2,-2.8886541E-3,4.1882735E-2,-3.5447497E-2,4.4039026E-2],"split_indices":[1,1,3,0,6,4,3,5,3,0,1,5,5,0,4,0,5,0,4,5,0,3,0,0,0,0,0,0,0,0,0,0,0],"split_type":[0,0,0,0,0,0,0,0,0,0,0,0,0,0,0,0,0,0,0,0,0,0,0,0,0,0,0,0,0,0,0,0,0],"sum_hessian":[2.9526118E3,1.8039014E3,1.1487103E3,2.0058618E2,1.6033152E3,7.7537213E2,3.733382E2,1.2140353E3,3.892799E2,7.081846E2,6.718758E1,2.0231084E2,1.7102737E2,1.2010233E1,1.202025E3,3.0050724E1,3.592292E2,2.666577E1,4.052181E1,1.6224269E2,4.006814E1,3.0475721E1,1.4055165E2,1.1753867E3,2.6638344E1,1.8420117E2,1.7502803E2,3.8514553E1,2.0072534E0,9.837129E1,6.387141E1,1.2508453E1,1.7967268E1],"tree_param":{"num_deleted":"0","num_feature":"7","num_nodes":"33","size_leaf_vector":"1"}},{"base_weights":[-7.328009E-2,8.95438E-1,-7.167881E-1,-3.3712026E-1,1.0582101E0,-1.0268629E0,1.7201133E-1,1.3604003E-1,-3.80593E-2,1.2014986E0,6.8892276E-1,-1.2129726E0,-5.965672E-1,2.877313E-1,-6.2109258E-2,-5.211992E-1,9.112536E-1,-3.0583894E-2,1.2155007E0,8.096749E-1,-2.4305239E0,-1.0008562E0,-1.2818779E0,1.0697948E0,-7.86254E-1,3.627001E-1,-2.1361313E0,2.7634354E-2,-3.926961E-2,-3.403252E-2,4.0642247E-2,3.793852E-2,3.3078652E-2,2.7822418E-2,-5.5771224E-2,-8.2618915E-2,-3.7902486E-2,4.410632E-2,-3.746866E-2,-4.046655E-2,-3.724862E-2,-3.4019284E-2,4.279659E-2,-3.2149818E-2,-7.670606E-3,1.9488655E-2,-3.4692017E-3,-3.566983E-2,-8.317018E-2],"categories":[],"categories_nodes":[],"categories_segments":[],"categories_sizes":[],"default_left":[0,0,0,0,0,0,0,0,0,0,0,0,0,0,0,0,0,0,0,0,0,0,0,0,0,0,0,0,0,0,0,0,0,0,0,0,0,0,0,0,0,0,0,0,0,0,0,0,0],"id":31,"left_children":[1,3,5,7,9,11,13,15,-1,17,19,21,23,25,-1,27,29,-1,31,33,35,37,39,41,43,45,47,-1,-1,-1,-1,-1,-1,-1,-1,-1,-1,-1,-1,-1,-1,-1,-1,-1,-1,-1,-1,-1,-1],"loss_changes":[1.7152583E3,2.2070361E2,4.5579712E2,5.6977715E1,5.0521362E1,9.743994E1,1.11769066E2,4.4480835E1,0E0,2.2939453E1,1.0503499E2,1.1209473E1,1.1844624E2,7.496809E1,0E0,5.503969E1,3.7819252E1,0E0,2.4526367E0,8.473042E1,4.6416855E-1,1.3311568E2,5.5908203E-2,3.1846375E1,5.039624E1,5.4548454E1,4.172447E0,0E0,0E0,0E0,0E0,0E0,0E0,0E0,0E0,0E0,0E0,0E0,0E0,0E0,0E0,0E0,0E0,0E0,0E0,0E0,0E0,0E0,0E0],"parents":[2147483647,0,0,1,1,2,2,3,3,4,4,5,5,6,6,7,7,9,9,10,10,11,11,12,12,13,13,15,15,16,16,18,18,19,19,20,20,21,21,22,22,23,23,24,24,25,25,26,26],"right_children":[2,4,6,8,10,12,14,16,-1,18,20,22,24,26,-1,28,30,-1,32,34,36,38,40,42,44,46,48,-1,-1,-1,-1,-1,-1,-1,-1,-1,-1,-1,-1,-1,-1,-1,-1,-1,-1,-1,-1,-1,-1],"split_conditions":[1.1914304E3,3.5728016E1,3.643997E1,5.811162E2,-4.5555553E0,3.595589E1,3.819572E1,4.9954547E2,-3.80593E-2,6.2052035E0,6.509822E-1,7.4757295E0,3.5986675E1,-7.8055553E0,-6.2109258E-2,-1.8916666E1,3.502203E1,-3.0583894E-2,-2.1972221E1,8.966478E2,8.782517E-1,3.4447746E1,3.3706453E4,-3.9833332E1,-1.3611111E1,1.336903E1,3.6587517E1,2.7634354E-2,-3.926961E-2,-3.403252E-2,4.0642247E-2,3.793852E-2,3.3078652E-2,2.7822418E-2,-5.5771224E-2,-8.2618915E-2,-3.7902486E-2,4.410632E-2,-3.746866E-2,-4.046655E-2,-3.724862E-2,-3.4019284E-2,4.279659E-2,-3.2149818E-2,-7.670606E-3,1.9488655E-2,-3.4692017E-3,-3.566983E-2,-8.317018E-2],"split_indices":[6,3,3,6,0,3,3,6,0,2,4,2,3,0,0,0,3,0,0,6,4,3,6,0,0,2,3,0,0,0,0,0,0,0,0,0,0,0,0,0,0,0,0,0,0,0,0,0,0],"split_type":[0,0,0,0,0,0,0,0,0,0,0,0,0,0,0,0,0,0,0,0,0,0,0,0,0,0,0,0,0,0,0,0,0,0,0,0,0,0,0,0,0,0,0,0,0,0,0,0,0],"sum_hessian":[2.749525E3,1.097296E3,1.6522289E3,1.2788003E2,9.69416E2,1.224784E3,4.2744482E2,8.537061E1,4.2509415E1,6.9679626E2,2.7261978E2,8.537183E2,3.7106577E2,4.0729703E2,2.0147799E1,4.637812E1,3.8992493E1,3.9155734E0,6.928807E2,2.6317294E2,9.446843E0,2.1313458E2,6.4058374E2,3.7448463E1,3.336173E2,3.9590234E2,1.1394688E1,1.632314E1,3.005498E1,6.6696315E0,3.232286E1,4.7569153E2,2.1718915E2,2.5267773E2,1.049521E1,6.33232E0,3.1145225E0,1.8997156E1,1.9413744E2,2.2821661E2,4.1236713E2,4.9141517E0,3.2534313E1,2.1626343E2,1.1735388E2,2.4724178E2,1.4866057E2,5.7312813E0,5.663406E0],"tree_param":{"num_deleted":"0","num_feature":"7","num_nodes":"49","size_leaf_vector":"1"}},{"base_weights":[5.7564225E-2,-6.520304E-1,8.093736E-1,9.5563513E-1,-8.035325E-1,1.0172292E0,1.3252267E-2,1.3538151E0,-3.7814066E-2,-1.1821225E0,-3.636001E-1,1.0379336E0,-3.880824E-2,-3.8642976E-1,1.1778361E0,-2.4997523E-2,4.190879E-2,-3.7587177E-2,-6.3919634E-1,-6.8219084E-1,6.757109E-1,-4.534227E-2,1.0553246E0,-1.5413537E0,2.8446588E-1,1.3298398E0,-3.439605E-2,4.5312412E-2,-4.0486854E-2,-4.8300424E-3,-3.3644475E-2,3.2855257E-2,-3.647768E-2,3.4691475E-2,2.2352625E-2,-5.339913E-2,-3.8050562E-2,1.5344422E-2,-6.80212E-2,-3.5487093E-2,4.2738546E-2],"categories":[],"categories_nodes":[],"categories_segments":[],"categories_sizes":[],"default_left":[0,0,0,0,0,0,0,0,0,0,0,0,0,0,0,0,0,0,0,0,0,0,0,0,0,0,0,0,0,0,0,0,0,0,0,0,0,0,0,0,0],"id":32,"left_children":[1,3,5,7,9,11,13,15,-1,17,19,21,-1,23,25,-1,-1,-1,27,29,31,-1,33,35,37,39,-1,-1,-1,-1,-1,-1,-1,-1,-1,-1,-1,-1,-1,-1,-1],"loss_changes":[1.5684696E3,3.691706E2,2.3621307E2,1.1705433E2,2.2988531E2,5.5501465E1,1.3849274E2,1.1665527E1,0E0,2.7744507E1,2.1271906E2,5.1360718E1,0E0,1.7209451E2,2.838369E1,0E0,0E0,0E0,1.3597577E2,1.12267426E2,1.2106931E2,0E0,3.411035E1,3.0554504E0,8.2829666E1,1.8788681E1,0E0,0E0,0E0,0E0,0E0,0E0,0E0,0E0,0E0,0E0,0E0,0E0,0E0,0E0,0E0],"parents":[2147483647,0,0,1,1,2,2,3,3,4,4,5,5,6,6,7,7,9,9,10,10,11,11,13,13,14,14,18,18,19,19,20,20,22,22,23,23,24,24,25,25],"right_children":[2,4,6,8,10,12,14,16,-1,18,20,22,-1,24,26,-1,-1,-1,28,30,32,-1,34,36,38,40,-1,-1,-1,-1,-1,-1,-1,-1,-1,-1,-1,-1,-1,-1,-1],"split_conditions":[3.625857E1,2.564939E2,3.4212434E3,-9.5E0,-2.95E1,2.3776226E1,-1.3611111E1,-5.9055557E1,-3.7814066E-2,3.6139423E1,1.1687945E4,1.6937439E1,-3.880824E-2,3.7711666E1,-7.8055553E0,-2.4997523E-2,4.190879E-2,-3.7587177E-2,3.6142582E1,1.9801632E1,3.3706453E4,-4.534227E-2,1.0695077E3,2.0965876E1,-4.877778E1,4.505038E3,-3.439605E-2,4.5312412E-2,-4.0486854E-2,-4.8300424E-3,-3.3644475E-2,3.2855257E-2,-3.647768E-2,3.4691475E-2,2.2352625E-2,-5.339913E-2,-3.8050562E-2,1.5344422E-2,-6.80212E-2,-3.5487093E-2,4.2738546E-2],"split_indices":[3,6,6,0,0,1,0,0,0,3,6,1,0,3,0,0,0,0,3,1,6,0,6,1,0,6,0,0,0,0,0,0,0,0,0,0,0,0,0,0,0],"split_type":[0,0,0,0,0,0,0,0,0,0,0,0,0,0,0,0,0,0,0,0,0,0,0,0,0,0,0,0,0,0,0,0,0,0,0,0,0,0,0,0,0],"sum_hessian":[2.9380833E3,1.5115453E3,1.426538E3,1.297194E2,1.3818259E3,1.1309784E3,2.955596E2,1.1029176E2,1.9427647E1,7.417852E2,6.400407E2,1.1214811E3,9.49726E0,2.205393E2,7.502031E1,1.7793777E0,1.0851238E2,6.55073E2,8.671224E1,4.9013742E2,1.4990327E2,7.016558E0,1.1144646E3,8.0560196E1,1.399791E2,7.0817055E1,4.203256E0,2.1257992E1,6.545425E1,2.2479733E2,2.653401E2,1.2304044E2,2.6862825E1,8.385757E2,2.758889E2,4.00417E1,4.0518497E1,1.2927794E2,1.0701167E1,2.1567638E0,6.866029E1],"tree_param":{"num_deleted":"0","num_feature":"7","num_nodes":"41","size_leaf_vector":"1"}},{"base_weights":[6.468807E-2,5.9479135E-1,-7.785047E-1,-3.741184E-2,8.2229227E-1,-8.4856933E-1,3.626767E-1,8.7267476E-1,-5.6113625E-1,4.2339203E-1,-9.2850506E-1,1.3193444E0,-3.7679575E-2,9.203082E-1,-5.291017E-1,-4.8698913E-2,4.6986803E-2,-3.6160067E-2,1.2360067E0,-6.2509584E-1,-3.7445165E-2,-3.088271E-2,4.754523E-2,-3.9495595E-2,2.801405E-2,3.8824264E-2,-4.249078E-2,-3.3533584E-2,4.6269394E-2,-3.72041E-2,1.8424104E-3],"categories":[],"categories_nodes":[],"categories_segments":[],"categories_sizes":[],"default_left":[0,0,0,0,0,0,0,0,0,0,0,0,0,0,0,0,0,0,0,0,0,0,0,0,0,0,0,0,0,0,0],"id":33,"left_children":[1,3,5,-1,7,9,11,13,15,17,19,21,-1,23,25,-1,-1,-1,27,29,-1,-1,-1,-1,-1,-1,-1,-1,-1,-1,-1],"loss_changes":[1.2948646E3,7.463077E2,8.972046E1,0E0,1.1087341E2,1.0754663E2,1.0291007E2,1.0254187E2,1.2966194E2,8.4873825E1,9.542224E1,2.7563492E1,0E0,4.5856323E1,8.411685E1,0E0,0E0,0E0,3.2383514E1,2.1578743E2,0E0,0E0,0E0,0E0,0E0,0E0,0E0,0E0,0E0,0E0,0E0],"parents":[2147483647,0,0,1,1,2,2,4,4,5,5,6,6,7,7,8,8,9,9,10,10,11,11,13,13,14,14,18,18,19,19],"right_children":[2,4,6,-1,8,10,12,14,16,18,20,22,-1,24,26,-1,-1,-1,28,30,-1,-1,-1,-1,-1,-1,-1,-1,-1,-1,-1],"split_conditions":[2.191568E1,1.64387E1,5.0826705E-1,-3.741184E-2,7.9407E-1,2.1695197E-2,-2.2583334E1,1.8929024E1,5.9871297E0,2.4015649E-1,1.8501481E-1,-2.95E1,-3.7679575E-2,-5.551111E2,3.085644E-1,-4.8698913E-2,4.6986803E-2,-3.6160067E-2,2.554382E1,1.3554218E-1,-3.7445165E-2,-3.088271E-2,4.754523E-2,-3.9495595E-2,2.801405E-2,3.8824264E-2,-4.249078E-2,-3.3533584E-2,4.6269394E-2,-3.72041E-2,1.8424104E-3],"split_indices":[1,1,4,0,4,5,0,2,4,4,4,0,0,0,4,0,0,0,1,4,0,0,0,0,0,0,0,0,0,0,0],"split_type":[0,0,0,0,0,0,0,0,0,0,0,0,0,0,0,0,0,0,0,0,0,0,0,0,0,0,0,0,0,0,0],"sum_hessian":[2.894887E3,1.7776183E3,1.1172686E3,1.9493535E2,1.5826829E3,1.0528817E3,6.4386856E1,1.5274254E3,5.5257465E1,6.200133E1,9.9088043E2,4.0585052E1,2.3801807E1,1.4775603E3,4.986514E1,3.7013912E1,1.8243553E1,2.0476633E1,4.1524696E1,5.0988394E2,4.8099646E2,3.8294768E0,3.6755573E1,8.280809E0,1.4692795E3,1.617278E1,3.369236E1,4.476451E0,3.704825E1,2.6851556E2,2.4136838E2],"tree_param":{"num_deleted":"0","num_feature":"7","num_nodes":"31","size_leaf_vector":"1"}},{"base_weights":[4.6174627E-2,5.4559004E-1,-8.787246E-1,-1.130911E0,8.0557483E-1,3.277546E-1,-9.622344E-1,-1.2994704E0,-2.698937E-2,-2.3214652E-1,9.0666026E-1,-3.6098782E-2,1.1975038E0,-1.0119929E0,1.108533E0,-3.7131738E-2,-4.6542373E-2,-3.523284E-2,3.7428424E-2,4.4853178E-1,-4.0160112E-2,-3.819366E-2,9.235671E-1,1.496041E0,-3.3225626E-2,-3.710007E-2,-7.438184E-1,-2.9597336E-2,4.542477E-2,2.1187223E-2,-4.6020154E-2,3.461395E-2,2.5693579E-2,4.7268946E-2,-2.1137474E-2,-3.6946382E-2,5.4132487E-3],"categories":[],"categories_nodes":[],"categories_segments":[],"categories_sizes":[],"default_left":[0,0,0,0,0,0,0,0,0,0,0,0,0,0,0,0,0,0,0,0,0,0,0,0,0,0,0,0,0,0,0,0,0,0,0,0,0],"id":34,"left_children":[1,3,5,7,9,11,13,15,17,19,21,-1,23,25,27,-1,-1,-1,-1,29,-1,-1,31,33,-1,-1,35,-1,-1,-1,-1,-1,-1,-1,-1,-1,-1],"loss_changes":[1.3195355E3,8.094326E2,1.0123743E2,4.638327E1,1.6873242E2,8.878436E1,9.767792E1,1.4460449E0,5.1287434E1,1.0860605E2,5.5133545E1,0E0,3.0786041E1,5.4248535E1,2.0586325E1,0E0,0E0,0E0,0E0,4.6826965E1,0E0,0E0,2.1470093E1,7.74868E0,0E0,0E0,1.8951434E2,0E0,0E0,0E0,0E0,0E0,0E0,0E0,0E0,0E0,0E0],"parents":[2147483647,0,0,1,1,2,2,3,3,4,4,5,5,6,6,7,7,8,8,9,9,10,10,12,12,13,13,14,14,19,19,22,22,23,23,26,26],"right_children":[2,4,6,8,10,12,14,16,18,20,22,-1,24,26,28,-1,-1,-1,-1,30,-1,-1,32,34,-1,-1,36,-1,-1,-1,-1,-1,-1,-1,-1,-1,-1],"split_conditions":[2.3776226E1,1.6937439E1,2.1695197E-2,2.2675116E0,1.13762766E-1,2.3900323E-1,5.531123E-1,1.64387E1,-2.1583334E1,-1E1,-5.551111E2,-3.6098782E-2,2.948141E-1,2.6970041E1,-2.95E1,-3.7131738E-2,-4.6542373E-2,-3.523284E-2,3.7428424E-2,7.50955E-2,-4.0160112E-2,-3.819366E-2,1.1787893E-1,-1.0611111E1,-3.3225626E-2,-3.710007E-2,8.050262E0,-2.9597336E-2,4.542477E-2,2.1187223E-2,-4.6020154E-2,3.461395E-2,2.5693579E-2,4.7268946E-2,-2.1137474E-2,-3.6946382E-2,5.4132487E-3],"split_indices":[1,1,5,5,5,4,4,1,0,0,0,0,4,1,0,0,0,0,0,5,0,0,4,0,0,0,2,0,0,0,0,0,0,0,0,0,0],"split_type":[0,0,0,0,0,0,0,0,0,0,0,0,0,0,0,0,0,0,0,0,0,0,0,0,0,0,0,0,0,0,0,0,0,0,0,0,0],"sum_hessian":[2.8546626E3,1.8539825E3,1.00068005E3,2.4845845E2,1.605524E3,6.459149E1,9.3608856E2,2.1539267E2,3.306578E1,1.423982E2,1.4631259E3,2.3260967E1,4.133052E1,9.146224E2,2.1466204E1,1.7774403E2,3.7648647E1,1.744228E1,1.5623501E1,8.853223E1,5.3865963E1,1.0689123E1,1.4524368E3,3.690208E1,4.4284396E0,4.9570792E2,4.1891443E2,3.2495618E0,1.8216642E1,7.891754E1,9.614682E0,3.241777E2,1.128259E3,3.588811E1,1.0139685E0,2.739957E2,1.4491875E2],"tree_param":{"num_deleted":"0","num_feature":"7","num_nodes":"37","size_leaf_vector":"1"}},{"base_weights":[6.5399535E-2,-7.3167735E-1,6.4656866E-1,-3.6778245E-2,-2.7028975E-1,8.5090744E-1,-1.5917599E-1,-3.7497126E-2,2.4114339E-2,-4.3319456E-2,8.886281E-1,5.0085795E-1,-7.458975E-1,3.781246E-1,-3.711371E-2,-3.9724294E-2,9.0288687E-1,8.4280604E-1,-3.8283423E-2,-9.975501E-1,1.0717988E0,2.3046095E-2,-5.968391E-3,2.7367268E-2,-4.8884135E-2,3.8064957E-2,-3.7890907E-2,1.0217336E-2,-3.9101355E-2,-3.151581E-2,4.4565085E-2],"categories":[],"categories_nodes":[],"categories_segments":[],"categories_sizes":[],"default_left":[0,0,0,0,0,0,0,0,0,0,0,0,0,0,0,0,0,0,0,0,0,0,0,0,0,0,0,0,0,0,0],"id":35,"left_children":[1,3,5,-1,7,9,11,-1,13,-1,15,17,19,21,-1,-1,23,25,-1,27,29,-1,-1,-1,-1,-1,-1,-1,-1,-1,-1],"loss_changes":[1.3045775E3,2.704895E2,2.682824E2,0E0,1.7753964E2,1.1375903E2,1.282898E2,0E0,2.1221333E2,0E0,4.1547485E1,9.5892715E1,8.1242805E1,8.368194E1,0E0,0E0,3.1606201E1,1.1954418E2,0E0,6.3660446E1,2.0698324E1,0E0,0E0,0E0,0E0,0E0,0E0,0E0,0E0,0E0,0E0],"parents":[2147483647,0,0,1,1,2,2,4,4,5,5,6,6,8,8,10,10,11,11,12,12,13,13,16,16,17,17,19,19,20,20],"right_children":[2,4,6,-1,8,10,12,-1,14,-1,16,18,20,22,-1,-1,24,26,-1,28,30,-1,-1,-1,-1,-1,-1,-1,-1,-1,-1],"split_conditions":[3.6139423E1,-3.7E1,2.191568E1,-3.6778245E-2,3.3710087E1,1.6937439E1,3.6160988E1,-3.7497126E-2,2.6970041E1,-4.3319456E-2,-4.8077777E2,1.1680545E0,3.8559532E1,-1.1888889E1,-3.711371E-2,-3.9724294E-2,3.928416E1,9.522784E0,-3.8283423E-2,1.6019197E-2,2.3406378E1,2.3046095E-2,-5.968391E-3,2.7367268E-2,-4.8884135E-2,3.8064957E-2,-3.7890907E-2,1.0217336E-2,-3.9101355E-2,-3.151581E-2,4.4565085E-2],"split_indices":[3,0,1,0,3,1,3,0,1,0,0,5,3,0,0,0,3,2,0,5,1,0,0,0,0,0,0,0,0,0,0],"split_type":[0,0,0,0,0,0,0,0,0,0,0,0,0,0,0,0,0,0,0,0,0,0,0,0,0,0,0,0,0,0,0],"sum_hessian":[2.8142024E3,1.186564E3,1.6276385E3,5.720717E2,6.144922E2,1.2983243E3,3.2931427E2,1.4124873E2,4.7324347E2,2.0392359E1,1.2779319E3,1.5504373E2,1.7427052E2,3.7007053E2,1.0317294E2,7.593883E0,1.270338E3,1.3046388E2,2.4579851E1,1.5347389E2,2.0796629E1,2.2061307E2,1.4945746E2,1.2662997E3,4.038411E0,1.0884186E2,2.1622026E1,2.8529919E1,1.2494398E2,3.1414561E0,1.7655172E1],"tree_param":{"num_deleted":"0","num_feature":"7","num_nodes":"31","size_leaf_vector":"1"}},{"base_weights":[4.7904044E-2,-6.893359E-1,6.118429E-1,-1.576496E-1,-1.0700809E0,8.215614E-1,-1.6876452E-1,-3.6635082E-2,4.5651737E-1,-1.1397061E0,1.3464322E0,-4.2892557E-2,8.616072E-1,4.4835097E-1,-7.360245E-1,-1.8120973E-1,8.632957E-1,8.574288E-1,-3.6581423E-2,4.4908993E-2,-2.0371115E-2,8.884375E-1,-6.927891E-2,7.8945106E-1,-3.798807E-2,-9.8455334E-1,1.0384499E0,-1.4784605E-2,4.6410337E-2,3.035306E-2,-4.6372756E-2,-3.428899E-2,4.8547763E-2,2.7078968E-2,-5.304809E-2,-3.8093843E-2,3.706654E-2,1.0453364E-2,-3.877583E-2,-3.2322567E-2,4.3830168E-2],"categories":[],"categories_nodes":[],"categories_segments":[],"categories_sizes":[],"default_left":[0,0,0,0,0,0,0,0,0,0,0,0,0,0,0,0,0,0,0,0,0,0,0,0,0,0,0,0,0,0,0,0,0,0,0,0,0,0,0,0,0],"id":36,"left_children":[1,3,5,7,9,11,13,-1,15,17,19,-1,21,23,25,27,29,31,-1,-1,-1,33,-1,35,-1,37,39,-1,-1,-1,-1,-1,-1,-1,-1,-1,-1,-1,-1,-1,-1],"loss_changes":[1.1378018E3,2.3994751E2,2.5397552E2,3.246178E2,1.17795715E2,1.1143463E2,1.1556601E2,0E0,8.193229E1,1.0800525E2,7.0566673E0,0E0,1.0428143E2,9.357397E1,7.683139E1,6.7321106E1,7.0467545E1,4.199144E1,0E0,0E0,0E0,4.6558105E1,0E0,1.23413734E2,0E0,6.256125E1,2.0890322E1,0E0,0E0,0E0,0E0,0E0,0E0,0E0,0E0,0E0,0E0,0E0,0E0,0E0,0E0],"parents":[2147483647,0,0,1,1,2,2,3,3,4,4,5,5,6,6,8,8,9,9,10,10,12,12,13,13,14,14,15,15,16,16,17,17,21,21,23,23,25,25,26,26],"right_children":[2,4,6,8,10,12,14,-1,16,18,20,-1,22,24,26,28,30,32,-1,-1,-1,34,-1,36,-1,38,40,-1,-1,-1,-1,-1,-1,-1,-1,-1,-1,-1,-1,-1,-1],"split_conditions":[3.6139423E1,2.3524279E1,2.191568E1,1.64387E1,5.390929E-1,1.6937439E1,3.6160988E1,-3.6635082E-2,3.5129078E1,2.1695197E-2,5.6378615E-1,-4.2892557E-2,1.6099014E1,1.1680545E0,3.8559532E1,5.9871297E0,7.827645E-1,3.609626E1,-3.6581423E-2,4.4908993E-2,-2.0371115E-2,3.928416E1,-6.927891E-2,3.924682E-1,-3.798807E-2,1.6019197E-2,2.3406378E1,-1.4784605E-2,4.6410337E-2,3.035306E-2,-4.6372756E-2,-3.428899E-2,4.8547763E-2,2.7078968E-2,-5.304809E-2,-3.8093843E-2,3.706654E-2,1.0453364E-2,-3.877583E-2,-3.2322567E-2,4.3830168E-2],"split_indices":[3,1,1,1,4,1,3,0,3,5,4,0,2,5,3,4,4,3,0,0,0,3,0,5,0,5,1,0,0,0,0,0,0,0,0,0,0,0,0,0,0],"split_type":[0,0,0,0,0,0,0,0,0,0,0,0,0,0,0,0,0,0,0,0,0,0,0,0,0,0,0,0,0,0,0,0,0,0,0,0,0,0,0,0,0],"sum_hessian":[2.7346765E3,1.1851292E3,1.5495474E3,4.9512808E2,6.9000104E2,1.2213627E3,3.2818466E2,1.808945E2,3.1423358E2,6.7119086E2,1.8810167E1,2.0739098E1,1.2006237E3,1.5728539E2,1.7089929E2,1.22592926E2,1.9164067E2,2.537507E1,6.458158E2,1.7751772E1,1.0583959E0,1.1912637E3,9.359958E0,1.3163748E2,2.564789E1,1.5029454E2,2.0604752E1,1.0447092E2,1.8122005E1,1.8106163E2,1.0579037E1,6.853472E0,1.8521599E1,1.1855894E3,5.674361E0,2.3110514E1,1.0852698E2,2.8182306E1,1.22112236E2,3.1719637E0,1.7432787E1],"tree_param":{"num_deleted":"0","num_feature":"7","num_nodes":"41","size_leaf_vector":"1"}},{"base_weights":[4.5820925E-2,-6.826832E-1,5.9614813E-1,-1.4814967E-1,-1.0630801E0,7.981128E-1,-1.6119313E-1,-3.6387213E-2,4.5029795E-1,-1.1324604E0,4.1637175E-2,-4.2279143E-2,8.3905673E-1,4.533104E-1,-7.248389E-1,1.2435848E0,1.3517803E-1,8.6269003E-1,-3.6354914E-2,8.510267E-1,-5.0360728E-2,7.8133386E-1,-3.768313E-2,-9.706181E-1,1.050025E0,2.547063E-2,3.9370444E-2,1.0969524E-2,-3.8452074E-2,-3.3918213E-2,4.7574088E-2,3.2437656E-2,2.231582E-2,3.6212035E-2,-3.7371796E-2,7.894001E-3,-3.834803E-2,-3.1120365E-2,4.3135837E-2],"categories":[],"categories_nodes":[],"categories_segments":[],"categories_sizes":[],"default_left":[0,0,0,0,0,0,0,0,0,0,0,0,0,0,0,0,0,0,0,0,0,0,0,0,0,0,0,0,0,0,0,0,0,0,0,0,0,0,0],"id":37,"left_children":[1,3,5,7,9,11,13,-1,15,17,-1,-1,19,21,23,25,27,29,-1,31,-1,33,-1,35,37,-1,-1,-1,-1,-1,-1,-1,-1,-1,-1,-1,-1,-1,-1],"loss_changes":[1.0805424E3,2.3568353E2,2.3496326E2,3.0856573E2,1.16775696E2,1.1074548E2,1.1257185E2,0E0,7.737349E1,1.0546057E2,0E0,0E0,3.73161E1,8.8260086E1,7.492036E1,1.2751312E0,7.333252E1,3.899696E1,0E0,2.8453064E1,0E0,1.1473567E2,0E0,5.701439E1,1.8562304E1,0E0,0E0,0E0,0E0,0E0,0E0,0E0,0E0,0E0,0E0,0E0,0E0,0E0,0E0],"parents":[2147483647,0,0,1,1,2,2,3,3,4,4,5,5,6,6,8,8,9,9,12,12,13,13,14,14,15,15,16,16,17,17,19,19,21,21,23,23,24,24],"right_children":[2,4,6,8,10,12,14,-1,16,18,-1,-1,20,22,24,26,28,30,-1,32,-1,34,-1,36,38,-1,-1,-1,-1,-1,-1,-1,-1,-1,-1,-1,-1,-1,-1],"split_conditions":[3.6139423E1,2.3524279E1,2.191568E1,1.64387E1,5.4447913E-1,1.6937439E1,3.6160988E1,-3.6387213E-2,3.4378946E-1,2.1695197E-2,4.1637175E-2,-4.2279143E-2,3.928416E1,1.1680545E0,3.8559532E1,2.606572E-1,1.952147E1,3.6124542E1,-3.6354914E-2,1.510482E-1,-5.0360728E-2,9.522784E0,-3.768313E-2,1.6019197E-2,2.3406378E1,2.547063E-2,3.9370444E-2,1.0969524E-2,-3.8452074E-2,-3.3918213E-2,4.7574088E-2,3.2437656E-2,2.231582E-2,3.6212035E-2,-3.7371796E-2,7.894001E-3,-3.834803E-2,-3.1120365E-2,4.3135837E-2],"split_indices":[3,1,1,1,4,1,3,0,4,5,0,0,3,5,3,4,2,3,0,4,0,2,0,5,1,0,0,0,0,0,0,0,0,0,0,0,0,0,0],"split_type":[0,0,0,0,0,0,0,0,0,0,0,0,0,0,0,0,0,0,0,0,0,0,0,0,0,0,0,0,0,0,0,0,0,0,0,0,0,0,0],"sum_hessian":[2.6931714E3,1.1588651E3,1.5343063E3,4.8239426E2,6.764709E2,1.211243E3,3.2306317E2,1.7320367E2,3.0919058E2,6.5837225E2,1.8098642E1,2.1448828E1,1.1897942E3,1.5465233E2,1.6841086E2,8.706519E1,2.2212538E2,2.4811422E1,6.3356085E2,1.1848232E3,4.9709473E0,1.3020912E2,2.4443203E1,1.4832436E2,2.0086498E1,1.4902408E1,7.216279E1,1.9168771E2,3.043766E1,6.4548297E0,1.8356592E1,3.7344614E2,8.1137714E2,1.079429E2,2.2266218E1,2.9633074E1,1.18691284E2,2.8849154E0,1.7201582E1],"tree_param":{"num_deleted":"0","num_feature":"7","num_nodes":"39","size_leaf_vector":"1"}},{"base_weights":[3.864599E-2,8.079176E-1,-5.642303E-1,-4.1979155E-1,9.6649927E-1,-8.208696E-1,3.30301E-1,1.9985576E-1,-3.6458332E-2,1.0401524E0,-3.5540275E-2,-5.863747E-1,-3.5816442E-2,6.050424E-1,-8.4789544E-1,6.1976457E-1,-3.51723E-2,1.0934428E-1,1.0655826E0,1.0606718E0,-3.9932188E-2,-8.3415365E-1,1.20619945E-2,6.935327E-1,-5.4492645E-2,-5.3842112E-2,1.2662225E0,-3.3469032E-2,3.2431573E-2,3.5080798E-2,-4.7451764E-2,3.2141954E-2,-4.3486763E-2,-3.2039125E-2,4.0781688E-2,-3.8866747E-2,-1.71284E-2,1.6466292E-2,-3.7846424E-2,-4.1100226E-2,2.2887968E-2,4.448962E-2,-2.3910888E-2],"categories":[],"categories_nodes":[],"categories_segments":[],"categories_sizes":[],"default_left":[0,0,0,0,0,0,0,0,0,0,0,0,0,0,0,0,0,0,0,0,0,0,0,0,0,0,0,0,0,0,0,0,0,0,0,0,0,0,0,0,0,0,0],"id":38,"left_children":[1,3,5,7,9,11,13,15,-1,17,19,21,-1,23,25,27,-1,29,31,33,-1,35,37,39,-1,-1,41,-1,-1,-1,-1,-1,-1,-1,-1,-1,-1,-1,-1,-1,-1,-1,-1],"loss_changes":[1.2336973E3,2.2795166E2,3.426517E2,6.648818E1,7.6449585E1,1.0069348E2,1.0836949E2,4.4753227E1,0E0,2.2713501E1,1.034631E2,1.0583925E2,0E0,5.9280838E1,1.292273E2,4.8562675E1,0E0,4.982585E1,1.5284424E1,2.6555523E1,0E0,6.055905E1,1.4424478E2,3.8559395E1,0E0,0E0,1.021833E1,0E0,0E0,0E0,0E0,0E0,0E0,0E0,0E0,0E0,0E0,0E0,0E0,0E0,0E0,0E0,0E0],"parents":[2147483647,0,0,1,1,2,2,3,3,4,4,5,5,6,6,7,7,9,9,10,10,11,11,13,13,14,14,15,15,17,17,18,18,19,19,21,21,22,22,23,23,26,26],"right_children":[2,4,6,8,10,12,14,16,-1,18,20,22,-1,24,26,28,-1,30,32,34,-1,36,38,40,-1,-1,42,-1,-1,-1,-1,-1,-1,-1,-1,-1,-1,-1,-1,-1,-1,-1,-1],"split_conditions":[1.6480481E3,3.5728016E1,3.6961193E1,5.811162E2,2.3776226E1,3.93807E4,6.533741E3,1.9062456E1,-3.6458332E-2,1.6937439E1,2.564939E2,1.1687945E4,-3.5816442E-2,3.8559532E1,2.0965876E1,1.6279951E1,-3.51723E-2,1.662796E1,3.928416E1,6.6118985E-1,-3.9932188E-2,1.7951827E-1,4.0958664E-1,1.708826E1,-5.4492645E-2,-5.3842112E-2,8.630169E-1,-3.3469032E-2,3.2431573E-2,3.5080798E-2,-4.7451764E-2,3.2141954E-2,-4.3486763E-2,-3.2039125E-2,4.0781688E-2,-3.8866747E-2,-1.71284E-2,1.6466292E-2,-3.7846424E-2,-4.1100226E-2,2.2887968E-2,4.448962E-2,-2.3910888E-2],"split_indices":[6,3,3,6,1,6,6,1,0,1,6,6,0,3,1,1,0,1,3,5,0,5,5,1,0,0,5,0,0,0,0,0,0,0,0,0,0,0,0,0,0,0,0],"split_type":[0,0,0,0,0,0,0,0,0,0,0,0,0,0,0,0,0,0,0,0,0,0,0,0,0,0,0,0,0,0,0,0,0,0,0,0,0,0,0,0,0,0,0],"sum_hessian":[2.6581338E3,1.1677465E3,1.4903873E3,1.3339336E2,1.034353E3,1.1581879E3,3.3219955E2,7.5405045E1,5.798831E1,9.63495E2,7.085805E1,7.127116E2,4.4547623E2,2.697772E2,6.2422367E1,5.815743E1,1.724762E1,2.576409E1,9.3773096E2,3.8479767E1,3.2378284E1,5.0374518E2,2.0896643E2,2.6095444E2,8.822765E0,4.3217697E1,1.920467E1,1.1914747E1,4.6242683E1,1.6026613E1,9.737476E0,9.361403E2,1.5906404E0,4.418519E0,3.406125E1,1.8155504E2,3.2219012E2,1.4740546E2,6.1560974E1,7.880914E0,2.5307352E2,1.7633352E1,1.5713183E0],"tree_param":{"num_deleted":"0","num_feature":"7","num_nodes":"43","size_leaf_vector":"1"}},{"base_weights":[-1.642162E-2,7.036457E-1,-7.473084E-1,8.945191E-1,-6.660741E-1,-5.159142E-1,-3.561685E-2,9.742021E-1,-3.7581783E-2,9.301195E-1,-9.176067E-1,-2.8761977E-1,-1.1695511E0,-3.417494E-2,1.0078881E0,1.206231E0,-2.6502553E-2,-3.774306E-2,1.684191E-1,-1.3012482E0,-4.018893E-2,6.768504E-1,-1.3971558E0,3.2841526E-2,2.237164E-2,-2.171336E-2,4.214438E-2,-3.529698E-2,4.2005494E-2,-3.6952768E-2,-5.3093627E-2,-1.0654688E-2,1.732565E-2,-4.4993315E-2,4.075559E-2,-6.0830016E-2,-3.6007654E-2],"categories":[],"categories_nodes":[],"categories_segments":[],"categories_sizes":[],"default_left":[0,0,0,0,0,0,0,0,0,0,0,0,0,0,0,0,0,0,0,0,0,0,0,0,0,0,0,0,0,0,0,0,0,0,0,0,0],"id":39,"left_children":[1,3,5,7,9,11,-1,13,-1,15,17,19,21,-1,23,25,-1,-1,27,29,31,33,35,-1,-1,-1,-1,-1,-1,-1,-1,-1,-1,-1,-1,-1,-1],"loss_changes":[1.3283252E3,3.3299408E2,1.268913E2,1.9222217E2,6.3517044E1,1.2241072E2,0E0,7.781653E1,0E0,1.1953333E1,5.0255974E1,1.5318254E2,9.0293E1,0E0,2.3326294E1,8.411131E0,0E0,0E0,5.662401E1,1.7220764E0,9.595325E1,3.7655098E1,2.1104767E1,0E0,0E0,0E0,0E0,0E0,0E0,0E0,0E0,0E0,0E0,0E0,0E0,0E0,0E0],"parents":[2147483647,0,0,1,1,2,2,3,3,4,4,5,5,7,7,9,9,10,10,11,11,12,12,14,14,15,15,18,18,19,19,20,20,21,21,22,22],"right_children":[2,4,6,8,10,12,-1,14,-1,16,18,20,22,-1,24,26,-1,-1,28,30,32,34,36,-1,-1,-1,-1,-1,-1,-1,-1,-1,-1,-1,-1,-1,-1],"split_conditions":[2.389484E3,2.191568E1,3.93807E4,1.7677956E1,6.799904E1,1.1680545E0,-3.561685E-2,1.64387E1,-3.7581783E-2,2.7064564E1,6.6768146E0,1.7515253E1,1.8120916E1,-3.417494E-2,9.611774E2,2.6132374E1,-2.6502553E-2,-3.774306E-2,1.3174154E1,1.6937439E1,1.1687945E4,4.586469E0,2.191568E1,3.2841526E-2,2.237164E-2,-2.171336E-2,4.214438E-2,-3.529698E-2,4.2005494E-2,-3.6952768E-2,-5.3093627E-2,-1.0654688E-2,1.732565E-2,-4.4993315E-2,4.075559E-2,-6.0830016E-2,-3.6007654E-2],"split_indices":[6,1,6,2,6,5,0,1,0,1,5,1,1,